-2.965740300714969635e-02,-2.287801504135131836e-01,-3.805775940418243408e-01,7.673771679401397705e-02,5.788110196590423584e-02,8.149719983339309692e-02,8.719559758901596069e-03,1.004579588770866394e-01,5.538201704621315002e-02,1.283479481935501099e-01,1.010562554001808167e-01,3.911671414971351624e-02,-3.428987786173820496e-02,-3.588933870196342468e-02,-5.961660295724868774e-02,-8.161713182926177979e-02,-6.573764141649007797e-03,9.160929918289184570e-02,1.691634505987167358e-01,2.164769768714904785e-01,7.833979278802871704e-02,7.956523448228836060e-02,9.358232468366622925e-02,6.579375267028808594e-02,1.034030988812446594e-01,-4.770488291978836060e-02,-6.755045056343078613e-02,-5.415034666657447815e-02,-3.026648238301277161e-02,1.196086499840021133e-02,3.424071148037910461e-02,-7.099352777004241943e-02,-7.956151664257049561e-02,-7.373663038015365601e-02,-1.484276950359344482e-01,-2.220133505761623383e-02,1.401385059580206871e-03,-9.719628724269568920e-04,2.549452707171440125e-02,-2.673164382576942444e-02,-1.133168414235115051e-01,-1.389468014240264893e-01,-1.569884866476058960e-01,-1.351920366287231445e-01,-1.107531599700450897e-02,-2.184834331274032593e-01,-2.313034087419509888e-01,-1.944881975650787354e-01,-6.469301134347915649e-02,2.552572404965758324e-03,-1.228821948170661926e-01,-1.108225658535957336e-01,-9.910900145769119263e-02,-5.631339177489280701e-02,-1.451220661401748657e-01,-1.165085360407829285e-01,-8.257041126489639282e-02,-1.623226255178451538e-01,-9.844464808702468872e-02,-1.563974469900131226e-01,-6.798735857009887695e-01,-1.158509373664855957e+00,1.602646112442016602e-01,7.577906847000122070e-01,-1.287042200565338135e-01,9.943953156471252441e-02,5.380059778690338135e-02,-2.165696956217288971e-02,-3.641818165779113770e-01,1.361051797866821289e-01,-3.538016080856323242e-01,3.364512324333190918e-01,-4.082021415233612061e-01,3.265081346035003662e-01,-6.497932225465774536e-02,-8.629857003688812256e-02,2.725678980350494385e-01,-3.281452953815460205e-01,4.832763373851776123e-01,-5.253236889839172363e-01,5.793158411979675293e-01,-4.580973386764526367e-01,3.604305684566497803e-01,-1.248306259512901306e-01,2.452938407659530640e-01,-7.861205935478210449e-02,1.658990234136581421e-01,2.305514365434646606e-01,-2.066984027624130249e-01,4.026401042938232422e-01,-2.127801626920700073e-01,2.491887062788009644e-01,-3.292616605758666992e-01,1.761025339365005493e-01,-1.796255074441432953e-02,1.009301654994487762e-02,-2.212374657392501831e-02,-3.141914904117584229e-01,3.035125732421875000e-01,-3.758609294891357422e-01,3.564189374446868896e-01,-3.761038482189178467e-01,6.019797921180725098e-01,-1.572172641754150391e-01,2.178597003221511841e-01,2.060925588011741638e-02,2.073746621608734131e-01,2.037014365196228027e-01,-1.909600049257278442e-01,5.490283370018005371e-01,-3.937724828720092773e-01,6.053639054298400879e-01,-4.964923262596130371e-01,4.336582720279693604e-01,-3.438031971454620361e-01,3.887084424495697021e-01,-2.839136421680450439e-01,1.219935193657875061e-01,-4.740203730762004852e-03,-1.156597286462783813e-01,1.889783143997192383e-01,-2.119347155094146729e-01,1.862333714962005615e-01,-3.020478785037994385e-01,-6.570632010698318481e-02,-3.515495657920837402e-01,1.439170539379119873e-01,9.512389451265335083e-02,-1.091695278882980347e-01,4.964630678296089172e-02,2.537073791027069092e-01,1.606050282716751099e-01,-9.451691806316375732e-02,-4.449051246047019958e-02,2.210404351353645325e-02,-4.873840603977441788e-03,5.020156875252723694e-02,1.494948938488960266e-02,2.466277219355106354e-02,-1.451694406569004059e-02,1.330467909574508667e-01,-1.825933903455734253e-02,1.339746564626693726e-01,6.421533972024917603e-02,1.706994324922561646e-02,-9.476935863494873047e-02,3.097830899059772491e-02,1.303145885467529297e-01,1.061330884695053101e-01,-2.381310239434242249e-02,-9.344383142888545990e-03,7.515893876552581787e-02,3.904362767934799194e-02,1.716864556074142456e-01,4.279531538486480713e-02,2.176041901111602783e-02,8.607675135135650635e-02,5.606937035918235779e-02,2.095229774713516235e-01,2.281415462493896484e-01,1.859632283449172974e-01,2.783079445362091064e-01,7.676147669553756714e-02,1.760613918304443359e-01,6.333727389574050903e-02,1.641949415206909180e-01,3.045953065156936646e-02,1.858427077531814575e-01,2.500738191884011030e-04,1.739906519651412964e-01,-1.820156909525394440e-02,-1.966266427189111710e-03,2.608858235180377960e-02,1.339529603719711304e-01,-6.438628770411014557e-04,-3.770024701952934265e-02,-2.493575401604175568e-02,5.963876377791166306e-03,5.494699254631996155e-02,-1.056965664029121399e-01,1.117960512638092041e-01,-1.023324728012084961e-01,2.878746576607227325e-02,-2.910479344427585602e-02,3.167719393968582153e-02,-1.971438713371753693e-02,1.336019486188888550e-01,-1.289523839950561523e-01,-8.284677751362323761e-03,-9.318971633911132812e-01,1.348507642745971680e+00,1.391440182924270630e-01,2.145354747772216797e-01,8.187479376792907715e-01,-6.392909586429595947e-02,-1.148564934730529785e+00,-5.800330638885498047e-01,-1.515764147043228149e-01,-1.755794137716293335e-01,-2.781189680099487305e-01,-2.143833935260772705e-01,-1.916037499904632568e-01,-1.173937097191810608e-01,-8.158013224601745605e-02,-1.531077325344085693e-01,-1.270603090524673462e-01,-5.861815065145492554e-02,-9.273442625999450684e-02,-4.558599740266799927e-02,-1.096437126398086548e-01,2.150388993322849274e-02,-5.279425904154777527e-02,2.612419053912162781e-02,-7.310609519481658936e-02,-1.121802479028701782e-01,8.401349931955337524e-02,-1.112802401185035706e-01,-2.759019657969474792e-02,-5.006353184580802917e-02,1.078391261398792267e-02,-1.428937315940856934e-01,-5.325142294168472290e-02,3.456652164459228516e-02,-4.217535629868507385e-02,8.057923987507820129e-03,-5.053828284144401550e-02,-1.273821741342544556e-01,-7.352912425994873047e-02,2.505567483603954315e-02,-9.853009134531021118e-02,-7.404595613479614258e-02,-8.321526646614074707e-02,-2.416216209530830383e-02,-1.126309931278228760e-01,-2.299190871417522430e-02,-5.795516818761825562e-02,-6.661701947450637817e-02,-2.591443061828613281e-02,-1.022401899099349976e-01,-8.902671746909618378e-03,-5.385661870241165161e-02,-2.895638719201087952e-02,-6.384906172752380371e-02,-5.210610106587409973e-02,4.416141286492347717e-02,1.698489859700202942e-02,4.045096039772033691e-02,1.085772514343261719e-01,1.538477241992950439e-01,2.599072158336639404e-01,1.906699985265731812e-01,1.613575071096420288e-01,3.713360726833343506e-01,5.529533624649047852e-01,7.502890378236770630e-02,-1.058827638626098633e-01,3.246593102812767029e-02,-1.928176730871200562e-02,2.441714555025100708e-01,2.283037751913070679e-01,7.418031245470046997e-02,4.291886389255523682e-01,1.850244253873825073e-01,5.549948811531066895e-01,-2.525587566196918488e-02,5.857292413711547852e-01,-1.861838549375534058e-01,7.097800970077514648e-01,-2.687553465366363525e-01,6.495349407196044922e-01,-2.219409495592117310e-01,6.202102899551391602e-01,-2.083804160356521606e-01,6.618837118148803711e-01,-1.729510128498077393e-01,4.487348496913909912e-01,-1.981423497200012207e-01,3.878964185714721680e-01,-1.769340783357620239e-01,3.795611858367919922e-01,-6.521029025316238403e-02,3.215562999248504639e-01,3.679833933711051941e-02,3.056769669055938721e-01,7.485995441675186157e-02,1.853185892105102539e-01,1.732109934091567993e-01,1.955854296684265137e-01,1.786587238311767578e-01,1.074994355440139771e-01,2.800538241863250732e-01,1.539923064410686493e-02,3.282058537006378174e-01,7.138784229755401611e-02,4.314794540405273438e-01,-5.396427586674690247e-02,3.963677883148193359e-01,-2.794535160064697266e-01,3.898265957832336426e-01,-1.603686809539794922e-01,3.767130076885223389e-01,-1.740700006484985352e-01,5.630410313606262207e-01,-1.067850366234779358e-01,7.036447525024414062e-01,-2.253780514001846313e-01,6.293693780899047852e-01,-1.709815263748168945e-01,5.892230272293090820e-01,-1.853546053171157837e-01,5.623087882995605469e-01,-9.218654036521911621e-02,5.042197704315185547e-01,1.740353405475616455e-01,4.923727810382843018e-01,3.022171854972839355e-01,4.434524476528167725e-01,1.166612431406974792e-01,3.783996403217315674e-01,-6.803555879741907120e-05,-5.347152948379516602e-01,-1.030905097723007202e-01,4.650481939315795898e-01,-3.037441074848175049e-01,-3.049322962760925293e-01,1.169500946998596191e-01,-3.968012034893035889e-01,-1.584615260362625122e-01,-9.904645383358001709e-02,-1.703328043222427368e-01,1.023251339793205261e-01,2.804691158235073090e-02,-3.755052387714385986e-02,1.210258156061172485e-01,5.814202013425529003e-04,6.436964124441146851e-02,5.078450590372085571e-02,1.115557402372360229e-01,1.827759891748428345e-01,-2.019675970077514648e-01,-1.527160312980413437e-02,-6.160003691911697388e-02,-9.391119331121444702e-02,-1.935167014598846436e-01,8.197047561407089233e-02,-2.969760894775390625e-01,-1.020396947860717773e-01,-1.735169440507888794e-02,1.473122686147689819e-01,1.206561401486396790e-01,4.693623632192611694e-02,2.758446931838989258e-01,4.472782835364341736e-02,-6.178899854421615601e-02,-3.858447074890136719e-02,-1.454269587993621826e-01,-2.588178813457489014e-01,-9.003919363021850586e-02,8.990035392343997955e-03,3.343294560909271240e-01,-1.101743802428245544e-02,-1.423743665218353271e-01,-1.796377748250961304e-01,-5.309619009494781494e-03,-1.889435499906539917e-01,4.441725835204124451e-02,-1.617446839809417725e-01,-2.175100147724151611e-01,-1.494063902646303177e-02,2.985450439155101776e-02,3.492031991481781006e-02,-6.059104204177856445e-02,5.056596547365188599e-02,7.873938232660293579e-02,-2.123602628707885742e-01,4.564845189452171326e-02,1.575733423233032227e-01,-8.300027251243591309e-02,3.236620724201202393e-01,6.851725280284881592e-02,-4.453454017639160156e-01,6.981759071350097656e-01,-3.891628086566925049e-01,3.348406255245208740e-01,-8.143936097621917725e-02,-1.771759241819381714e-01,-3.456161022186279297e-01,-1.269492600113153458e-02,-2.167623043060302734e-01,3.756622225046157837e-02,-1.249642893671989441e-01,2.393187433481216431e-01,-1.499329656362533569e-01,2.472349703311920166e-01,-2.053096592426300049e-01,2.311433255672454834e-01,-3.201457858085632324e-01,2.880343496799468994e-01,-3.274922072887420654e-01,3.189662396907806396e-01,-2.820871770381927490e-01,2.779021859169006348e-01,-1.138884723186492920e-01,3.259285688400268555e-01,-1.453375071287155151e-01,2.156972289085388184e-01,-2.064483165740966797e-01,1.875661313533782959e-01,-1.428237557411193848e-01,1.942601799964904785e-01,-9.485890716314315796e-02,2.078502327203750610e-01,2.281207218766212463e-02,2.705064415931701660e-01,1.400228124111890793e-02,1.793831288814544678e-01,3.140510246157646179e-02,9.517683088779449463e-02,-4.366275295615196228e-02,8.032546937465667725e-02,-3.694966435432434082e-02,6.693501025438308716e-02,-8.309578895568847656e-02,1.953212916851043701e-01,-1.225250959396362305e-01,1.168623566627502441e-01,-8.918304741382598877e-02,2.200915515422821045e-01,-2.633823454380035400e-01,1.901303827762603760e-01,-3.443523347377777100e-01,1.380935162305831909e-01,-3.361457586288452148e-01,2.799403071403503418e-01,-4.180661737918853760e-01,2.159590274095535278e-01,-3.504552543163299561e-01,1.712761223316192627e-01,-4.009155929088592529e-01,7.104568928480148315e-02,-3.924176990985870361e-01,-1.144272158853709698e-03,-3.112617433071136475e-01,1.528916954994201660e-01,4.105558618903160095e-02,1.625993251800537109e-01,2.018024772405624390e-01,2.680139839649200439e-01,-3.472386002540588379e-01,-1.845970004796981812e-01,2.446622699499130249e-01,3.392955958843231201e-01,2.377998232841491699e-01,4.112489223480224609e-01,-3.245194256305694580e-01,-3.289820849895477295e-01,-4.525870978832244873e-01,-2.659011185169219971e-01,-1.988568902015686035e-01,-1.539534926414489746e-01,-2.219551950693130493e-01,6.333866715431213379e-02,4.880003631114959717e-02,-1.295478492975234985e-01,-2.065186649560928345e-01,-2.970337271690368652e-01,-2.851226031780242920e-01,-1.019354686141014099e-01,-1.181817501783370972e-01,-1.074476540088653564e-01,1.354416459798812866e-01,-1.285124290734529495e-02,2.552866190671920776e-02,1.138252466917037964e-01,1.373025625944137573e-01,5.597782507538795471e-02,-6.689172703772783279e-03,-7.714813947677612305e-02,-1.119121536612510681e-01,-1.156912371516227722e-01,2.277194708585739136e-02,6.456488370895385742e-02,3.729769587516784668e-02,2.864056527614593506e-01,3.273782730102539062e-01,2.527061998844146729e-01,1.534725576639175415e-01,-4.095053672790527344e-02,-1.269073039293289185e-01,7.547445595264434814e-02,1.694717630743980408e-02,1.544681638479232788e-01,8.404597640037536621e-03,2.179794199764728546e-02,1.449146568775177002e-01,1.347967386245727539e-01,2.072091251611709595e-01,3.313978016376495361e-02,-2.151104062795639038e-02,8.409029804170131683e-03,7.649569213390350342e-02,-2.059533633291721344e-02,7.736611366271972656e-02,1.591198891401290894e-02,5.092916265130043030e-02,-1.226092576980590820e-01,7.024214267730712891e-01,1.086978241801261902e-01,-5.953187346458435059e-01,1.983444690704345703e-01,-4.290268123149871826e-01,1.098870486021041870e-01,-1.841558367013931274e-01,-4.394583702087402344e-01,-3.875038623809814453e-01,6.105740070343017578e-01,4.386272728443145752e-01,1.621876060962677002e-01,-5.753382295370101929e-02,-1.617117077112197876e-01,1.488164216279983521e-01,2.312137484550476074e-01,1.561721265316009521e-01,1.309218257665634155e-01,-7.979025132954120636e-03,-1.834788918495178223e-01,-1.920912265777587891e-01,-1.053765043616294861e-02,4.674721881747245789e-02,1.765224151313304901e-02,1.108556091785430908e-01,9.452928602695465088e-02,3.019700013101100922e-02,-2.228771150112152100e-01,-1.011901721358299255e-01,-8.796730637550354004e-02,2.134311497211456299e-01,1.864207088947296143e-01,2.224977761507034302e-01,-1.721139252185821533e-01,4.330185707658529282e-03,-5.538229644298553467e-02,2.788110375404357910e-01,1.986662894487380981e-01,8.943037688732147217e-02,2.595512010157108307e-02,6.647989898920059204e-02,9.858053922653198242e-02,-2.685755863785743713e-02,-2.606123872101306915e-02,8.945205807685852051e-02,3.025254607200622559e-01,1.212270557880401611e-01,9.859581291675567627e-02,-1.617932319641113281e-01,-2.064896374940872192e-01,4.307913035154342651e-02,1.337410360574722290e-01,3.191523849964141846e-01,8.004631847143173218e-03,-1.040731184184551239e-02,-4.852246493101119995e-02,3.848203644156455994e-02,-1.442992389202117920e-01,-5.202538147568702698e-02,1.518036872148513794e-01,2.276673316955566406e-01,3.398118019104003906e-01,-5.837273783981800079e-03,5.437212809920310974e-02,-9.759385883808135986e-02,3.602308928966522217e-01,5.433124303817749023e-01,5.079311728477478027e-01,-3.740265667438507080e-01,-3.289138972759246826e-01,4.583217501640319824e-01,2.999571561813354492e-01,-2.160556018352508545e-01,-1.765352487564086914e-01,-4.198711216449737549e-01,3.817295730113983154e-01,6.015977263450622559e-02,2.311489880084991455e-01,-9.521533548831939697e-02,3.621480464935302734e-01,-8.098189532756805420e-02,1.418482810258865356e-01,-8.906865864992141724e-02,3.241516649723052979e-01,-2.558288574218750000e-01,-1.156715452671051025e-01,3.139979764819145203e-02,4.693030938506126404e-02,5.626128613948822021e-02,-7.532514631748199463e-02,3.954111412167549133e-02,-5.022200569510459900e-02,8.518376387655735016e-03,-3.229022622108459473e-01,-7.024481147527694702e-02,-2.326272875070571899e-01,1.099024564027786255e-01,-1.905432492494583130e-01,2.244999445974826813e-02,-3.257457315921783447e-01,-2.567392289638519287e-01,-8.595097810029983521e-02,4.619933664798736572e-02,-1.580940783023834229e-01,-7.373607158660888672e-02,-9.176176041364669800e-02,-1.139059066772460938e-01,-1.011762768030166626e-01,-5.980260297656059265e-02,-1.590595990419387817e-01,3.414774313569068909e-02,-1.076607182621955872e-01,2.054739743471145630e-01,-2.800050675868988037e-01,-7.730169221758842468e-03,-4.355134665966033936e-01,-4.079032316803932190e-02,4.182402417063713074e-02,-1.208383888006210327e-01,-3.514212071895599365e-01,-4.240228608250617981e-02,-1.079035103321075439e-01,-2.508237063884735107e-01,-1.768704503774642944e-01,-2.898858785629272461e-01,-1.184092536568641663e-01,-9.498786181211471558e-02,-1.492850333452224731e-01,-1.552663594484329224e-01,-4.692739546298980713e-01,3.621844053268432617e-01,-3.899056017398834229e-01,7.572497725486755371e-01,2.412471920251846313e-01,4.662371054291725159e-02,2.663697302341461182e-01,1.051103949546813965e+00,5.296701788902282715e-01,-7.416006922721862793e-01,-5.508192181587219238e-01,-3.214416205883026123e-01,-1.553307026624679565e-01,-1.558824330568313599e-01,-1.401726007461547852e-01,-2.144618034362792969e-01,-1.459852159023284912e-01,-1.383195668458938599e-01,-1.357080042362213135e-01,-1.288936138153076172e-01,-1.558052748441696167e-01,-1.348268538713455200e-01,-3.744400665163993835e-02,-9.623530507087707520e-02,-1.360216364264488220e-02,5.702180042862892151e-02,-2.491359412670135498e-02,3.630295768380165100e-02,-3.331000357866287231e-02,4.115156084299087524e-02,7.842976599931716919e-02,-1.541887968778610229e-02,1.165290698409080505e-01,-6.290215067565441132e-03,-2.605214342474937439e-02,4.989035427570343018e-02,1.049167569726705551e-02,4.029566049575805664e-02,-4.414417315274477005e-03,5.061326175928115845e-02,1.732357144355773926e-01,1.618827879428863525e-01,-3.267287462949752808e-02,8.379990607500076294e-02,-1.573555404320359230e-03,6.831458210945129395e-02,8.288365602493286133e-02,8.043819665908813477e-02,2.143552526831626892e-02,-2.440075390040874481e-02,3.829701244831085205e-02,6.792808324098587036e-02,7.334436476230621338e-02,1.440396010875701904e-01,1.174060478806495667e-01,1.067370474338531494e-01,1.051559001207351685e-01,6.894337385892868042e-02,1.133615374565124512e-01,1.798939704895019531e-01,1.382873207330703735e-01,1.504490077495574951e-01,1.507768630981445312e-01,2.318430095911026001e-01,3.370410501956939697e-01,4.735397994518280029e-01,-6.222824752330780029e-02,-2.011962532997131348e-01,2.278161048889160156e-02,-4.363375250250101089e-03,3.549962639808654785e-01,4.638163447380065918e-01,-5.857394263148307800e-02,-7.989285141229629517e-02,-1.301283836364746094e-01,-1.347387284040451050e-01,-1.236135363578796387e-01,-1.189871132373809814e-01,-8.119609951972961426e-02,-6.372532993555068970e-02,-1.129393205046653748e-01,-5.271551012992858887e-02,1.144417598843574524e-01,1.022540330886840820e-01,4.384629800915718079e-02,-6.679329089820384979e-03,4.686235636472702026e-02,-1.339910179376602173e-02,4.459549859166145325e-02,-1.401048451662063599e-01,-4.549651592969894409e-02,-5.077850818634033203e-02,-8.820834010839462280e-02,-6.145227327942848206e-02,-2.708213776350021362e-02,-6.784707307815551758e-02,-2.285480313003063202e-02,-1.126476526260375977e-01,-1.187304314225912094e-02,-3.126992844045162201e-03,-6.894360482692718506e-02,4.646916314959526062e-02,1.153482347726821899e-01,1.144425645470619202e-01,8.005115389823913574e-02,1.427030712366104126e-01,2.011802792549133301e-01,1.166676208376884460e-01,2.578076422214508057e-01,7.010278105735778809e-02,3.121649324893951416e-01,1.332816630601882935e-01,1.629616320133209229e-01,1.502145677804946899e-01,1.626796275377273560e-01,6.515841186046600342e-02,5.276652798056602478e-02,1.006412431597709656e-01,3.467052429914474487e-02,-8.723197132349014282e-02,-1.877579092979431152e-01,-7.217415142804384232e-03,-2.030838094651699066e-02,1.594445705413818359e-01,4.246893525123596191e-02,1.796240955591201782e-01,1.553425192832946777e-01,2.699435949325561523e-01,3.145648837089538574e-01,4.755065441131591797e-01,2.030652463436126709e-01,-3.944875597953796387e-01,-4.564491510391235352e-01,-2.765896022319793701e-01,-2.154483944177627563e-01,-8.253751397132873535e-01,-5.606939792633056641e-01,-4.534330368041992188e-01,5.809661746025085449e-02,-3.928096890449523926e-01,-1.364462226629257202e-01,-1.364411413669586182e-01,6.114657223224639893e-02,-9.443864226341247559e-02,-7.581619918346405029e-02,-1.492708027362823486e-01,-4.154798015952110291e-02,-4.275742173194885254e-02,-1.884190589189529419e-01,-1.917076408863067627e-01,-1.306951195001602173e-01,-1.268699765205383301e-01,-7.815911620855331421e-02,-2.436738759279251099e-01,-1.741736382246017456e-01,-1.340025961399078369e-01,-8.249653875827789307e-02,-2.124090194702148438e-01,-9.604821354150772095e-02,-1.898932605981826782e-01,-7.043267041444778442e-02,-8.304458856582641602e-02,-1.027126759290695190e-01,-1.046055033802986145e-01,-9.116596728563308716e-02,-9.133546054363250732e-02,-7.427061349153518677e-02,-7.368690520524978638e-02,-1.677723973989486694e-01,2.745202276855707169e-03,-1.225071549415588379e-01,3.395747020840644836e-02,-2.258611619472503662e-01,-1.540413647890090942e-01,-2.131974101066589355e-01,-5.144648626446723938e-02,-1.673681288957595825e-01,-1.115122139453887939e-01,-1.688879132270812988e-01,-1.321520060300827026e-01,-9.817466139793395996e-02,-3.802532702684402466e-02,-2.454063594341278076e-01,-1.032015979290008545e-01,-4.239478148519992828e-03,8.544573187828063965e-02,-5.974685773253440857e-02,-5.863528698682785034e-02,-1.577942818403244019e-01,4.640034213662147522e-02,-1.317956298589706421e-01,-1.759611666202545166e-01,-1.367291063070297241e-01,-2.361907809972763062e-01,-8.507416248321533203e-01,-4.067271947860717773e-01,-2.149087935686111450e-01,-2.440304160118103027e-01,1.569163203239440918e-01,1.068258658051490784e-01,2.220377177000045776e-01,-4.415353536605834961e-01,-6.751777837052941322e-04,-2.674217522144317627e-01,-5.468219518661499023e-02,-1.983080655336380005e-01,-1.839967072010040283e-01,-1.270131394267082214e-02,-1.887022405862808228e-01,-1.734690964221954346e-01,-9.542723745107650757e-02,-4.581503197550773621e-02,-6.282626092433929443e-02,-4.958518221974372864e-02,-2.731031272560358047e-03,1.319343745708465576e-01,5.544780753552913666e-03,8.184159547090530396e-02,-3.160816617310047150e-03,1.514966636896133423e-01,4.455796256661415100e-02,2.316840738058090210e-01,1.473234742879867554e-01,4.304605349898338318e-02,1.524234563112258911e-01,6.408437341451644897e-02,1.333642005920410156e-01,1.718116998672485352e-01,-2.008859999477863312e-02,5.646336078643798828e-02,1.895456761121749878e-02,2.103077806532382965e-02,-4.073245078325271606e-02,-1.694054901599884033e-02,9.057649411261081696e-03,6.617411971092224121e-02,1.486384961754083633e-02,-2.774611860513687134e-02,-4.363766685128211975e-02,-1.527280807495117188e-01,-8.842519670724868774e-02,-7.249592244625091553e-02,1.219133287668228149e-02,-1.575639247894287109e-01,1.724579744040966034e-02,7.691855728626251221e-02,2.979466132819652557e-02,4.491466656327247620e-02,4.337030276656150818e-02,1.695764213800430298e-01,1.176269650459289551e-01,-1.740802265703678131e-02,1.404022574424743652e-01,7.270626723766326904e-02,3.232445716857910156e-01,2.255102694034576416e-01,-1.220776736736297607e-01,9.156726598739624023e-01,-6.211453676223754883e-01,5.846115350723266602e-01,-1.833728849887847900e-01,3.758912533521652222e-02,5.571634173393249512e-01,-6.033526659011840820e-01,3.788742125034332275e-01,7.386898994445800781e-01,-2.457743585109710693e-01,-4.646001383662223816e-02,1.459675878286361694e-01,3.142257034778594971e-01,-1.341665387153625488e-01,-2.718569152057170868e-02,6.795807182788848877e-02,2.811799049377441406e-01,-3.444813564419746399e-02,-1.391845569014549255e-02,1.242675408720970154e-01,1.734750866889953613e-01,1.513867359608411789e-02,-4.327420517802238464e-02,9.186617285013198853e-02,1.702535152435302734e-01,9.592289477586746216e-02,-5.045959725975990295e-02,1.429715454578399658e-01,1.127061471343040466e-01,4.865048080682754517e-02,2.696841210126876831e-02,1.025536581873893738e-01,1.412622351199388504e-02,-2.771141007542610168e-02,1.009838953614234924e-01,1.314919739961624146e-01,-1.503120176494121552e-02,8.199737221002578735e-02,1.111060660332441330e-02,6.289528310298919678e-02,-4.002266749739646912e-02,1.070183292031288147e-01,-1.741812378168106079e-02,2.705169469118118286e-02,2.961287088692188263e-02,1.339257806539535522e-01,-7.597813010215759277e-02,4.742347076535224915e-02,1.438751667737960815e-01,6.337744742631912231e-02,-5.993458908051252365e-03,1.556740491650998592e-03,1.457446515560150146e-01,7.273101061582565308e-02,4.049373790621757507e-02,-3.125866875052452087e-02,2.797375023365020752e-01,7.763776183128356934e-02,-4.218426346778869629e-02,-6.090693920850753784e-02,3.408042788505554199e-01,1.797365844249725342e-01,7.831999100744724274e-03,-1.409505009651184082e-01,6.897367238998413086e-01,1.355660259723663330e-01,-6.397902965545654297e-01,6.208294630050659180e-01,-2.357818484306335449e-01,2.045817524194717407e-01,-6.550798416137695312e-01,1.005700454115867615e-01,7.193800806999206543e-02,-2.160138487815856934e-01,-3.672789931297302246e-01,-4.813995957374572754e-02,-1.808651685714721680e-01,-4.186950996518135071e-02,-1.445843577384948730e-01,-5.277889966964721680e-02,-1.506506651639938354e-01,-3.151379898190498352e-02,-1.416009850800037384e-02,-1.059943288564682007e-01,-1.613852679729461670e-01,4.960836470127105713e-02,-2.737763896584510803e-02,-3.526889905333518982e-02,-7.029629498720169067e-02,-2.506068721413612366e-02,8.140949159860610962e-02,5.497473478317260742e-02,9.181388467550277710e-02,4.696902260184288025e-02,9.474420547485351562e-02,-1.348995044827461243e-02,1.007426157593727112e-01,-7.750229444354772568e-03,-4.425171390175819397e-02,-1.762190014123916626e-01,1.376722566783428192e-02,1.823884248733520508e-01,1.376058459281921387e-01,1.346353590488433838e-01,4.058129340410232544e-02,5.058162659406661987e-02,6.720101088285446167e-02,-1.096571981906890869e-02,-6.066643819212913513e-02,-2.037545107305049896e-02,4.178259149193763733e-02,7.405502349138259888e-02,1.532867997884750366e-01,6.323730945587158203e-02,7.386694848537445068e-02,-2.905708551406860352e-02,1.466319561004638672e-01,1.118866950273513794e-01,-7.322347257286310196e-03,2.550545707345008850e-02,1.371452957391738892e-01,5.490725859999656677e-02,9.846264123916625977e-02,1.125781983137130737e-01,1.519887596368789673e-01,5.079330131411552429e-02,4.128943383693695068e-01,2.229340076446533203e-01,1.330065131187438965e-01,-7.835911512374877930e-01,9.459095597267150879e-01,-3.917243182659149170e-01,-4.518732428550720215e-02,2.586612105369567871e-01,3.723423182964324951e-01,4.546754360198974609e-01,3.713224828243255615e-01,3.579571545124053955e-01,2.428151071071624756e-01,1.841305941343307495e-01,1.077061221003532410e-01,1.752342656254768372e-02,-1.352742761373519897e-01,-2.200455367565155029e-01,-3.435428738594055176e-01,-4.112386107444763184e-01,-5.083455443382263184e-01,-4.991920888423919678e-01,-5.625418424606323242e-01,-5.464825034141540527e-01,-5.563381314277648926e-01,-5.243406891822814941e-01,-3.003750145435333252e-01,-3.520387113094329834e-01,-3.007512390613555908e-01,-6.070335954427719116e-02,2.676269970834255219e-02,1.031131893396377563e-01,6.144006550312042236e-02,7.481966912746429443e-02,1.412818729877471924e-01,6.631486117839813232e-02,6.495255231857299805e-02,5.316363647580146790e-02,6.174515187740325928e-02,-6.005979701876640320e-02,-2.509398758411407471e-01,-2.510007619857788086e-01,-1.452667862176895142e-01,-2.503116130828857422e-01,-2.303247451782226562e-01,3.644367679953575134e-02,1.101210042834281921e-01,2.528184950351715088e-01,1.641096621751785278e-01,2.195150703191757202e-01,3.850151598453521729e-01,4.105897545814514160e-01,5.187621712684631348e-01,6.348745226860046387e-01,7.152586579322814941e-01,6.836332678794860840e-01,5.970992445945739746e-01,4.637658894062042236e-01,3.333396315574645996e-01,1.076947599649429321e-01,6.543243676424026489e-02,9.004151448607444763e-03,-3.156825900077819824e-02,-4.447421431541442871e-02,-8.318598568439483643e-02,-9.450970590114593506e-02,-9.959633648395538330e-02,-9.687354415655136108e-02,5.089148133993148804e-02,8.761364966630935669e-02,1.786203682422637939e-02,1.948363892734050751e-02,-1.641488261520862579e-02,-2.778351306915283203e-01,4.816640913486480713e-02,-4.610748589038848877e-01,5.280746892094612122e-02,-2.156420946121215820e-01,4.258149862289428711e-01,-3.293602168560028076e-01,-2.490134984254837036e-01,4.191569089889526367e-01,2.226960211992263794e-01,-4.633287489414215088e-01,-9.016209840774536133e-02,1.346104592084884644e-01,2.537960885092616081e-03,-3.558469116687774658e-01,-1.289002001285552979e-01,-1.922613382339477539e-01,-8.065646886825561523e-02,-9.783795475959777832e-02,-3.092945516109466553e-01,-3.157123625278472900e-01,4.965240508317947388e-02,-1.245712041854858398e-01,-2.505449652671813965e-01,1.066961884498596191e-01,-8.539257198572158813e-02,-1.244612932205200195e-01,4.169487860053777695e-03,-8.321025222539901733e-02,-1.521562635898590088e-01,2.010257393121719360e-01,1.297134608030319214e-01,-1.236654072999954224e-01,9.029994159936904907e-02,2.532604932785034180e-01,-3.231381475925445557e-01,-1.461272686719894409e-01,3.217590749263763428e-01,-9.997448883950710297e-03,-2.019471824169158936e-01,4.877589643001556396e-02,1.931336522102355957e-02,1.921989917755126953e-01,1.947347521781921387e-01,2.612525969743728638e-02,-1.157370507717132568e-01,2.725069820880889893e-01,-4.719169437885284424e-01,-3.184415102005004883e-01,4.488196969032287598e-01,4.250929057598114014e-01,-5.771135091781616211e-01,-2.311660945415496826e-01,1.533683985471725464e-01,6.015005707740783691e-02,-1.590030342340469360e-01,3.919976055622100830e-01,6.947511434555053711e-02,1.059377118945121765e-01,-9.286727011203765869e-02,9.194368869066238403e-02,-5.869144201278686523e-01,-4.911430180072784424e-01,-7.420137524604797363e-01,1.157874703407287598e+00,-2.866771817207336426e-01,3.939718008041381836e-01,-8.279310911893844604e-02,-5.152523517608642578e-01,2.682246565818786621e-01,4.933365434408187866e-02,-7.809599488973617554e-02,5.101268887519836426e-01,-1.319646555930376053e-02,1.041341647505760193e-01,4.591383412480354309e-02,-4.270056188106536865e-01,1.123338788747787476e-01,3.087014853954315186e-01,2.200382202863693237e-02,4.732139408588409424e-01,2.208006680011749268e-01,1.960087753832340240e-02,4.288749396800994873e-01,5.549418181180953979e-02,1.935497671365737915e-01,4.354514777660369873e-01,4.038501903414726257e-02,1.035866960883140564e-01,1.970594823360443115e-01,-1.026342436671257019e-01,2.753950655460357666e-01,2.917167246341705322e-01,3.727525472640991211e-01,2.841521799564361572e-01,5.740682408213615417e-02,-1.260895431041717529e-01,2.632102668285369873e-01,1.741853207349777222e-01,2.009103894233703613e-01,4.353058040142059326e-01,2.271406911313533783e-02,1.460314914584159851e-02,1.989572048187255859e-01,-1.523811221122741699e-01,2.257948815822601318e-01,3.550171852111816406e-01,4.301286861300468445e-02,4.195629954338073730e-01,1.613054722547531128e-01,-3.421570062637329102e-01,8.828144520521163940e-02,-3.621090576052665710e-02,2.325881086289882660e-02,6.309517025947570801e-01,-1.450296211987733841e-02,1.674745380878448486e-01,1.357662379741668701e-01,-5.241340994834899902e-01,-2.382231317460536957e-02,3.700144886970520020e-01,1.745191812515258789e-01,1.014283061027526855e+00,-6.006609201431274414e-01,-2.127201706171035767e-01,-1.213083416223526001e-01,8.353353291749954224e-02,7.923014461994171143e-02,1.055482551455497742e-01,-3.103929162025451660e-01,-1.273423731327056885e-01,2.336748503148555756e-02,6.752307526767253876e-03,-9.887582808732986450e-02,-3.785113692283630371e-01,1.557789295911788940e-01,7.848825454711914062e-01,4.009500741958618164e-01,-4.099761843681335449e-01,-5.856860280036926270e-01,3.400330245494842529e-01,6.133058667182922363e-01,-9.423793852329254150e-02,-4.157910645008087158e-01,-2.399727404117584229e-01,2.209893465042114258e-01,2.714979052543640137e-01,1.630460470914840698e-01,-1.059300601482391357e-01,-1.768844723701477051e-01,-2.697730660438537598e-01,2.694269120693206787e-01,3.954374194145202637e-01,-4.340769350528717041e-02,6.462964415550231934e-02,9.161049872636795044e-02,5.734031796455383301e-01,1.578481644392013550e-01,-2.284639924764633179e-01,-6.967981904745101929e-02,4.153692722320556641e-01,7.620751857757568359e-02,-2.273707687854766846e-01,-2.068368792533874512e-01,1.462564021348953247e-01,4.687717854976654053e-01,1.598052680492401123e-01,4.747889935970306396e-02,1.216440275311470032e-02,5.463698506355285645e-02,1.864500045776367188e-01,5.038014054298400879e-01,-1.517831087112426758e-01,-5.904458165168762207e-01,-2.283245176076889038e-01,2.389847636222839355e-01,6.508336663246154785e-01,-1.678159683942794800e-01,-6.164451837539672852e-01,5.235829576849937439e-02,4.461186528205871582e-01,2.478879094123840332e-01,-3.053752891719341278e-02,-1.286226809024810791e-01,3.666869923472404480e-02,1.706204712390899658e-01,-4.994772747159004211e-02,-4.566629603505134583e-02,3.752874583005905151e-02,