-4.661846533417701721e-02,-9.098675101995468140e-02,6.712816357612609863e-01,4.558911919593811035e-01,3.966647386550903320e-01,1.191429346799850464e-01,1.333605498075485229e-01,7.787184417247772217e-02,1.046499684453010559e-01,9.873143583536148071e-02,1.600112766027450562e-01,6.469444185495376587e-02,1.479319781064987183e-01,1.246461942791938782e-01,8.351666480302810669e-02,-5.692293122410774231e-02,2.545852027833461761e-02,5.357082933187484741e-02,1.816624552011489868e-01,5.041110143065452576e-02,-2.057627402245998383e-02,4.631983488798141479e-02,-6.833641231060028076e-02,-1.262395530939102173e-01,-1.221538409590721130e-01,-2.818614803254604340e-02,-3.352368623018264771e-02,1.210592314600944519e-01,1.233323216438293457e-01,1.217344105243682861e-01,3.491371497511863708e-02,-6.885983794927597046e-02,4.481676965951919556e-02,-5.351772531867027283e-02,-9.173694252967834473e-02,-9.568767249584197998e-02,8.848229795694351196e-02,8.173009753227233887e-02,5.033330246806144714e-02,-8.216491341590881348e-02,-1.383845359086990356e-01,-2.325536459684371948e-01,-1.820728331804275513e-01,-5.091794882901012897e-04,-3.805191814899444580e-02,-3.291172161698341370e-02,1.202083751559257507e-01,1.137605831027030945e-01,2.190006077289581299e-01,1.227856241166591644e-02,-1.037376560270786285e-02,-8.096131496131420135e-03,9.093674272298812866e-02,4.137500654906034470e-03,3.211446106433868408e-02,-3.103974089026451111e-02,6.442555785179138184e-02,-5.098597705364227295e-02,2.733576856553554535e-02,-2.007743865251541138e-01,-3.775317370891571045e-01,6.767069697380065918e-01,1.173261761665344238e+00,1.710260063409805298e-01,8.223126828670501709e-02,-4.342518374323844910e-02,-1.919469982385635376e-01,-1.693999767303466797e-01,3.043082356452941895e-02,2.025561332702636719e-01,-6.227775942534208298e-03,2.126035280525684357e-02,2.345817536115646362e-01,-2.001036256551742554e-01,4.985107779502868652e-01,-2.968055605888366699e-01,3.807360529899597168e-01,-1.663403511047363281e-01,1.232633963227272034e-01,2.450890094041824341e-01,-1.396968960762023926e-01,3.551932275295257568e-01,-1.757547557353973389e-01,3.976946771144866943e-01,-1.659864634275436401e-01,3.790773153305053711e-01,-2.675096988677978516e-01,3.200508654117584229e-01,-3.444646894931793213e-01,1.074412837624549866e-01,3.504534810781478882e-02,1.648382842540740967e-01,2.146140858530998230e-02,-2.465152442455291748e-01,2.539824545383453369e-01,-2.151442766189575195e-01,3.631770014762878418e-01,-3.519883453845977783e-01,3.687116205692291260e-01,-1.301550865173339844e-01,1.284734457731246948e-01,-6.723910570144653320e-02,-1.691319644451141357e-01,4.000024497509002686e-01,-2.729569971561431885e-01,5.254516005516052246e-01,-4.537255167961120605e-01,3.943169414997100830e-01,-4.697162210941314697e-01,3.206613361835479736e-01,-1.416370123624801636e-01,-1.886054128408432007e-01,2.907297015190124512e-01,-5.535481572151184082e-01,5.030056834220886230e-01,-7.156062126159667969e-01,5.880457162857055664e-01,-7.654004693031311035e-01,5.247610211372375488e-01,-4.958537220954895020e-01,1.640495657920837402e-01,-1.219588704407215118e-02,-4.827911406755447388e-02,-7.944224029779434204e-02,-1.190575137734413147e-01,1.928809732198715210e-01,1.370433270931243896e-01,1.982216909527778625e-02,1.230970490723848343e-02,2.756972610950469971e-01,-8.738936483860015869e-02,-6.182593703269958496e-01,1.142870783805847168e-01,-1.706373132765293121e-02,-6.441545486450195312e-02,-8.635094016790390015e-02,1.922184228897094727e-02,-1.591996103525161743e-02,1.156346350908279419e-01,-4.290680587291717529e-02,1.281790286302566528e-01,2.047035470604896545e-02,1.088596433401107788e-01,5.422732979059219360e-02,4.823166504502296448e-02,5.346278101205825806e-02,-6.145207583904266357e-02,1.367009580135345459e-01,8.323657326400279999e-03,1.613946557044982910e-01,1.714085042476654053e-01,-5.679386667907238007e-03,-4.444792866706848145e-02,8.370704203844070435e-02,3.039024770259857178e-02,1.835509240627288818e-01,-1.131379306316375732e-01,8.557904511690139771e-02,2.133443253114819527e-03,2.261636406183242798e-02,8.266592025756835938e-02,1.091623213142156601e-02,7.052664458751678467e-02,-5.990661680698394775e-02,-2.961499989032745361e-02,-1.510493606328964233e-01,-6.723593175411224365e-02,-8.047594875097274780e-02,4.582601785659790039e-02,-5.787254869937896729e-02,-1.064274385571479797e-01,-1.138273626565933228e-01,2.540672756731510162e-02,-1.300640255212783813e-01,4.441774263978004456e-02,-1.556229591369628906e-02,3.841625899076461792e-02,5.177980661392211914e-02,-9.658448398113250732e-02,-4.223616048693656921e-02,-1.041269078850746155e-01,7.983936369419097900e-02,-6.663156300783157349e-02,5.843316763639450073e-02,2.677648700773715973e-02,7.607214897871017456e-02,8.922513574361801147e-02,-2.351248636841773987e-02,9.249804913997650146e-02,2.568857967853546143e-01,8.362266421318054199e-01,-4.081020057201385498e-01,-5.042437091469764709e-02,-2.213678508996963501e-01,-1.382339000701904297e+00,-4.259098768234252930e-01,3.777660429477691650e-01,2.114907056093215942e-01,1.462668459862470627e-02,-2.264566719532012939e-03,8.554358780384063721e-02,8.122760057449340820e-02,1.717666983604431152e-01,7.784531265497207642e-02,1.184708923101425171e-01,1.119231954216957092e-01,1.174252927303314209e-01,1.726830564439296722e-02,4.652885347604751587e-02,1.304973810911178589e-01,6.826643645763397217e-02,1.724823117256164551e-01,1.983820274472236633e-02,5.801959708333015442e-02,1.120056733489036560e-01,3.424308076500892639e-02,7.237957417964935303e-02,1.319563239812850952e-01,1.179756373167037964e-01,2.992833964526653290e-02,-6.331186275929212570e-03,1.041009724140167236e-01,1.082495972514152527e-01,6.808824092149734497e-02,-7.012470066547393799e-02,6.816868484020233154e-02,1.211231499910354614e-01,1.707492023706436157e-01,3.674858435988426208e-02,1.829404756426811218e-02,6.550612300634384155e-02,1.197014749050140381e-01,1.195496171712875366e-01,7.619163393974304199e-02,1.435506194829940796e-01,1.444261074066162109e-01,1.692740130238234997e-03,1.744046658277511597e-01,8.582356572151184082e-02,1.681781709194183350e-01,1.007343009114265442e-01,7.436911016702651978e-02,1.126727983355522156e-01,1.370487660169601440e-01,1.598489582538604736e-01,1.417416930198669434e-01,1.532119959592819214e-01,1.487340778112411499e-01,1.433410793542861938e-01,1.083001680672168732e-02,3.512867540121078491e-02,-1.028715050779283047e-03,1.867296695709228516e-01,-3.781272470951080322e-01,-5.779077410697937012e-01,-1.873618364334106445e-01,1.170915924012660980e-02,1.540360152721405029e-01,2.809172272682189941e-01,-4.394479468464851379e-02,2.034749984741210938e-01,4.113390296697616577e-02,1.857097148895263672e-01,-1.327135115861892700e-01,1.658734679222106934e-01,-2.123395502567291260e-01,2.382026314735412598e-01,-1.746897995471954346e-01,2.225667089223861694e-01,-1.176426336169242859e-01,1.399023234844207764e-01,-2.121156081557273865e-02,4.064645618200302124e-02,7.026869058609008789e-02,-8.780206739902496338e-02,1.130819171667098999e-01,-1.656105220317840576e-01,1.641947031021118164e-01,-9.043937921524047852e-02,2.539279460906982422e-01,-2.103849798440933228e-01,3.030583560466766357e-01,-2.217982113361358643e-01,2.782484292984008789e-01,-1.757184863090515137e-01,2.391066998243331909e-01,-2.893778383731842041e-01,2.717844545841217041e-01,-2.411783188581466675e-01,3.491500914096832275e-01,-1.646125316619873047e-01,3.711552321910858154e-01,-7.607309520244598389e-02,3.787567019462585449e-01,-1.091763600707054138e-01,2.510096132755279541e-01,-1.283155679702758789e-01,2.497157901525497437e-01,-9.986327588558197021e-02,7.854671031236648560e-02,-2.778044203296303749e-03,9.378457814455032349e-02,1.211718395352363586e-01,6.024435907602310181e-02,1.702923923730850220e-01,-1.231062039732933044e-01,2.620510160923004150e-01,-1.590774059295654297e-01,3.005952239036560059e-01,-2.266657650470733643e-01,4.527385234832763672e-01,-1.476835161447525024e-01,3.419919610023498535e-01,5.781874526292085648e-03,3.161709308624267578e-01,-1.294649094343185425e-01,-5.005828663706779480e-02,-3.969899192452430725e-02,-2.229522541165351868e-02,-2.105825394392013550e-01,7.944554835557937622e-02,3.137987852096557617e-02,-5.969823598861694336e-01,-5.614640116691589355e-01,2.144016325473785400e-01,-2.731603980064392090e-01,-8.464010804891586304e-02,-8.656791597604751587e-02,-1.622971147298812866e-01,3.113350272178649902e-01,-8.484340459108352661e-02,-1.659532338380813599e-01,1.868634112179279327e-02,-9.628394991159439087e-02,1.462937742471694946e-01,1.836953498423099518e-02,-2.145289629697799683e-01,5.178343504667282104e-02,-5.486583337187767029e-02,-1.175921708345413208e-01,-2.925320342183113098e-02,5.157480016350746155e-03,1.669315546751022339e-01,-1.995424479246139526e-01,-2.740267217159271240e-01,2.901266328990459442e-02,1.038388460874557495e-01,1.678217202425003052e-02,4.982180520892143250e-02,-2.771064341068267822e-01,9.478580206632614136e-02,-1.439520716667175293e-01,-9.347870200872421265e-02,1.647703535854816437e-02,1.475933790206909180e-01,-2.319694757461547852e-01,-1.448026001453399658e-01,5.833772942423820496e-02,-6.273976527154445648e-03,9.538514912128448486e-02,-1.378623694181442261e-01,-2.934928536415100098e-01,-6.752326339483261108e-02,-4.885342903435230255e-03,1.202505677938461304e-01,-1.149273291230201721e-01,-1.791974902153015137e-01,1.520714014768600464e-01,2.894535288214683533e-02,1.430292800068855286e-02,-3.836489981040358543e-03,-1.599620655179023743e-02,2.573034763336181641e-01,2.458836697041988373e-02,-1.492069363594055176e-01,3.072587847709655762e-01,-1.152319740504026413e-02,1.509022265672683716e-01,1.934104971587657928e-02,-5.889159068465232849e-02,3.689357936382293701e-01,1.421427428722381592e-01,-8.345558643341064453e-01,4.697391092777252197e-01,1.874548345804214478e-01,-6.428807228803634644e-02,3.420732915401458740e-01,3.176573216915130615e-01,2.242124080657958984e-01,5.140115022659301758e-01,2.621878385543823242e-01,5.902470946311950684e-01,1.733684241771697998e-01,3.698781132698059082e-01,1.490028947591781616e-01,3.896777033805847168e-01,1.399873495101928711e-01,3.696496784687042236e-01,2.525464296340942383e-01,3.787396252155303955e-01,3.008161187171936035e-01,4.600577056407928467e-01,2.827655375003814697e-01,2.443127781152725220e-01,2.516727745532989502e-01,1.693359762430191040e-01,2.537351548671722412e-01,1.155577823519706726e-01,3.255564570426940918e-01,2.635262906551361084e-01,4.003581404685974121e-01,2.558875083923339844e-01,2.619952261447906494e-01,1.434905827045440674e-01,3.246477246284484863e-01,2.031869143247604370e-01,2.198845148086547852e-01,2.541235685348510742e-01,1.663409620523452759e-01,2.787751555442810059e-01,2.410062700510025024e-01,4.032010138034820557e-01,2.061962336301803589e-01,2.749010026454925537e-01,6.246723979711532593e-02,2.319300323724746704e-01,5.245978385210037231e-02,2.559140026569366455e-01,-2.817454189062118530e-02,2.485271245241165161e-01,1.467581391334533691e-01,2.645532488822937012e-01,2.952577173709869385e-01,2.089463025331497192e-01,2.567490339279174805e-01,2.223240286111831665e-01,2.567840218544006348e-01,2.266980707645416260e-01,3.262044489383697510e-01,2.233039736747741699e-01,4.108288884162902832e-01,2.606432437896728516e-01,5.862845778465270996e-01,4.648117721080780029e-01,5.443038344383239746e-01,2.974924743175506592e-01,4.793754518032073975e-01,-1.036563739180564880e-01,-4.210288226604461670e-01,1.174031496047973633e-01,-1.316567808389663696e-01,-6.348323822021484375e-01,1.606187522411346436e-01,-6.113353967666625977e-01,8.454470336437225342e-02,2.276774123311042786e-02,-1.012684032320976257e-01,-3.655954077839851379e-02,-3.712942451238632202e-02,8.076424896717071533e-02,7.189407199621200562e-02,1.053628548979759216e-01,2.065090984106063843e-01,6.121356040239334106e-03,3.502438962459564209e-02,1.183740198612213135e-01,-6.151749938726425171e-02,-7.073692046105861664e-03,1.406621187925338745e-01,5.920867249369621277e-02,1.088508889079093933e-01,4.934754967689514160e-02,4.574370384216308594e-02,-2.855811454355716705e-02,-1.712807118892669678e-01,-1.097543612122535706e-01,-8.196081966161727905e-02,-1.164197456091642380e-02,1.876646876335144043e-01,1.392950117588043213e-01,1.496751904487609863e-01,7.785758376121520996e-02,2.258710265159606934e-01,6.030365079641342163e-02,-3.424184769392013550e-02,-2.265233732759952545e-02,-1.800567209720611572e-01,-2.374137938022613525e-02,9.272901341319084167e-03,1.013494655489921570e-01,2.305140224052593112e-04,8.754248917102813721e-02,6.689037382602691650e-02,-9.452886879444122314e-02,-1.036614254117012024e-01,-1.002354323863983154e-01,-3.631815016269683838e-01,-2.993252277374267578e-01,-2.773420140147209167e-02,-1.162179484963417053e-01,-1.171980202198028564e-01,8.370974659919738770e-02,-3.854133933782577515e-02,1.829958558082580566e-01,-4.630992561578750610e-02,-3.639966547489166260e-01,-6.771631836891174316e-01,-8.123488426208496094e-01,-6.678932905197143555e-01,7.373033165931701660e-01,2.435059547424316406e-01,1.186417117714881897e-01,-3.308608755469322205e-02,1.837535500526428223e-01,-1.117626875638961792e-01,3.368584513664245605e-01,6.940378546714782715e-01,5.546410083770751953e-01,1.258122362196445465e-02,-1.315578818321228027e-02,-2.346045672893524170e-01,-2.415502443909645081e-02,-1.202405318617820740e-01,2.448494136333465576e-01,-3.956531174480915070e-03,1.688138544559478760e-01,-2.308761933818459511e-03,2.150977589190006256e-02,-2.160984575748443604e-01,5.274946242570877075e-02,3.081509470939636230e-01,2.437172234058380127e-01,1.740666627883911133e-01,-6.899371743202209473e-02,-2.438392303884029388e-02,-3.249678760766983032e-02,1.150656640529632568e-01,1.590523123741149902e-01,1.774798780679702759e-01,2.712370082736015320e-02,1.937280148267745972e-01,9.233533591032028198e-02,-7.405018806457519531e-02,-1.503200531005859375e-01,2.317081764340400696e-02,2.914741635322570801e-01,3.318819999694824219e-01,7.659335434436798096e-02,-1.373770982027053833e-01,-1.317404508590698242e-01,5.897804163396358490e-03,-8.318830281496047974e-02,1.862144619226455688e-01,-7.671377807855606079e-02,1.392698138952255249e-01,-9.726312756538391113e-02,8.086396753787994385e-02,-1.745896637439727783e-01,-5.233766511082649231e-02,-9.522663801908493042e-02,3.228089213371276855e-01,1.586202830076217651e-01,-5.478238686919212341e-02,-2.101346403360366821e-01,-6.331390887498855591e-02,1.501057296991348267e-01,7.794086635112762451e-02,1.830803304910659790e-01,2.230926007032394409e-01,5.213896557688713074e-02,-5.988352373242378235e-02,-2.898497283458709717e-01,-4.356011152267456055e-01,3.093282878398895264e-01,-1.555118560791015625e-01,-6.508480906486511230e-01,-1.399456262588500977e-01,2.423161640763282776e-02,-2.011057138442993164e-01,-5.264196079224348068e-04,-2.351705133914947510e-01,8.594961762428283691e-01,7.508279383182525635e-02,3.866078555583953857e-01,-9.315168857574462891e-02,2.199886925518512726e-02,-6.691780686378479004e-02,2.683762647211551666e-02,2.512772977352142334e-01,-4.205502569675445557e-02,1.757226288318634033e-01,-3.916278108954429626e-02,7.236825674772262573e-02,-1.796398460865020752e-01,-8.561071753501892090e-02,1.989790797233581543e-01,5.727089196443557739e-02,4.835720360279083252e-02,-1.333296950906515121e-02,4.670879617333412170e-02,-5.296967551112174988e-02,2.751139104366302490e-01,1.110635604709386826e-02,3.995119631290435791e-01,-1.021353080868721008e-01,3.181227743625640869e-01,-4.367381916381418705e-04,3.639654219150543213e-01,1.075093355029821396e-02,1.027602776885032654e-01,4.094946086406707764e-01,1.873111724853515625e-01,1.253422051668167114e-01,1.846206635236740112e-01,3.287115395069122314e-01,1.509924679994583130e-01,3.490193188190460205e-01,1.423548534512519836e-02,2.381169795989990234e-01,4.808610305190086365e-02,5.556502193212509155e-02,1.624929755926132202e-01,1.458107829093933105e-01,-1.393665522336959839e-01,-7.437545806169509888e-02,-1.915684156119823456e-02,4.401826858520507812e-01,-1.481784880161285400e-01,3.323099017143249512e-02,-1.144415661692619324e-01,3.102446496486663818e-01,-7.454227656126022339e-02,2.495062500238418579e-01,5.400489270687103271e-02,1.756070405244827271e-01,3.968839347362518311e-01,4.246680140495300293e-01,1.959850341081619263e-01,5.409814119338989258e-01,-6.498803943395614624e-02,-2.635178901255130768e-02,4.050573110580444336e-01,-3.176058828830718994e-02,-1.413736224174499512e+00,-8.712959289550781250e-01,-1.525269746780395508e-01,-1.255738828331232071e-02,-4.538001865148544312e-02,-5.910660326480865479e-02,-1.858141273260116577e-01,-1.682117581367492676e-02,-7.932062447071075439e-02,-2.627092599868774414e-02,-6.620964407920837402e-02,-4.498083889484405518e-02,-3.511592745780944824e-02,4.085509851574897766e-02,3.603108599781990051e-02,1.037297844886779785e-01,1.146490499377250671e-01,2.992870099842548370e-02,-3.977633547037839890e-03,-7.616460323333740234e-02,2.004162780940532684e-02,2.306976541876792908e-02,2.311130799353122711e-02,-4.997649695724248886e-03,-7.218230515718460083e-02,2.359350398182868958e-02,3.059157356619834900e-02,3.219988569617271423e-02,1.766634732484817505e-01,-9.756360203027725220e-02,1.935279965400695801e-01,5.582614615559577942e-02,-4.958340525627136230e-02,-2.962828986346721649e-02,-8.584486693143844604e-02,8.508358895778656006e-02,-1.251684967428445816e-02,3.780864179134368896e-02,-5.847938358783721924e-03,-3.095676377415657043e-02,-2.007819898426532745e-02,5.097932182252407074e-03,6.621937453746795654e-02,9.256712347269058228e-02,6.573233008384704590e-02,6.619080901145935059e-02,3.158841282129287720e-02,-1.913763582706451416e-02,-7.481100410223007202e-02,-3.847431624308228493e-03,-8.266980759799480438e-03,8.879302069544792175e-03,-1.363933682441711426e-01,-3.226367011666297913e-02,-2.438492700457572937e-02,-2.340973727405071259e-02,-2.121995761990547180e-02,-4.264831542968750000e-01,-5.938242673873901367e-01,-1.325268894433975220e-01,-6.067112833261489868e-02,-1.257191225886344910e-02,3.668005391955375671e-02,-3.312672376632690430e-01,-6.864901781082153320e-01,-3.837037980556488037e-01,-3.336889147758483887e-01,-8.451224118471145630e-02,-2.427169084548950195e-01,-9.852655231952667236e-02,-2.155964672565460205e-01,-1.176163181662559509e-01,-6.858953088521957397e-02,1.280370261520147324e-02,-9.725661017000675201e-03,-1.613111197948455811e-01,-1.477649509906768799e-01,-1.699487715959548950e-01,-1.108983904123306274e-01,-1.688649803400039673e-01,-2.067817002534866333e-01,-2.183736562728881836e-01,-7.325628399848937988e-02,-1.538690775632858276e-01,-8.655218034982681274e-02,6.171340122818946838e-02,-1.106473580002784729e-01,1.370852347463369370e-02,-1.045144945383071899e-01,3.791256994009017944e-02,6.352449208498001099e-02,-3.828785941004753113e-02,7.577753812074661255e-02,7.720836997032165527e-02,1.824415624141693115e-01,-1.740949600934982300e-02,1.249055266380310059e-01,-1.029779901728034019e-03,4.685088992118835449e-02,-5.962859094142913818e-02,4.228565376251935959e-03,-1.210562139749526978e-02,-4.404916986823081970e-02,-2.170125395059585571e-01,-2.385616302490234375e-02,-2.731918394565582275e-01,-2.374195903539657593e-01,-3.342201411724090576e-01,-1.855280250310897827e-01,-2.717764675617218018e-01,-2.211318910121917725e-01,-2.789170444011688232e-01,-1.245534792542457581e-01,-8.737504482269287109e-02,3.060696087777614594e-02,-1.177596524357795715e-01,-3.471840918064117432e-02,-9.672632068395614624e-02,-8.632826060056686401e-02,-6.678368151187896729e-02,-1.418111771345138550e-01,-3.143343925476074219e-01,-8.072797656059265137e-01,-7.014591693878173828e-01,1.925529837608337402e-01,3.117080330848693848e-01,-6.058570742607116699e-02,-1.229082569479942322e-01,1.998376399278640747e-01,7.305282950401306152e-01,4.838426411151885986e-01,1.890079379081726074e-01,3.010818362236022949e-01,2.114963233470916748e-01,1.662465780973434448e-01,2.652888298034667969e-01,2.688548155128955841e-02,1.515336185693740845e-01,1.832783073186874390e-01,-3.744673356413841248e-02,-6.472777575254440308e-02,2.751660160720348358e-02,1.645281463861465454e-01,-6.045742332935333252e-02,1.084897220134735107e-01,-4.313834477216005325e-03,1.787492185831069946e-01,4.523051530122756958e-02,-1.617787405848503113e-03,-7.499231398105621338e-02,1.064062044024467468e-01,2.414508312940597534e-01,2.332748323678970337e-01,4.230811074376106262e-02,-3.092345781624317169e-02,-2.432907465845346451e-03,1.509208679199218750e-01,1.069217398762702942e-01,1.029747352004051208e-02,7.808544673025608063e-03,-1.254516467452049255e-02,5.989772034808993340e-04,-5.867460742592811584e-02,-1.651079058647155762e-01,-5.072274059057235718e-02,-1.536794155836105347e-01,8.872205764055252075e-02,-1.994561316678300500e-04,-3.453865647315979004e-02,-9.203556180000305176e-02,-5.944952741265296936e-02,6.647601723670959473e-02,1.079388111829757690e-01,4.992369562387466431e-02,-5.324482172727584839e-02,5.117140710353851318e-02,-2.407206967473030090e-02,4.810268059372901917e-02,-1.807033121585845947e-01,-1.398817598819732666e-01,-1.204931139945983887e-01,-8.865577727556228638e-02,-2.736172378063201904e-01,-7.148625701665878296e-02,-3.395198881626129150e-01,-3.791695535182952881e-01,-3.084281384944915771e-01,4.543589353561401367e-01,1.472049355506896973e-01,-1.566682457923889160e-01,-1.031193658709526062e-01,1.381225585937500000e-01,-9.782221168279647827e-02,-2.093691229820251465e-01,-1.593245118856430054e-01,1.555791497230529785e-01,-1.835431754589080811e-01,1.579009890556335449e-01,6.747193634510040283e-02,-3.955370187759399414e-02,1.624706834554672241e-01,-1.124038919806480408e-02,1.849009096622467041e-01,7.725788652896881104e-02,1.146633550524711609e-01,1.804966479539871216e-01,1.218121200799942017e-01,1.681253612041473389e-01,1.901958435773849487e-01,9.415838122367858887e-02,2.820064723491668701e-01,-6.770919077098369598e-03,1.603970378637313843e-01,-8.340473473072052002e-02,3.188230097293853760e-02,6.775759905576705933e-02,7.688970118761062622e-02,1.015501618385314941e-01,-8.095171302556991577e-03,-9.083473682403564453e-02,9.475857019424438477e-02,-8.771993219852447510e-02,1.257830709218978882e-01,-2.263259887695312500e-02,8.313091099262237549e-02,1.066387668251991272e-01,-2.442202344536781311e-02,-5.134300887584686279e-02,1.981101743876934052e-02,-8.437781035900115967e-02,6.029155105352401733e-02,-1.454935073852539062e-01,2.201388329267501831e-01,-6.273187696933746338e-02,1.073781177401542664e-01,7.273893803358078003e-02,3.282674774527549744e-02,9.982673078775405884e-02,2.381351217627525330e-02,4.780337959527969360e-02,1.001011431217193604e-01,-1.040144413709640503e-01,1.105552613735198975e-01,-6.706377863883972168e-02,1.896966695785522461e-01,1.898895204067230225e-01,-1.841063499450683594e-01,3.101734817028045654e-01,-4.252175092697143555e-01,4.902521967887878418e-01,-1.232886910438537598e+00,2.886890172958374023e-01,-1.054095774888992310e-01,3.537467122077941895e-02,1.491492241621017456e-01,5.416936278343200684e-01,-2.207586765289306641e-01,-7.726495619863271713e-03,1.829547733068466187e-01,-1.658824384212493896e-01,-1.803072094917297363e-01,1.381566375494003296e-01,2.518898248672485352e-01,-8.150753378868103027e-02,-1.359599232673645020e-01,2.747225761413574219e-02,2.307605557143688202e-02,-8.279302716255187988e-02,-1.281305253505706787e-01,7.196222245693206787e-02,8.219149895012378693e-03,-1.570877805352210999e-02,-1.681570857763290405e-01,7.810479402542114258e-02,9.112264961004257202e-02,-8.302770555019378662e-02,-9.218052774667739868e-02,6.636656820774078369e-02,5.476491898298263550e-02,-1.687084734439849854e-01,-5.769213661551475525e-02,-6.724264472723007202e-02,1.224557906389236450e-01,6.372299045324325562e-02,-5.031862296164035797e-03,4.520528763532638550e-02,-2.126264944672584534e-02,-1.678002998232841492e-02,-1.442494243383407593e-01,-2.964493259787559509e-02,3.374534472823143005e-02,1.389479786157608032e-01,-1.417878419160842896e-01,-9.766131639480590820e-03,1.161623746156692505e-03,5.543175712227821350e-02,-1.145162880420684814e-01,-6.006558425724506378e-03,1.197802796959877014e-01,-1.423395588062703609e-03,-9.269215166568756104e-02,-7.116091996431350708e-02,9.292222559452056885e-02,4.999954998493194580e-02,-5.414268374443054199e-02,1.837892457842826843e-02,1.778228729963302612e-01,-2.252233214676380157e-02,-2.731415331363677979e-01,-1.412560641765594482e-01,1.529639959335327148e-01,1.663059592247009277e-01,-1.149772480130195618e-01,9.339737892150878906e-02,2.497144043445587158e-01,-6.255066394805908203e-01,-1.876580864191055298e-01,-1.091084703803062439e-01,-3.771796450018882751e-02,-4.282739385962486267e-02,5.441412925720214844e-01,-3.863634765148162842e-01,-3.957549482583999634e-02,-2.662716247141361237e-02,2.127370685338973999e-01,-4.537827149033546448e-02,-1.887870579957962036e-02,1.383146620355546474e-03,-1.410304605960845947e-01,-1.115297824144363403e-01,3.455311432480812073e-02,-4.632842913269996643e-02,-1.878169625997543335e-01,2.977572148665785789e-03,-4.722223058342933655e-02,-1.670216396450996399e-02,-1.686180382966995239e-01,-1.683070883154869080e-02,-3.023445978760719299e-02,-3.057425608858466148e-03,-6.975004822015762329e-02,-1.099209673702716827e-02,-1.018438264727592468e-01,-5.790431797504425049e-02,-8.376523852348327637e-03,-4.790540412068367004e-02,1.507815718650817871e-02,-1.265709549188613892e-01,-1.952596195042133331e-02,2.182116806507110596e-01,5.354776233434677124e-02,4.420273005962371826e-02,3.521735593676567078e-02,2.159568294882774353e-02,6.752633303403854370e-02,9.349827468395233154e-02,5.889825522899627686e-03,4.430758580565452576e-02,-3.768205642700195312e-02,3.305560443550348282e-03,3.436995297670364380e-02,1.753387972712516785e-02,-1.205945312976837158e-01,4.432941786944866180e-03,3.813675418496131897e-02,3.225725144147872925e-02,-1.413716375827789307e-01,-9.270176291465759277e-02,6.649087369441986084e-02,-4.350911825895309448e-02,-3.339697048068046570e-02,6.473758816719055176e-02,-2.506653778254985809e-02,4.012565687298774719e-02,1.806490272283554077e-01,-2.478550933301448822e-02,-3.121510893106460571e-02,-4.610198736190795898e-01,7.647215127944946289e-01,-1.161223649978637695e-01,3.486863672733306885e-01,3.803389612585306168e-03,-3.670958103612065315e-03,-7.477759849280118942e-03,-2.286046296358108521e-01,-2.811315059661865234e-01,-4.092286825180053711e-01,-4.634325802326202393e-01,-5.631297826766967773e-01,-5.991649031639099121e-01,-6.444873213768005371e-01,-6.873368620872497559e-01,-6.985289454460144043e-01,-5.945097208023071289e-01,-4.691487252712249756e-01,-3.103414475917816162e-01,-2.556472718715667725e-01,-7.317122817039489746e-02,-2.205724269151687622e-02,9.224312007427215576e-02,1.994184255599975586e-01,2.339906990528106689e-01,1.481139212846755981e-01,3.784213066101074219e-01,2.701233327388763428e-01,1.330863237380981445e-01,7.639802992343902588e-02,3.255748003721237183e-02,1.884433031082153320e-01,9.412527829408645630e-02,1.726072840392589569e-02,-7.865343242883682251e-03,-2.008953317999839783e-02,-1.545617133378982544e-01,-1.583257317543029785e-01,-1.576616168022155762e-01,2.970490837469696999e-03,1.719917804002761841e-01,1.481108367443084717e-01,4.001527428627014160e-01,5.174617171287536621e-01,4.513953924179077148e-01,4.849815368652343750e-01,3.114334046840667725e-01,4.546806514263153076e-01,3.584532737731933594e-01,3.486754000186920166e-01,2.177188396453857422e-01,2.201048731803894043e-01,-1.151978969573974609e-02,-1.950473785400390625e-01,-3.303767740726470947e-01,-4.508370757102966309e-01,-4.071196317672729492e-01,-4.914493858814239502e-01,-3.865425586700439453e-01,-3.622256219387054443e-01,-3.142244517803192139e-01,-2.844808399677276611e-01,-1.825506836175918579e-01,-1.284465491771697998e-01,-6.742022931575775146e-02,9.466352872550487518e-03,2.170758694410324097e-02,-1.393837779760360718e-01,1.353976279497146606e-01,-1.049897298216819763e-01,-1.427177637815475464e-01,1.524485200643539429e-01,-1.400842517614364624e-01,3.410676419734954834e-01,1.286398470401763916e-01,2.425324022769927979e-01,4.026113450527191162e-02,-3.192451000213623047e-01,4.303220808506011963e-01,2.632511854171752930e-01,-4.531414210796356201e-01,-3.371686041355133057e-01,2.071837335824966431e-01,-1.691458821296691895e-01,-4.092099070549011230e-01,3.122302144765853882e-02,3.674666956067085266e-02,1.016707569360733032e-01,8.752484619617462158e-02,-2.480281442403793335e-01,5.626445263624191284e-02,1.709890663623809814e-01,2.209470123052597046e-01,-1.606449484825134277e-01,3.355277478694915771e-01,3.031949512660503387e-02,-8.195436000823974609e-02,-5.323282256722450256e-02,4.167871773242950439e-01,-2.979027926921844482e-01,2.581784129142761230e-01,7.471080869436264038e-02,-3.126956149935722351e-02,-1.976751163601875305e-02,5.731492638587951660e-01,-6.110780686140060425e-02,9.075356274843215942e-02,1.909161061048507690e-01,2.340765744447708130e-01,-3.152511119842529297e-01,2.467884123325347900e-01,-3.940328210592269897e-02,5.561815574765205383e-02,2.504281103610992432e-01,9.821932017803192139e-02,3.161693364381790161e-02,-5.186336580663919449e-03,-3.481418192386627197e-01,-3.475570082664489746e-01,3.439948260784149170e-01,4.916487038135528564e-01,-3.167582452297210693e-01,-3.662017881870269775e-01,4.392160773277282715e-01,2.528713345527648926e-01,-2.808440625667572021e-01,2.775973677635192871e-01,8.264387398958206177e-02,-4.669601619243621826e-01,1.850323528051376343e-01,-9.763408452272415161e-02,2.740035951137542725e-02,4.552913084626197815e-02,1.040021553635597229e-01,-4.729526638984680176e-01,-2.967543601989746094e-01,3.242826163768768311e-01,-3.390158712863922119e-02,2.752284109592437744e-01,3.293886035680770874e-02,-2.553890049457550049e-01,1.562496572732925415e-01,-3.209553062915802002e-01,2.499264031648635864e-01,2.919332385063171387e-01,-1.786425895988941193e-02,6.206791102886199951e-02,3.531831502914428711e-02,-3.410858809947967529e-01,5.009979009628295898e-02,-1.608264893293380737e-01,1.405376195907592773e-01,2.961952090263366699e-01,-7.110716402530670166e-02,-1.560046970844268799e-01,-1.114063616842031479e-02,-1.855447441339492798e-01,9.821754693984985352e-02,3.581207990646362305e-01,-1.579350382089614868e-01,3.223641216754913330e-02,-1.093405112624168396e-01,-1.755695790052413940e-01,2.675839364528656006e-01,1.212234944105148315e-01,-1.567115336656570435e-01,2.695863246917724609e-01,-1.013853587210178375e-02,-5.411970987915992737e-02,1.152744144201278687e-01,-3.000862002372741699e-01,4.370908066630363464e-02,2.808021605014801025e-01,3.434761986136436462e-02,2.774395346641540527e-01,-5.157915130257606506e-02,-2.950281798839569092e-01,-1.287440061569213867e-01,-3.166154399514198303e-02,-1.333759874105453491e-01,3.421301841735839844e-01,-5.162228643894195557e-02,8.927769958972930908e-03,1.814422011375427246e-02,-4.051136374473571777e-01,-1.451707482337951660e-01,2.727647423744201660e-01,-5.250650644302368164e-02,3.864175081253051758e-01,-1.348850429058074951e-01,-3.501211702823638916e-01,2.465425292029976845e-03,-5.406720042228698730e-01,9.039604067802429199e-01,4.229688048362731934e-01,-1.320895552635192871e-02,1.725273393094539642e-02,-3.244871506467461586e-03,-1.109920442104339600e-01,-2.006415575742721558e-01,-1.401077061891555786e-01,5.621069297194480896e-02,-3.012440912425518036e-02,-6.799022108316421509e-02,-7.500378042459487915e-02,1.070961058139801025e-01,6.566134691238403320e-01,6.385819613933563232e-02,-8.037074208259582520e-01,-5.171182751655578613e-01,2.685209810733795166e-01,7.426407933235168457e-01,-1.852918565273284912e-01,-3.222656250000000000e-01,-1.725181639194488525e-01,3.265443444252014160e-01,3.283795714378356934e-01,-8.696696162223815918e-02,-2.237191200256347656e-01,-2.562489211559295654e-01,2.315223962068557739e-01,2.074471265077590942e-01,2.732943296432495117e-01,-2.844851315021514893e-01,-4.690419137477874756e-01,7.968422025442123413e-02,2.509312033653259277e-01,-8.330220729112625122e-02,-3.382884263992309570e-01,-6.297275424003601074e-03,6.297945380210876465e-01,1.745038479566574097e-01,-3.340052366256713867e-01,-2.179248332977294922e-01,2.410281300544738770e-01,4.310665428638458252e-01,2.223897576332092285e-01,-3.580043464899063110e-02,-8.133258670568466187e-02,-3.507379814982414246e-02,2.078759372234344482e-01,1.569687277078628540e-01,-1.462525576353073120e-01,-6.355726718902587891e-01,-4.302925989031791687e-02,5.191525816917419434e-01,5.954924821853637695e-01,-2.091765254735946655e-01,-5.827181339263916016e-01,6.417205184698104858e-02,5.331907272338867188e-01,2.116588503122329712e-01,-2.857250571250915527e-01,-2.031750828027725220e-01,-1.456719189882278442e-01,6.451882421970367432e-02,4.535154998302459717e-02,-4.422486945986747742e-02,-3.624997287988662720e-02,1.091238856315612793e-01,