5.977320075035095215e-01,5.354282855987548828e-01,-3.820231556892395020e-01,3.600716590881347656e-01,6.717533469200134277e-01,-2.095817029476165771e-01,-5.396092534065246582e-01,1.939316391944885254e-01,2.474615871906280518e-01,-5.467616915702819824e-01,8.056896924972534180e-01,2.126753032207489014e-01,-3.769665658473968506e-01,3.904708921909332275e-01,-1.133085265755653381e-01,-1.569887548685073853e-01,-1.671799272298812866e-01,-5.515966191887855530e-02,-3.819384872913360596e-01,1.928929537534713745e-01,-4.602113664150238037e-01,-2.856156527996063232e-01,-4.067202284932136536e-02,-3.912940993905067444e-02,-2.209699004888534546e-01,-5.645036101341247559e-01,-2.341262623667716980e-02,5.766515731811523438e-01,-1.835854649543762207e-01,1.473672594875097275e-02,3.822385519742965698e-02,-1.579052358865737915e-01,4.470446333289146423e-02,2.874555289745330811e-01,-1.156111285090446472e-01,-1.269099675118923187e-02,1.408653259277343750e-01,1.903747320175170898e-01,3.128415346145629883e-01,-1.766537278890609741e-01,-5.132119655609130859e-01,-1.993998438119888306e-01,4.344468116760253906e-01,1.258334964513778687e-01,-2.014898061752319336e-01,6.146870851516723633e-01,2.350722104310989380e-01,-1.597025990486145020e-01,3.989360928535461426e-01,-7.371625304222106934e-02,5.316563248634338379e-01,-6.911652684211730957e-01,-1.957719475030899048e-01,-1.244091391563415527e-01,-9.521125555038452148e-01,8.078929781913757324e-01,-3.845605552196502686e-01,1.817577518522739410e-02,-6.343549489974975586e-01,-3.205078467726707458e-02,-4.808776676654815674e-01,9.370187669992446899e-02,1.968531683087348938e-02,9.301324933767318726e-02,2.569510415196418762e-02,-3.135194778442382812e-01,-2.261518873274326324e-02,-9.229423105716705322e-02,5.254137516021728516e-01,5.697182938456535339e-02,4.657843112945556641e-01,-3.184050619602203369e-01,-4.289140403270721436e-01,-5.727535486221313477e-01,9.214801341295242310e-02,-2.769565284252166748e-01,-4.167293906211853027e-01,2.793445587158203125e-01,-4.478018581867218018e-01,-2.256475090980529785e-01,4.844794571399688721e-01,-3.863745331764221191e-01,-8.236327208578586578e-03,2.942906320095062256e-01,-2.615268826484680176e-01,2.827503085136413574e-01,2.565820515155792236e-01,6.947406381368637085e-02,-7.289586663246154785e-01,-1.714077442884445190e-01,4.223450422286987305e-01,7.258390188217163086e-01,3.986107409000396729e-01,-2.169262617826461792e-01,1.437709778547286987e-01,3.388846814632415771e-01,5.236517786979675293e-01,-2.450231164693832397e-01,9.004499316215515137e-01,4.579012095928192139e-01,1.909888535737991333e-01,8.114745467901229858e-02,-3.031289950013160706e-02,-1.205467224121093750e+00,3.395140171051025391e-02,-3.908297121524810791e-01,2.096532611176371574e-03,1.256837695837020874e-01,3.232738971710205078e-01,1.231759414076805115e-01,-6.490323543548583984e-01,3.737523555755615234e-01,-1.967860758304595947e-01,-4.640092551708221436e-01,1.373450905084609985e-01,-3.337490856647491455e-01,7.228485494852066040e-02,2.416837215423583984e-01,-2.227540314197540283e-01,-1.585904061794281006e-01,1.682627797126770020e-01,-1.529190391302108765e-01,-8.645538091659545898e-01,-1.037739157676696777e+00,-1.842233985662460327e-01,2.208710759878158569e-01,3.308773040771484375e-02,3.283532857894897461e-01,4.075720012187957764e-01,1.234500780701637268e-01,-8.876110911369323730e-01,6.342367529869079590e-01,6.168563365936279297e-01,8.689606189727783203e-01,-7.032616734504699707e-01,4.711815714836120605e-01,2.598058581352233887e-01,7.269604504108428955e-02,-5.327411293983459473e-01,9.078022837638854980e-02,-3.041583895683288574e-01,-1.306293457746505737e-01,3.246387243270874023e-01,3.614671826362609863e-01,-1.996501907706260681e-02,-3.293648064136505127e-01,2.226388901472091675e-01,1.769624054431915283e-01,-4.046244323253631592e-01,3.423800691962242126e-02,5.619986057281494141e-01,-4.962204992771148682e-01,-9.028522968292236328e-01,-3.268146514892578125e-01,5.944230556488037109e-01,-2.471356540918350220e-01,9.429762512445449829e-02,1.223530992865562439e-01,7.104912400245666504e-01,-1.550427824258804321e-01,2.792801558971405029e-01,-3.899382948875427246e-01,-7.142452001571655273e-01,-3.420295938849449158e-02,-4.108927547931671143e-01,-2.110047936439514160e-01,3.249900639057159424e-01,3.757281303405761719e-01,-1.931317746639251709e-01,2.149989455938339233e-02,1.055028215050697327e-01,-3.566077947616577148e-01,1.250737756490707397e-01,7.224905490875244141e-01,3.517137169837951660e-01,-3.417376875877380371e-01,-4.791406914591789246e-02,-1.843053847551345825e-02,3.222533762454986572e-01,1.205572932958602905e-01,7.024915218353271484e-01,-3.911161720752716064e-01,4.260681942105293274e-02,7.324874401092529297e-01,-1.900185048580169678e-01,1.294990181922912598e-01,-6.372427940368652344e-02,-1.455350369215011597e-01,-8.795705437660217285e-01,-1.742515861988067627e-01,5.727628469467163086e-01,-2.371280789375305176e-01,-1.815362274646759033e-01,-2.095080018043518066e-01,4.584332704544067383e-01,1.193074434995651245e-01,-9.766532182693481445e-01,-2.053664624691009521e-01,1.074098467826843262e+00,3.068352937698364258e-01,