-6.542358994483947754e-01,5.679696202278137207e-01,-2.712717652320861816e-01,-4.716065824031829834e-01,7.142536640167236328e-01,1.554225981235504150e-01,4.012604057788848877e-01,-1.039232835173606873e-01,2.499210983514785767e-01,5.748359560966491699e-01,-7.256680130958557129e-01,-5.805174112319946289e-01,-2.203080058097839355e-01,-4.881862998008728027e-01,3.937660902738571167e-02,1.797121465206146240e-01,-1.216084435582160950e-01,1.337293535470962524e-01,-5.075986981391906738e-01,2.270691543817520142e-01,4.439523220062255859e-01,-1.904738843441009521e-01,5.557928234338760376e-02,-5.472045764327049255e-02,-9.005024284124374390e-02,4.817242026329040527e-01,-7.421749085187911987e-02,-5.319611430168151855e-01,-9.794857352972030640e-02,-2.014865353703498840e-02,1.411780416965484619e-01,-1.928035318851470947e-01,1.503861099481582642e-01,-5.022760629653930664e-01,2.876523509621620178e-02,-2.672951668500900269e-02,2.423102706670761108e-01,-1.199355423450469971e-01,8.134214580059051514e-02,-1.425671875476837158e-01,5.550305247306823730e-01,-1.431486755609512329e-01,5.613846182823181152e-01,-2.438599616289138794e-01,-1.386227458715438843e-01,-6.948899626731872559e-01,-4.049428999423980713e-01,2.706513702869415283e-01,4.262254238128662109e-01,9.296708554029464722e-02,-4.583596587181091309e-01,4.046607315540313721e-01,-2.433462999761104584e-02,-3.125515952706336975e-02,-7.940415740013122559e-01,-8.142136335372924805e-01,-3.054863214492797852e-01,6.504828482866287231e-02,-7.854568362236022949e-01,1.189503259956836700e-02,4.627797901630401611e-01,1.387604027986526489e-01,1.400158554315567017e-01,-2.047015577554702759e-01,8.458638191223144531e-02,2.413274198770523071e-01,-3.952522575855255127e-02,1.917425692081451416e-01,5.655812025070190430e-01,-4.376166313886642456e-02,-3.571206033229827881e-01,3.341779520269483328e-04,-2.660084366798400879e-01,4.485208988189697266e-01,2.372428774833679199e-01,2.913784086704254150e-01,-3.170441389083862305e-01,-1.989036202430725098e-01,-6.160464882850646973e-01,-1.855816245079040527e-01,-5.609676837921142578e-01,-3.024683594703674316e-01,1.589787006378173828e-01,-3.482524752616882324e-01,-6.218468397855758667e-02,-3.690752685070037842e-01,-4.837729036808013916e-02,7.562665641307830811e-02,-6.442721486091613770e-01,1.410589665174484253e-01,-3.158022761344909668e-01,-9.857845902442932129e-01,5.273925662040710449e-01,6.169531121850013733e-02,2.768263518810272217e-01,-2.985188663005828857e-01,6.483643054962158203e-01,3.290744423866271973e-01,6.786958575248718262e-01,4.911007881164550781e-01,-2.344159036874771118e-01,1.388122290372848511e-01,8.619267493486404419e-02,1.153444886207580566e+00,1.468707621097564697e-01,3.237108886241912842e-01,1.374192833900451660e-01,-2.070595510303974152e-02,3.768572807312011719e-01,-1.379278004169464111e-01,7.936407923698425293e-01,-6.941925883293151855e-01,-6.061765551567077637e-02,3.492490649223327637e-01,2.720678150653839111e-01,3.584554493427276611e-01,1.838617175817489624e-01,-1.692100912332534790e-01,-4.076169133186340332e-01,-1.184866428375244141e-01,-1.908901333808898926e-01,-1.043407395482063293e-01,-7.917280793190002441e-01,1.001618742942810059e+00,-1.408223807811737061e-01,-2.786881029605865479e-01,-1.813490837812423706e-01,-2.562125027179718018e-01,4.315720498561859131e-01,-1.107770502567291260e-01,1.068400979042053223e+00,-1.069366216659545898e+00,7.507663965225219727e-01,-9.130061268806457520e-01,-5.785444974899291992e-01,-4.892153143882751465e-01,3.408729135990142822e-01,-2.384589985013008118e-03,-7.048074007034301758e-01,1.255237162113189697e-01,2.585316896438598633e-01,-6.268814951181411743e-02,4.499772191047668457e-01,-4.249646365642547607e-01,1.356021016836166382e-01,2.495096474885940552e-01,3.406338095664978027e-01,-5.428912863135337830e-02,-3.371164202690124512e-01,-4.966438561677932739e-02,-4.965727627277374268e-01,2.372421473264694214e-01,-7.600394487380981445e-01,2.038008570671081543e-01,7.379110455513000488e-01,2.644183039665222168e-01,2.310859709978103638e-01,-3.530953824520111084e-02,5.150082111358642578e-01,-1.237762123346328735e-01,-2.771506309509277344e-01,-3.355864286422729492e-01,-5.770151019096374512e-01,-5.628230795264244080e-02,-3.364191055297851562e-01,1.612932085990905762e-01,-3.338943123817443848e-01,-2.575670778751373291e-01,-1.518700569868087769e-01,-1.262674573808908463e-02,1.907749846577644348e-02,4.620141908526420593e-02,2.859866917133331299e-01,-8.449790477752685547e-01,4.832177758216857910e-01,3.665840923786163330e-01,4.914442077279090881e-02,9.439837187528610229e-02,1.474248170852661133e-01,1.605633646249771118e-01,-7.189646959304809570e-01,-3.270193338394165039e-01,1.710330545902252197e-01,-8.379799127578735352e-01,-1.308108419179916382e-01,-1.779406517744064331e-01,-4.266258776187896729e-01,2.341364324092864990e-01,-8.415654301643371582e-01,2.001215368509292603e-01,-4.590220451354980469e-01,-9.372813254594802856e-02,-3.208856657147407532e-02,6.796360015869140625e-02,5.789708495140075684e-01,-1.097458824515342712e-01,-8.914981484413146973e-01,2.849007248878479004e-01,9.019627571105957031e-01,3.400608003139495850e-01,