-3.793835639953613281e-01,-3.322654664516448975e-01,-1.274797618389129639e-01,-2.624808624386787415e-02,-1.866516172885894775e-01,3.921109735965728760e-01,-2.772424519062042236e-01,-6.003113985061645508e-01,1.901051849126815796e-01,4.095253646373748779e-01,-3.461963534355163574e-01,-6.259490251541137695e-01,1.993912160396575928e-01,1.833506673574447632e-02,2.438645511865615845e-01,-6.874936223030090332e-01,-1.407128453254699707e+00,-2.445602715015411377e-01,-3.742423057556152344e-01,1.915196538902819157e-03,-9.821945801377296448e-03,7.364999968558549881e-03,-4.359246790409088135e-01,4.187220707535743713e-02,-2.068621218204498291e-01,-6.097668409347534180e-02,-1.337460726499557495e-01,-2.341885268688201904e-01,1.910279318690299988e-02,-2.199198901653289795e-01,4.920021444559097290e-02,-1.099907383322715759e-01,1.005234476178884506e-02,3.012678958475589752e-02,-1.678728312253952026e-02,-1.442678272724151611e-01,8.802920579910278320e-01,-6.857757270336151123e-02,-1.974307000637054443e-01,-1.592586748301982880e-02,3.124020062386989594e-02,-3.005952835083007812e-01,1.236826404929161072e-01,-7.361931726336479187e-03,-3.072707355022430420e-01,-4.123213291168212891e-01,-1.435606777667999268e-01,2.512145936489105225e-01,1.760722547769546509e-01,-3.340767920017242432e-01,-3.522677719593048096e-01,1.207941770553588867e-01,-1.196023672819137573e-01,-1.992192268371582031e-01,1.124264225363731384e-01,-5.981423705816268921e-02,-3.835776448249816895e-01,-6.292393803596496582e-01,-1.664945334196090698e-01,-5.001026764512062073e-02,-1.320762783288955688e-01,-3.460454046726226807e-01,-8.088516443967819214e-02,-3.051824495196342468e-02,-1.304901242256164551e-01,5.037779211997985840e-01,1.618296056985855103e-01,-3.070192039012908936e-01,-4.420262575149536133e-01,3.845104277133941650e-01,-3.369044363498687744e-01,1.423021778464317322e-02,-3.349630832672119141e-01,-2.900366485118865967e-01,-2.996546924114227295e-01,1.751064360141754150e-01,-4.421276748180389404e-01,-3.402585983276367188e-01,-3.684464991092681885e-01,-2.088923156261444092e-01,3.572934567928314209e-01,-2.986062765121459961e-01,1.381131857633590698e-01,-2.075190395116806030e-01,4.992427229881286621e-01,-1.521946936845779419e-01,-5.592835545539855957e-01,3.003474473953247070e-01,5.147862806916236877e-02,-1.238113269209861755e-01,-1.355561912059783936e-01,-4.537315294146537781e-02,-7.096013426780700684e-02,1.144409179687500000e-01,-3.769887387752532959e-01,1.875032298266887665e-02,-3.109015226364135742e-01,2.787507772445678711e-01,3.451750278472900391e-01,-1.073439195752143860e-01,-4.046914726495742798e-02,5.133734345436096191e-01,-3.281337320804595947e-01,-3.031146526336669922e-01,-1.013661101460456848e-01,9.868973493576049805e-02,4.551361873745918274e-02,-1.209543552249670029e-02,8.265788853168487549e-02,1.586770564317703247e-01,4.930468797683715820e-01,-5.254181101918220520e-02,-3.669850155711174011e-02,1.898896694183349609e-02,-2.636579573154449463e-01,3.403054550290107727e-02,-2.293632328510284424e-01,-1.654806733131408691e-01,1.930309385061264038e-01,-3.591842651367187500e-01,-7.243251204490661621e-01,4.991518855094909668e-01,1.438683718442916870e-01,4.379489645361900330e-02,2.227459996938705444e-01,1.393504738807678223e-01,1.723586171865463257e-01,1.809244900941848755e-01,1.401585340499877930e-01,-2.618381381034851074e-01,5.479645133018493652e-01,-7.232739329338073730e-01,5.029084905982017517e-02,-6.459421664476394653e-02,4.202779531478881836e-01,-3.519144952297210693e-01,1.963718831539154053e-01,-9.360741972923278809e-01,-6.187793239951133728e-02,-1.621353998780250549e-02,1.157576292753219604e-01,-1.678942292928695679e-01,-4.049490094184875488e-01,-2.232800796627998352e-02,-1.640203893184661865e-01,-2.856580615043640137e-01,4.007867351174354553e-02,-3.463263511657714844e-01,-9.501414000988006592e-02,-1.224033609032630920e-01,-1.633123122155666351e-02,-2.924972400069236755e-02,-2.454226613044738770e-01,1.254280209541320801e-01,2.894309461116790771e-01,-4.033755660057067871e-01,-8.496307730674743652e-01,3.950579464435577393e-01,1.729106996208429337e-03,-7.602427899837493896e-02,1.999693922698497772e-02,-2.098454684019088745e-01,-2.609159946441650391e-01,-5.781747400760650635e-02,6.365970522165298462e-02,-2.875695526599884033e-01,-7.928157597780227661e-02,-3.598150983452796936e-02,1.049294918775558472e-01,4.461492970585823059e-02,-2.194837182760238647e-01,2.435166947543621063e-02,4.331543743610382080e-01,-5.790522098541259766e-01,-1.229463070631027222e-01,2.083239555358886719e-01,-4.238547086715698242e-01,-2.932608723640441895e-01,8.273625373840332031e-02,3.472281694412231445e-01,2.469139397144317627e-01,-4.753372669219970703e-01,-1.365147382020950317e-01,-5.920490026473999023e-01,-5.833935141563415527e-01,-1.387635618448257446e-01,-1.987065672874450684e-01,8.977330476045608521e-02,-1.675708889961242676e-01,8.571447432041168213e-02,-5.444377064704895020e-01,8.109381794929504395e-02,1.698207408189773560e-01,-7.210828363895416260e-02,-3.565733134746551514e-01,1.051877960562705994e-01,-3.458179831504821777e-01,1.268599182367324829e-01,-3.620047569274902344e-01,3.034737706184387207e-01,