-8.132801204919815063e-02,-5.398508906364440918e-02,-2.301306724548339844e-01,-3.500602245330810547e-01,-4.184413850307464600e-01,-1.539663225412368774e-01,1.003103032708168030e-01,3.845995068550109863e-01,8.970166742801666260e-02,-8.069829642772674561e-02,2.488216012716293335e-01,1.612715125083923340e-01,1.256999373435974121e-01,-4.380424320697784424e-02,1.095595061779022217e-01,-1.262630969285964966e-01,2.735005617141723633e-01,-6.766627077013254166e-03,1.145033687353134155e-01,9.293162077665328979e-02,-2.801193669438362122e-02,-6.570016499608755112e-03,2.847531810402870178e-02,8.097169548273086548e-02,-8.886171877384185791e-02,3.470939397811889648e-02,-1.337930560111999512e-01,-5.578791722655296326e-02,-2.099375575780868530e-01,1.947113573551177979e-01,5.794136226177215576e-02,1.033335551619529724e-02,-1.956837177276611328e-01,-1.077150274068117142e-02,9.366191923618316650e-03,1.955781280994415283e-01,-2.416224684566259384e-03,-2.917651645839214325e-02,-4.570479318499565125e-02,7.567749917507171631e-02,9.742131084203720093e-02,1.217719689011573792e-01,7.171553373336791992e-02,7.731729745864868164e-02,2.591297626495361328e-01,7.486697286367416382e-02,-4.114736616611480713e-02,-2.633347734808921814e-02,-7.909109443426132202e-02,7.942061871290206909e-02,-1.950762420892715454e-02,8.857716619968414307e-02,-7.143002003431320190e-02,9.760507196187973022e-02,-2.008644044399261475e-01,3.468222916126251221e-02,-5.441180244088172913e-02,-1.002576798200607300e-01,-3.753986582159996033e-02,2.134186923503875732e-01,1.516930013895034790e-01,1.278895735740661621e-01,-3.699120506644248962e-02,-1.633858531713485718e-01,7.112040370702743530e-02,-1.689921133220195770e-02,-1.039293855428695679e-01,-1.095927953720092773e-01,9.315115958452224731e-02,-7.631242275238037109e-02,-1.621948555111885071e-02,1.259886473417282104e-01,-2.955179810523986816e-01,-1.643384248018264771e-01,2.402634322643280029e-01,-2.483866959810256958e-01,8.909866958856582642e-02,1.096661947667598724e-02,2.948316186666488647e-02,-1.312667876482009888e-01,-2.047206647694110870e-02,-2.631978094577789307e-01,-5.636552348732948303e-02,-7.474364340305328369e-02,-1.671457663178443909e-02,-1.166499964892864227e-02,8.214294165372848511e-02,-1.241088360548019409e-01,-1.863449066877365112e-01,-4.452982917428016663e-02,5.857234448194503784e-02,-2.001435756683349609e-01,-7.515922933816909790e-02,-9.811068326234817505e-02,2.234023958444595337e-01,3.446612879633903503e-02,6.374674290418624878e-02,-2.377010136842727661e-01,1.308151334524154663e-01,-4.519601538777351379e-02,2.988429041579365730e-03,-2.056705206632614136e-01,-9.610459953546524048e-02,-6.276157498359680176e-02,-2.948781661689281464e-02,3.436279594898223877e-01,-2.394424676895141602e-01,7.344036549329757690e-02,-1.462918072938919067e-01,-3.800873458385467529e-02,-2.161924093961715698e-01,-1.150081232190132141e-01,-3.135230243206024170e-01,4.055911675095558167e-02,-1.896203458309173584e-01,3.649014607071876526e-02,-2.835281193256378174e-02,3.316736817359924316e-01,2.681523561477661133e-01,6.349572539329528809e-02,-4.130175709724426270e-01,1.044183000922203064e-01,4.790107905864715576e-01,-4.463152885437011719e-01,-1.671026349067687988e+00,-9.177328348159790039e-01,-3.192975223064422607e-01,-7.864598929882049561e-02,-7.740215212106704712e-02,-2.104382365942001343e-01,2.422715164721012115e-02,2.041610330343246460e-01,3.825178742408752441e-01,6.418694257736206055e-01,3.528060019016265869e-01,1.898370683193206787e-01,-3.181609138846397400e-02,1.075171008706092834e-01,-3.093912824988365173e-02,9.719768911600112915e-02,3.055357038974761963e-01,1.527758687734603882e-01,4.316059052944183350e-01,3.518074154853820801e-01,2.131655067205429077e-01,2.757827043533325195e-01,1.497406065464019775e-01,1.397308260202407837e-01,3.215136528015136719e-01,7.273370772600173950e-02,9.603368490934371948e-02,2.888957969844341278e-02,-3.236429020762443542e-02,-6.453856825828552246e-02,2.709013223648071289e-01,2.008577287197113037e-01,4.683274626731872559e-01,5.394714698195457458e-02,2.099101841449737549e-01,3.936803340911865234e-02,2.021551728248596191e-01,2.027232758700847626e-02,-4.437216743826866150e-02,-4.044217988848686218e-02,-3.788238391280174255e-02,2.345419526100158691e-01,1.172125041484832764e-01,-9.207980334758758545e-02,5.947484448552131653e-02,-3.029129654169082642e-02,1.614008098840713501e-01,-1.164979934692382812e-01,-1.019477844238281250e-01,1.950029432773590088e-01,6.850263476371765137e-02,-3.276195377111434937e-02,-1.187989488244056702e-01,4.207554459571838379e-02,-8.770571649074554443e-02,-2.360599339008331299e-01,-2.064919099211692810e-02,-6.389446556568145752e-02,-1.503447294235229492e-01,2.101031988859176636e-01,-2.683624029159545898e-01,5.804381147027015686e-02,1.478056516498327255e-02,9.091527760028839111e-02,2.801675796508789062e-01,1.904097199440002441e-01,1.222987100481987000e-01,-7.578343898057937622e-02,2.182210087776184082e-01,-1.055247411131858826e-01,7.044228911399841309e-02,-5.723835527896881104e-02,-8.806407451629638672e-02,-6.666818261146545410e-02,-1.689917892217636108e-01,1.992912739515304565e-01,2.113937884569168091e-01,6.982216238975524902e-02,1.522270590066909790e-01,2.686772644519805908e-01,-4.882898554205894470e-02,1.216324269771575928e-01,6.821035593748092651e-02,3.613396733999252319e-02,-1.691672503948211670e-01,2.260729223489761353e-01,-2.250105328857898712e-02,8.265905082225799561e-02,-5.626902915537357330e-03,1.967111974954605103e-02,1.164431422948837280e-01,-1.279551684856414795e-01,-5.951564759016036987e-02,-5.832064151763916016e-02,7.628204673528671265e-02,-4.996202513575553894e-02,-2.373907268047332764e-01,2.584708034992218018e-01,-2.616650238633155823e-02,-5.663840845227241516e-02,1.917354464530944824e-01,9.621147811412811279e-02,-1.358975097537040710e-02,-3.401517868041992188e-02,1.167592033743858337e-01,3.154924511909484863e-02,7.589912414550781250e-02,2.507860660552978516e-01,2.267037332057952881e-01,5.903716012835502625e-02,1.083431690931320190e-01,6.926174741238355637e-03,-2.188585931435227394e-03,-2.209158539772033691e-01,5.370181426405906677e-02,5.161168053746223450e-02,-3.965606912970542908e-02,7.730418443679809570e-02,9.897565841674804688e-02,-3.483570180833339691e-04,1.822067797183990479e-01,1.382627189159393311e-01,-1.105409413576126099e-01,9.642681479454040527e-02,-5.284722149372100830e-02,7.994330674409866333e-02,-5.651600956916809082e-01,-8.497158885002136230e-01,-3.830252885818481445e-01,4.833439886569976807e-01,5.554899573326110840e-01,-1.795043498277664185e-01,1.193781718611717224e-01,8.476877957582473755e-02,6.092596799135208130e-02,1.593698631040751934e-03,8.944128155708312988e-01,-1.385481003671884537e-02,-5.312529802322387695e-01,4.853947758674621582e-01,-9.892212599515914917e-02,4.412734881043434143e-02,6.093713268637657166e-02,4.040232896804809570e-01,4.456546157598495483e-02,-1.417511999607086182e-01,2.436480671167373657e-01,-5.771614145487546921e-03,7.479196786880493164e-02,1.511574238538742065e-01,-4.140048846602439880e-02,-1.177226677536964417e-01,2.510773241519927979e-01,-1.498237103223800659e-01,2.367828339338302612e-01,1.808773353695869446e-02,6.971876323223114014e-02,-6.531680468469858170e-03,1.462443768978118896e-01,3.603170439600944519e-02,7.705607917159795761e-03,8.170245587825775146e-02,2.553256414830684662e-02,-7.541698217391967773e-02,-8.394068107008934021e-03,-5.204734578728675842e-02,-8.486460149288177490e-02,2.331423200666904449e-02,-1.562001463025808334e-02,-3.697562217712402344e-02,6.273316591978073120e-02,-2.292712219059467316e-02,2.920533344149589539e-02,-1.603735610842704773e-02,3.324535861611366272e-02,-1.184984948486089706e-02,-2.688235789537429810e-02,-4.729994572699069977e-03,-1.070002689957618713e-01,-5.584402009844779968e-02,6.443350017070770264e-02,2.010144740343093872e-01,4.159370064735412598e-02,1.196565032005310059e-01,1.193354055285453796e-01,-1.553027629852294922e-01,1.378463394939899445e-02,-1.083387061953544617e-01,3.347015706822276115e-03,2.927139401435852051e-02,1.400737166404724121e-01,1.091270893812179565e-02,-7.233927398920059204e-02,6.238928437232971191e-02,-1.760584712028503418e-01,2.486232966184616089e-01,-3.688882663846015930e-02,-8.996540307998657227e-02,1.468320786952972412e-01,-2.546636164188385010e-01,3.750125691294670105e-02,4.551604017615318298e-02,-1.872724145650863647e-01,3.502369225025177002e-01,-6.522612273693084717e-02,-7.583633065223693848e-02,8.830150589346885681e-03,9.158651530742645264e-02,9.650429338216781616e-02,5.419627204537391663e-02,9.259928017854690552e-02,1.573287881910800934e-02,1.544358581304550171e-01,9.640180505812168121e-03,-8.242085576057434082e-02,8.902269415557384491e-03,1.275639235973358154e-01,-3.699926286935806274e-02,9.394377470016479492e-02,3.957285359501838684e-02,1.180523633956909180e-02,-3.815587237477302551e-02,3.037208877503871918e-02,-3.075425140559673309e-02,-1.105670183897018433e-01,8.108880370855331421e-02,3.988366201519966125e-02,9.299029409885406494e-02,1.671660691499710083e-02,1.175116095691919327e-02,-7.277188450098037720e-02,9.686905145645141602e-02,1.078268364071846008e-01,7.832998037338256836e-02,9.595615416765213013e-02,-1.682594604790210724e-02,2.405322343111038208e-02,-3.591651096940040588e-02,2.494658343493938446e-02,8.130919933319091797e-02,-2.265888303518295288e-01,3.557760640978813171e-02,-2.232124805450439453e-01,-2.003945559263229370e-01,1.804549247026443481e-02,1.260107904672622681e-01,-2.326274812221527100e-01,-1.060365736484527588e-01,-5.348940566182136536e-02,-2.674129009246826172e-01,1.938989907503128052e-01,-1.080930139869451523e-02,-2.550779581069946289e-01,-5.717383623123168945e-01,1.230458378791809082e+00,4.258806109428405762e-01,-1.807518959045410156e+00,1.092911884188652039e-02,3.144946396350860596e-01,1.484286226332187653e-02,-2.488287687301635742e-01,-1.568466871976852417e-01,-4.590436816215515137e-02,-3.256179392337799072e-01,9.537237137556076050e-02,1.069865822792053223e+00,-4.933999776840209961e-01,-9.557395428419113159e-02,3.496837019920349121e-01,7.377795875072479248e-02,5.663788691163063049e-02,-7.405579090118408203e-02,1.718331873416900635e-01,-1.075895950198173523e-01,6.670853495597839355e-02,2.600543498992919922e-01,-2.628169357776641846e-01,1.278404444456100464e-01,1.577171832323074341e-01,-2.766346372663974762e-02,2.660636603832244873e-01,-4.144086316227912903e-02,1.067902967333793640e-01,5.703359469771385193e-02,2.518559098243713379e-01,-2.228274568915367126e-02,5.940236151218414307e-02,1.705610156059265137e-01,-1.328952051699161530e-02,6.697686016559600830e-02,5.649137869477272034e-02,4.911134019494056702e-02,-9.374558925628662109e-03,8.267999440431594849e-02,-1.006843224167823792e-01,-5.157900601625442505e-02,-7.648941595107316971e-03,-5.152975767850875854e-02,-1.987150162458419800e-01,1.036663074046373367e-02,-9.156070649623870850e-03,-9.518890082836151123e-02,-2.085671424865722656e-01,1.366902329027652740e-02,-2.375996671617031097e-02,-4.623546823859214783e-02,-1.441951245069503784e-01,-5.555029213428497314e-02,-1.428309381008148193e-01,-5.577285215258598328e-02,-1.961573809385299683e-01,-1.664145477116107941e-02,-5.198878422379493713e-02,-2.221975177526473999e-01,-8.464276790618896484e-02,2.441497333347797394e-02,6.887996941804885864e-02,-6.753461807966232300e-02,-4.697076976299285889e-02,-2.963144890964031219e-02,6.524960696697235107e-02,-7.106828689575195312e-02,4.376624152064323425e-02,8.160459995269775391e-02,-1.842837966978549957e-02,1.908193975687026978e-01,9.807851165533065796e-02,5.569432675838470459e-02,7.090588659048080444e-02,2.060946375131607056e-01,9.581655263900756836e-02,1.267775427550077438e-02,6.260976940393447876e-02,-9.665907919406890869e-02,1.174176484346389771e-01,-9.431313723325729370e-02,2.918683886528015137e-01,-6.008777394890785217e-02,-1.376828253269195557e-01,-1.016813144087791443e-01,-8.494883030652999878e-02,-8.223455399274826050e-02,3.658945113420486450e-02,6.216114014387130737e-02,-3.594774007797241211e-02,-1.666306331753730774e-02,-5.840867012739181519e-02,5.395661666989326477e-02,-5.659912154078483582e-02,-3.131125122308731079e-02,-1.410049945116043091e-01,5.421262606978416443e-02,-1.755520403385162354e-01,-1.655240729451179504e-02,-1.956060826778411865e-01,-6.225404143333435059e-02,-1.299641281366348267e-01,-1.429585926234722137e-02,-9.615019708871841431e-02,-9.035214781761169434e-02,-1.164983361959457397e-01,-1.330426335334777832e-01,-2.454107441008090973e-02,-7.882526516914367676e-02,2.422276325523853302e-02,-2.758841812610626221e-01,2.996770851314067841e-02,-1.014115810394287109e-01,7.394126057624816895e-02,-1.754135042428970337e-01,1.582309007644653320e-01,1.139993593096733093e-01,-1.567781567573547363e-01,1.568177938461303711e-01,-7.665649801492691040e-02,-2.421425133943557739e-01,3.778088465332984924e-02,2.841125056147575378e-02,-1.697551906108856201e-01,-9.417325258255004883e-02,1.211500838398933411e-01,-5.309646725654602051e-01,-7.062049508094787598e-01,1.712136030197143555e+00,-2.449726462364196777e-01,-9.775744676589965820e-01,5.924711376428604126e-02,-2.625273764133453369e-01,3.856364637613296509e-02,-1.387734413146972656e-01,-2.450605183839797974e-01,-1.244580000638961792e-01,4.298602938652038574e-01,4.898527264595031738e-01,7.831167578697204590e-01,6.894979476928710938e-01,2.232008576393127441e-01,-7.659734040498733521e-02,4.673764109611511230e-02,2.141951322555541992e-01,4.049497544765472412e-01,4.292823746800422668e-02,4.009303823113441467e-02,8.145580440759658813e-02,3.502658382058143616e-02,-3.993582352995872498e-02,1.136272922158241272e-01,-2.959153242409229279e-02,-2.113527357578277588e-01,-1.781689822673797607e-01,-2.622851729393005371e-01,-1.070640534162521362e-01,-3.032741844654083252e-01,1.205367967486381531e-01,7.594797015190124512e-02,-8.207384496927261353e-02,5.317642167210578918e-02,6.861443817615509033e-02,-7.102368772029876709e-02,6.959904730319976807e-02,-1.514823436737060547e-01,3.507403284311294556e-02,1.025354210287332535e-02,2.973836287856101990e-02,-6.481568515300750732e-02,3.214349448680877686e-01,5.468437448143959045e-02,-8.593121170997619629e-02,5.858353804796934128e-03,-1.370897591114044189e-01,7.175047416239976883e-03,9.656919538974761963e-02,-1.416771709918975830e-01,1.209217384457588196e-01,1.434621214866638184e-01,-5.993823334574699402e-02,-3.384257107973098755e-02,-3.933198004961013794e-02,9.835940599441528320e-02,2.165388613939285278e-01,-4.141994565725326538e-02,3.913911059498786926e-02,7.387610524892807007e-02,-1.161810941994190216e-02,-4.334426671266555786e-02,6.419895589351654053e-02,2.145589590072631836e-01,2.297632694244384766e-01,-7.939126342535018921e-02,3.118544630706310272e-02,3.305608332157135010e-01,-1.643005572259426117e-02,2.061518281698226929e-01,3.591562807559967041e-02,1.381135284900665283e-01,1.137080490589141846e-01,-2.964495718479156494e-01,-2.285742461681365967e-01,-8.208448067307472229e-03,-4.436230659484863281e-02,-1.474111229181289673e-01,-3.291719257831573486e-01,-2.945647202432155609e-02,1.255410313606262207e-01,1.401452124118804932e-01,7.477029692381620407e-03,2.719074189662933350e-01,-6.441589444875717163e-02,7.895619422197341919e-02,-1.049235537648200989e-01,-8.192816749215126038e-03,1.174046322703361511e-01,2.297011613845825195e-01,-2.102994918823242188e-01,2.024112939834594727e-01,1.469325274229049683e-01,1.029067635536193848e-01,1.389425545930862427e-01,2.566589117050170898e-01,2.535589039325714111e-01,4.684331119060516357e-01,1.186736747622489929e-01,1.440146565437316895e-01,4.508172720670700073e-02,-7.138321548700332642e-02,7.429514080286026001e-02,1.221788525581359863e-01,7.603679597377777100e-02,1.244173347949981689e-01,2.462833523750305176e-01,2.194953560829162598e-01,1.606200635433197021e-02,1.968694925308227539e-01,8.464778959751129150e-02,1.409992128610610962e-01,1.272179484367370605e-01,5.692795291543006897e-02,9.576191753149032593e-02,1.704275608062744141e-01,3.747470676898956299e-01,2.160755395889282227e-01,1.570714563131332397e-01,9.905723854899406433e-03,8.818674087524414062e-02,-1.133514866232872009e-01,7.605471462011337280e-02,-1.801807247102260590e-02,1.535714324563741684e-02,-2.962228655815124512e-01,-3.333604633808135986e-01,-3.186649084091186523e-01,-6.907297372817993164e-01,-8.603587746620178223e-01,1.653706878423690796e-01,1.953906565904617310e-01,-3.690590560436248779e-01,7.690393924713134766e-01,5.111255645751953125e-01,2.043857872486114502e-01,-4.306066334247589111e-01,-3.224549293518066406e-01,6.926503032445907593e-02,3.460538685321807861e-01,3.151195943355560303e-01,3.427512347698211670e-01,-1.502325236797332764e-01,-1.194541081786155701e-01,5.385123938322067261e-02,-8.394503593444824219e-02,8.557274192571640015e-02,-2.738073170185089111e-01,-4.347028210759162903e-02,-2.942954003810882568e-01,-3.530007004737854004e-01,-6.002637147903442383e-01,-3.317288458347320557e-01,-2.622533142566680908e-01,-1.781608611345291138e-01,-4.393471777439117432e-01,-2.765636146068572998e-01,-2.328324019908905029e-01,-2.850061953067779541e-01,-2.283515185117721558e-01,-3.661960661411285400e-01,-1.039934083819389343e-01,-2.173628211021423340e-01,-3.322567939758300781e-01,-7.638347893953323364e-02,-1.917514652013778687e-01,-2.164476811885833740e-01,-1.031859312206506729e-02,-1.923670470714569092e-01,-2.620972692966461182e-01,-2.341853231191635132e-01,-2.385766655206680298e-01,-9.683288633823394775e-02,-3.245549499988555908e-01,-1.233778074383735657e-01,-1.509454995393753052e-01,-1.780280470848083496e-02,2.326924353837966919e-01,-1.749300509691238403e-01,-7.616760581731796265e-02,-1.349304150789976120e-02,-3.060320205986499786e-02,-7.194524258375167847e-02,8.254721760749816895e-02,-1.031973585486412048e-01,-2.019594162702560425e-01,-1.593447476625442505e-01,-6.769192405045032501e-03,1.870192736387252808e-01,3.816292434930801392e-02,5.475577339529991150e-02,1.228597015142440796e-01,-8.162317425012588501e-02,1.708656251430511475e-01,2.086707055568695068e-01,9.114456176757812500e-02,-2.396538108587265015e-01,1.557631194591522217e-01,-8.036594837903976440e-02,1.411383450031280518e-01,-1.370300799608230591e-01,-3.038992583751678467e-01,3.342883661389350891e-02,-1.997997425496578217e-02,1.701354831457138062e-01,1.078414842486381531e-01,5.768407508730888367e-02,2.679115161299705505e-02,1.275352835655212402e-01,2.906480431556701660e-02,2.350733578205108643e-01,1.138989720493555069e-02,-2.604383975267410278e-02,2.382231503725051880e-01,-3.404453769326210022e-02,-7.593914121389389038e-02,1.103897467255592346e-01,9.098953567445278168e-03,-8.040700852870941162e-02,1.136919185519218445e-01,1.161562353372573853e-01,-5.240347608923912048e-02,2.562016248703002930e-01,-2.324057044461369514e-03,1.684493757784366608e-02,-3.636983409523963928e-02,1.132128164172172546e-01,2.288299612700939178e-02,3.990428987890481949e-03,1.298871785402297974e-01,1.118524223566055298e-01,1.460188478231430054e-01,2.986207604408264160e-01,7.340274751186370850e-02,1.853904314339160919e-02,2.045910209417343140e-01,6.975235044956207275e-02,2.045597434043884277e-01,2.175980955362319946e-01,1.547333002090454102e-01,-1.028534304350614548e-02,-2.813710458576679230e-02,-2.216530404984951019e-02,-2.451032027602195740e-02,-1.189986541867256165e-01,-2.020705640316009521e-01,-2.648653388023376465e-01,-4.383272528648376465e-01,-3.190350532531738281e-01,-4.852893948554992676e-01,-4.880229234695434570e-01,-2.226282358169555664e-01,-5.447952449321746826e-02,2.972272634506225586e-01,-2.846308946609497070e-01,-2.748129665851593018e-01,-4.116021394729614258e-01,-4.460949301719665527e-01,-4.138848483562469482e-01,-2.683838903903961182e-01,4.356963038444519043e-01,1.144448444247245789e-01,-1.803775131702423096e-01,-3.584929183125495911e-02,4.590168967843055725e-02,1.531090736389160156e-01,-3.897794708609580994e-02,-4.074532389640808105e-01,-2.580687701702117920e-01,1.137240305542945862e-01,4.506012890487909317e-03,1.836643368005752563e-02,1.170839066617190838e-03,5.572093650698661804e-02,1.338754408061504364e-02,-8.653313666582107544e-02,-2.543788552284240723e-01,-8.654084801673889160e-02,-2.172169983386993408e-01,-1.392579972743988037e-01,-1.793189793825149536e-01,1.603664085268974304e-02,1.245559193193912506e-02,1.386081520467996597e-02,3.098356537520885468e-02,2.153370082378387451e-01,-1.411451771855354309e-02,9.404481947422027588e-02,1.092386320233345032e-01,8.077116683125495911e-03,1.879894286394119263e-01,-6.408812012523412704e-03,6.232459470629692078e-02,2.536257505416870117e-01,-3.741669654846191406e-02,2.174383960664272308e-03,2.141927480697631836e-01,-7.560624927282333374e-02,1.050030663609504700e-01,7.241440471261739731e-03,-1.982265617698431015e-03,6.801012158393859863e-02,-2.099644159898161888e-03,-1.687092930078506470e-01,1.054716706275939941e-01,2.861670590937137604e-02,2.121703512966632843e-02,-1.256289891898632050e-02,8.263169229030609131e-02,-5.961561203002929688e-02,-6.210514530539512634e-02,1.009068638086318970e-01,2.295421808958053589e-02,-4.886200278997421265e-02,2.056335359811782837e-01,4.279343411326408386e-02,-1.109377592802047729e-01,1.114019006490707397e-01,-1.416873037815093994e-01,7.295498996973037720e-02,-8.223999291658401489e-02,-6.678996235132217407e-02,7.042761892080307007e-03,2.009033225476741791e-02,4.052570834755897522e-02,1.038191169500350952e-01,8.469094336032867432e-02,-1.177454069256782532e-01,-4.291136935353279114e-02,2.049378678202629089e-02,6.319493800401687622e-02,-8.732286840677261353e-02,1.842602491378784180e-01,1.086035743355751038e-01,1.221144944429397583e-01,2.008135467767715454e-01,1.778288185596466064e-01,1.957005560398101807e-01,-3.578020725399255753e-03,4.398875683546066284e-02,1.652598828077316284e-01,1.509739831089973450e-02,8.025875315070152283e-03,1.483985185623168945e-01,1.140805780887603760e-01,1.502392739057540894e-01,8.667368441820144653e-02,2.450400441884994507e-01,9.881575405597686768e-02,1.721832156181335449e-01,1.841697692871093750e-01,1.450008004903793335e-01,1.617353707551956177e-01,2.534836530685424805e-01,8.206291496753692627e-02,2.822887599468231201e-01,2.380251586437225342e-01,1.367395818233489990e-01,3.273380696773529053e-01,1.864369511604309082e-01,9.590918570756912231e-02,1.519832462072372437e-01,1.186732500791549683e-01,8.099592477083206177e-02,2.231468558311462402e-01,4.694710299372673035e-02,1.683821976184844971e-01,2.110786288976669312e-01,-5.235244333744049072e-02,1.173467040061950684e-01,-7.080863695591688156e-03,-3.878675028681755066e-02,7.892319560050964355e-02,1.207249425351619720e-02,1.439648717641830444e-01,1.667004227638244629e-01,2.018042951822280884e-01,2.876322269439697266e-01,4.098755419254302979e-01,2.415388226509094238e-01,4.209224581718444824e-01,2.160860002040863037e-01,1.738160550594329834e-01,9.485246986150741577e-02,-2.171545661985874176e-02,1.123444885015487671e-01,5.907243490219116211e-01,4.070280790328979492e-01,3.125098943710327148e-01,5.000196099281311035e-01,3.782146275043487549e-01,3.881439268589019775e-01,4.140215925872325897e-03,-1.051785945892333984e-01,-3.792310059070587158e-01,-4.649634063243865967e-01,-7.734589576721191406e-01,-5.535613298416137695e-01,-7.704260945320129395e-01,-5.350758433341979980e-01,-5.411735177040100098e-01,-8.661291003227233887e-02,-1.940605193376541138e-01,-4.077272117137908936e-02,-3.044003844261169434e-01,-2.070719450712203979e-01,-2.697807252407073975e-01,-2.624166011810302734e-01,-2.502866089344024658e-01,-3.076860904693603516e-01,-4.749221205711364746e-01,-9.946899116039276123e-02,-4.811738729476928711e-01,-7.175542414188385010e-02,-2.630930542945861816e-01,-2.612666785717010498e-01,-1.449302136898040771e-01,-2.239617556333541870e-01,-2.793074548244476318e-01,-4.136500135064125061e-02,-1.420240849256515503e-01,-3.247021436691284180e-01,-3.537371288985013962e-03,-1.908797621726989746e-01,-1.283955425024032593e-01,-1.983249746263027191e-02,-1.855335086584091187e-01,1.549749076366424561e-01,-2.132295444607734680e-02,-9.426908195018768311e-02,-7.431851327419281006e-02,-1.171280816197395325e-01,-9.389739483594894409e-02,-7.611825317144393921e-02,-6.027273833751678467e-03,3.548269346356391907e-02,2.564709261059761047e-02,1.117675681598484516e-03,-4.645662009716033936e-02,-4.145710170269012451e-02,-6.860602647066116333e-02,8.633083105087280273e-02,3.293483331799507141e-02,-1.873773634433746338e-01,4.783160239458084106e-02,-7.118114084005355835e-02,6.667749583721160889e-02,-1.242278441786766052e-01,6.136863306164741516e-02,-7.002949714660644531e-02,-8.475869894027709961e-02,3.573475778102874756e-02,2.813768014311790466e-02,-1.230626851320266724e-01,-1.295978873968124390e-01,-5.120928585529327393e-02,-7.822172343730926514e-02,-6.634615361690521240e-02,-1.584542393684387207e-01,-8.214790374040603638e-02,-2.017207592725753784e-01,2.563800662755966187e-02,-2.462487667798995972e-02,-7.006656378507614136e-02,-2.089974097907543182e-02,-1.049248352646827698e-01,-7.699725031852722168e-02,-2.376681566238403320e-02,-8.566828072071075439e-02,-3.291844949126243591e-02,-3.381294384598731995e-02,-3.935946151614189148e-02,-5.419642105698585510e-02,5.598871409893035889e-02,-3.874618560075759888e-02,-8.980176597833633423e-02,1.570407152175903320e-01,-3.866568580269813538e-02,4.417240992188453674e-02,-5.119745805859565735e-02,-1.652312576770782471e-01,1.070764660835266113e-01,7.954093068838119507e-02,-9.326273947954177856e-02,2.134747952222824097e-01,-1.476343125104904175e-01,5.880673974752426147e-02,4.239552468061447144e-02,-3.055468574166297913e-02,7.892070710659027100e-02,-3.945514932274818420e-02,-6.804576516151428223e-02,8.639133721590042114e-02,-2.832485921680927277e-02,-1.624163836240768433e-01,1.320706009864807129e-01,-1.932062208652496338e-01,-1.152760237455368042e-01,1.728716306388378143e-02,-1.134657040238380432e-01,-5.827872455120086670e-02,-1.534776091575622559e-01,-7.978048920631408691e-02,-8.182246237993240356e-02,-8.385474234819412231e-02,7.116575259715318680e-03,-3.516200557351112366e-02,3.131027221679687500e-01,3.164288103580474854e-01,6.006316542625427246e-01,6.008148193359375000e-02,9.846686571836471558e-02,8.671031892299652100e-02,-3.603030741214752197e-01,-4.316259324550628662e-01,3.738895356655120850e-01,2.742806375026702881e-01,3.643562197685241699e-01,1.135390177369117737e-01,5.205253884196281433e-02,3.817212581634521484e-01,1.802184134721755981e-01,2.462156563997268677e-01,8.953942656517028809e-01,8.678315877914428711e-01,8.059141039848327637e-01,4.250794649124145508e-01,-2.370723783969879150e-01,-4.439880251884460449e-01,-4.379150867462158203e-01,-1.090727075934410095e-01,-2.635469473898410797e-02,1.935029774904251099e-02,-2.514246106147766113e-01,-7.716333121061325073e-02,-4.768655821681022644e-02,9.526624530553817749e-02,2.109042406082153320e-01,2.835830114781856537e-02,1.389022469520568848e-01,4.643445461988449097e-02,-3.695570528507232666e-01,-9.074446558952331543e-02,-1.297731101512908936e-01,-8.615493774414062500e-02,-3.328448906540870667e-02,-1.853593885898590088e-01,-9.730916470289230347e-02,-1.303948312997817993e-01,-8.851654082536697388e-02,-1.478184759616851807e-01,-1.668779365718364716e-02,1.050513982772827148e-01,-2.176297158002853394e-01,1.119416579604148865e-02,-1.561087816953659058e-01,-2.849875763058662415e-02,-1.168850362300872803e-01,-5.262511968612670898e-02,1.101978495717048645e-02,-1.534813344478607178e-01,1.260004490613937378e-01,9.861364215612411499e-02,1.179311424493789673e-01,5.355738103389739990e-02,2.860276699066162109e-01,-1.334911882877349854e-01,1.992415040731430054e-01,2.061964124441146851e-01,-4.162117466330528259e-02,2.409816980361938477e-01,-1.236065924167633057e-01,2.665804922580718994e-01,1.348319053649902344e-01,3.726221621036529541e-01,2.764801383018493652e-01,1.738715916872024536e-01,2.641959860920906067e-02,2.343880236148834229e-01,-1.856298930943012238e-02,4.005365073680877686e-01,-8.067554235458374023e-02,-1.130710691213607788e-01,3.448376357555389404e-01,1.008823737502098083e-01,1.031300798058509827e-01,-3.778001368045806885e-01,-7.600965909659862518e-03,-3.942169249057769775e-02,5.972801521420478821e-02,-6.177997216582298279e-02,-3.064199984073638916e-01,-1.205930635333061218e-01,-1.001700311899185181e-01,-6.717617064714431763e-02,-1.478913575410842896e-01,-1.329005360603332520e-01,-2.167513966560363770e-01,-1.930492967367172241e-01,-4.487974196672439575e-02,-2.061132341623306274e-01,-5.822411924600601196e-02,-1.744904667139053345e-01,-2.732291221618652344e-01,1.303301937878131866e-02,-3.058210909366607666e-01,9.091715514659881592e-02,-9.150582551956176758e-02,5.711435154080390930e-02,-2.000726610422134399e-01,-9.402037411928176880e-02,1.145813316106796265e-01,-3.076973953284323215e-04,-1.558531522750854492e-01,3.799583762884140015e-02,1.697832602076232433e-03,4.517260566353797913e-02,-1.927612721920013428e-01,-1.679393947124481201e-01,-8.567228168249130249e-02,-9.436401724815368652e-02,9.201890975236892700e-02,-2.549579441547393799e-01,1.455948874354362488e-02,1.900596916675567627e-01,-7.245231419801712036e-02,-1.409024000167846680e-01,-7.763007283210754395e-02,-6.046711206436157227e-01,-3.774651885032653809e-01,-5.122516751289367676e-01,-1.975295096635818481e-01,8.256489783525466919e-02,1.361171528697013855e-02,-2.193555086851119995e-01,3.826034441590309143e-02,-1.282883808016777039e-02,4.844451546669006348e-01,1.161360859870910645e+00,7.544218301773071289e-01,5.440895557403564453e-01,-3.463998436927795410e-01,-8.716276288032531738e-01,3.175301849842071533e-01,1.360823065042495728e-01,-5.020841211080551147e-02,-4.243339970707893372e-02,-1.345293968915939331e-01,-3.098814487457275391e-01,-2.047251611948013306e-01,-6.596050858497619629e-01,-2.095768898725509644e-01,2.174209058284759521e-01,3.759669661521911621e-01,9.940510988235473633e-01,9.832888841629028320e-01,3.484519422054290771e-01,2.822972238063812256e-01,-1.253784298896789551e-01,-1.038896292448043823e-01,-1.223031133413314819e-01,9.608757495880126953e-02,-1.465396285057067871e-01,1.402740031480789185e-01,-2.807125747203826904e-01,6.064979359507560730e-02,3.711294233798980713e-01,6.992206443101167679e-03,4.377940893173217773e-01,1.996262371540069580e-01,2.412854228168725967e-03,1.010501161217689514e-01,-8.334549516439437866e-02,1.157770752906799316e-01,6.138305738568305969e-02,1.531920582056045532e-01,6.777284294366836548e-02,7.790282252244651318e-04,1.390620321035385132e-01,-4.557828977704048157e-02,1.592749357223510742e-01,5.994326621294021606e-02,9.523966163396835327e-02,1.556346267461776733e-01,6.623968947678804398e-03,-7.530245184898376465e-02,8.521099388599395752e-02,-1.127017289400100708e-01,-1.134958639740943909e-01,4.822532832622528076e-02,1.751661449670791626e-01,-1.243455633521080017e-01,-2.210388183593750000e-01,2.833729051053524017e-02,1.023662611842155457e-01,3.821138665080070496e-02,2.796603441238403320e-01,-8.124387264251708984e-02,8.868447504937648773e-03,-7.083083689212799072e-02,7.919283211231231689e-02,1.175462305545806885e-01,-1.183261722326278687e-01,-3.678847569972276688e-03,1.067778095602989197e-02,1.384926140308380127e-01,1.288158893585205078e-01,3.574147075414657593e-02,1.164957433938980103e-01,1.533506065607070923e-01,3.171944320201873779e-01,1.872733384370803833e-01,2.485373169183731079e-01,3.733306825160980225e-01,1.242874935269355774e-01,6.731048226356506348e-02,2.650534510612487793e-01,-1.092484816908836365e-01,6.354590505361557007e-02,-2.184726484119892120e-02,1.823053359985351562e-01,1.847191154956817627e-01,-1.935139670968055725e-02,1.485755592584609985e-01,1.335543673485517502e-02,2.009434401988983154e-01,-1.215981040149927139e-02,3.022832870483398438e-01,-1.508405245840549469e-02,-2.019784301519393921e-01,-8.622497320175170898e-02,5.753275007009506226e-02,2.191686034202575684e-01,-1.213454380631446838e-01,6.119622662663459778e-02,-3.642831230536103249e-03,-5.457353591918945312e-02,1.147549971938133240e-01,-3.871198743581771851e-02,-4.782846942543983459e-02,2.746235951781272888e-02,-8.946741372346878052e-02,1.389559358358383179e-01,-6.624852865934371948e-02,-8.152995258569717407e-03,1.939916610717773438e-01,8.352151513099670410e-02,2.419636026024818420e-02,7.985924929380416870e-02,-6.044994667172431946e-02,9.219217300415039062e-02,-1.816852092742919922e-01,3.095058500766754150e-01,2.884249985218048096e-01,1.876699626445770264e-01,5.556697249412536621e-01,1.888228952884674072e-01,1.090740878134965897e-02,-1.241606622934341431e-01,-2.511443197727203369e-01,-2.434392422437667847e-01,-8.589178323745727539e-02,-2.783602774143218994e-01,-1.803206652402877808e-01,-6.414211988449096680e-01,-8.415012955665588379e-01,4.024112969636917114e-02,6.123576164245605469e-01,5.843259096145629883e-01,1.119256973266601562e+00,-4.552897065877914429e-02,-3.307144939899444580e-01,4.371658340096473694e-02,-1.533520072698593140e-01,-9.687417000532150269e-02,-4.318438470363616943e-01,-4.543840885162353516e-01,-6.649321913719177246e-01,-2.965603172779083252e-01,3.639434650540351868e-02,3.765797913074493408e-01,4.329819381237030029e-01,3.269986510276794434e-01,3.943267464637756348e-01,4.814232587814331055e-01,4.581323862075805664e-01,1.915350705385208130e-01,3.617660403251647949e-01,2.995962500572204590e-01,3.107649981975555420e-01,2.842945158481597900e-01,3.495191633701324463e-01,1.668533980846405029e-01,2.798646390438079834e-01,2.479996383190155029e-01,1.064506322145462036e-01,3.452481925487518311e-01,-1.962939091026782990e-02,2.729139626026153564e-01,1.713433563709259033e-01,8.362599462270736694e-02,2.560143768787384033e-01,1.148856654763221741e-01,2.787701785564422607e-01,1.399275660514831543e-01,1.576031744480133057e-01,1.133911460638046265e-01,1.430366784334182739e-01,-1.396638620644807816e-02,1.007425114512443542e-01,-2.604639623314142227e-03,-1.846201135776937008e-03,1.280410736799240112e-01,1.711641997098922729e-02,9.475544095039367676e-02,7.590101659297943115e-02,1.268500648438930511e-02,3.046068362891674042e-02,1.276186704635620117e-01,2.235593507066369057e-03,-2.881620451807975769e-02,5.338426306843757629e-02,-7.194172590970993042e-03,1.393078565597534180e-01,4.296999052166938782e-02,1.745219677686691284e-01,-1.575286537408828735e-01,-3.738636896014213562e-02,1.839558035135269165e-01,-9.102075546979904175e-02,-1.288353949785232544e-01,-2.747137285768985748e-02,1.699033081531524658e-01,-6.483858078718185425e-02,1.382572799921035767e-01,-2.037429660558700562e-01,1.677676737308502197e-01,-9.708841145038604736e-02,1.702966690063476562e-01,-1.124337222427129745e-02,-1.010896041989326477e-01,5.897811055183410645e-02,-7.425173372030258179e-02,1.074130274355411530e-02,4.459658265113830566e-02,-1.415841430425643921e-01,-2.083608955144882202e-01,2.521945834159851074e-01,-1.666468232870101929e-01,1.919505372643470764e-02,-1.406526565551757812e-01,1.352193504571914673e-01,-1.013711020350456238e-01,-5.008005537092685699e-03,-5.216016992926597595e-02,-9.732696413993835449e-02,6.184852868318557739e-02,-5.432470515370368958e-02,1.422254890203475952e-01,-8.614898473024368286e-02,4.403983056545257568e-02,6.622806936502456665e-02,-1.221171841025352478e-01,-5.031418800354003906e-02,-1.337152719497680664e-01,-5.283681675791740417e-02,1.014042552560567856e-02,-4.247044771909713745e-02,-1.179794222116470337e-01,1.027510911226272583e-01,-1.215783953666687012e-01,-1.461686845868825912e-02,-5.845541507005691528e-02,-1.633029431104660034e-01,-1.210048701614141464e-02,-2.144625186920166016e-01,-2.024425752460956573e-02,-4.013340547680854797e-02,-6.671757996082305908e-02,-1.559034883975982666e-01,-7.906635105609893799e-02,-1.189359277486801147e-02,4.766535758972167969e-02,-9.763350337743759155e-02,-2.367980778217315674e-01,1.932858116924762726e-02,-5.487960204482078552e-02,-1.428813338279724121e-01,-4.868279211223125458e-03,-2.278528362512588501e-01,-9.703776240348815918e-02,-2.077219635248184204e-02,-9.522166103124618530e-02,-3.108960092067718506e-01,-2.696319818496704102e-01,-8.418998867273330688e-02,-1.004184111952781677e-01,-8.933781087398529053e-02,-3.364510089159011841e-02,1.401344537734985352e-01,-9.114833921194076538e-02,-9.226423501968383789e-02,-1.549166887998580933e-01,-2.118609547615051270e-01,6.487338244915008545e-02,2.643961906433105469e-01,6.215827465057373047e-01,6.399756073951721191e-01,3.143765330314636230e-01,4.164212942123413086e-01,2.377081960439682007e-01,8.213015645742416382e-02,1.222647354006767273e-01,2.804983258247375488e-01,2.173963189125061035e-01,2.051137834787368774e-01,2.484567761421203613e-01,2.256599217653274536e-01,1.995700746774673462e-01,2.179786562919616699e-01,2.974974811077117920e-01,1.634209752082824707e-01,1.921167671680450439e-01,6.509111728519201279e-03,2.383524030447006226e-01,-1.620345935225486755e-02,7.431475818157196045e-02,3.381386101245880127e-01,1.809731870889663696e-01,3.838762044906616211e-01,1.674934029579162598e-01,1.633888632059097290e-01,1.003848388791084290e-01,2.892102003097534180e-01,-5.935266241431236267e-02,9.834429621696472168e-02,1.050246730446815491e-01,-3.475807374343276024e-03,2.613332867622375488e-01,7.636547088623046875e-02,1.651283502578735352e-01,1.644185334444046021e-01,-1.126813143491744995e-01,6.596002727746963501e-02,1.773173063993453979e-01,2.222939394414424896e-02,2.037927741184830666e-03,1.420982554554939270e-02,-4.382236674427986145e-02,4.512985423207283020e-02,1.251508668065071106e-02,1.040792167186737061e-01,-4.256326332688331604e-02,-2.565532922744750977e-02,4.316289722919464111e-02,4.407732561230659485e-02,1.031317841261625290e-02,9.945994615554809570e-02,1.993772089481353760e-01,1.601779013872146606e-01,2.127057760953903198e-01,2.510683843865990639e-03,1.523322910070419312e-01,8.241495490074157715e-02,-6.338730454444885254e-02,1.643147766590118408e-01,-1.762907393276691437e-02,1.528711467981338501e-01,1.561304032802581787e-01,-1.108535155653953552e-01,2.150249183177947998e-01,-7.697150856256484985e-02,7.279675453901290894e-02,1.039690002799034119e-01,7.079348713159561157e-02,1.564089655876159668e-01,2.382238209247589111e-01,8.299785107374191284e-02,2.317212969064712524e-01,1.368844360113143921e-01,-1.385557800531387329e-01,3.985688090324401855e-02,1.340000778436660767e-01,8.452793210744857788e-02,-7.675753533840179443e-02,8.497930318117141724e-02,-3.666892275214195251e-02,-4.780623596161603928e-03,-3.275635838508605957e-02,1.203059125691652298e-02,7.940559089183807373e-02,-6.964845955371856689e-02,5.090309306979179382e-02,-1.151011213660240173e-01,9.458066523075103760e-02,-4.846986755728721619e-02,-1.261261254549026489e-01,1.094628646969795227e-01,-3.831688687205314636e-02,-7.688716053962707520e-02,-1.750922352075576782e-01,-9.431935101747512817e-02,-2.366732209920883179e-01,3.727387636899948120e-02,-3.669641911983489990e-02,5.370745062828063965e-02,-1.288385782390832901e-02,-1.998701691627502441e-01,-4.891591891646385193e-02,-2.025207728147506714e-01,-2.613319158554077148e-01,-1.163401603698730469e-01,-1.751213222742080688e-01,-7.333924621343612671e-02,-2.699155360460281372e-02,-1.318609863519668579e-01,-5.754191428422927856e-02,-3.491295501589775085e-02,-2.950987964868545532e-02,6.099378690123558044e-02,2.918199896812438965e-01,8.796781301498413086e-02,-2.390011996030807495e-01,-5.033238530158996582e-01,-4.919200539588928223e-01,-3.231739401817321777e-01,1.491655111312866211e-01,6.862641125917434692e-02,1.248132437467575073e-01,-2.231268435716629028e-01,-1.145758032798767090e-01,4.386473447084426880e-02,2.326541095972061157e-01,-3.279007375240325928e-01,-2.749249935150146484e-01,3.089301884174346924e-01,1.366103719919919968e-02,-3.694611191749572754e-01,-2.057322859764099121e-01,-1.027268096804618835e-01,-2.733066082000732422e-01,-4.092683494091033936e-01,-8.478837460279464722e-02,1.172428578138351440e-01,-2.041359432041645050e-02,-7.390817254781723022e-02,1.373943388462066650e-01,2.448523975908756256e-02,1.395635008811950684e-01,-1.001633182168006897e-01,-1.451636701822280884e-01,-1.057167798280715942e-01,-1.424976857379078865e-03,-2.064051181077957153e-01,-1.053675189614295959e-01,-1.717352122068405151e-01,-2.174004316329956055e-01,3.369225561618804932e-02,-2.170182317495346069e-01,4.793951660394668579e-02,-3.369450271129608154e-01,-6.725163757801055908e-02,-1.623503863811492920e-01,-6.413686275482177734e-02,9.742951951920986176e-03,-1.126493662595748901e-01,-1.007538735866546631e-01,-2.616596035659313202e-02,2.276150137186050415e-02,7.007834315299987793e-02,-6.056313589215278625e-02,8.480885066092014313e-03,-1.080430392175912857e-02,6.072768568992614746e-02,-1.211681514978408813e-01,1.034156382083892822e-01,-2.338610291481018066e-01,1.993420906364917755e-02,-7.735746353864669800e-02,1.155161764472723007e-02,-3.462893515825271606e-02,-1.114984601736068726e-01,-1.222328245639801025e-01,-9.495595842599868774e-02,5.564168840646743774e-02,-2.651957869529724121e-01,-7.266313582658767700e-02,-1.384885907173156738e-01,-3.047399595379829407e-02,9.057028591632843018e-02,-9.037139825522899628e-04,8.256553113460540771e-02,-4.554127901792526245e-02,-1.821355521678924561e-02,-1.413125246763229370e-01,1.557101160287857056e-01,1.719658672809600830e-01,5.461714416742324829e-02,1.327534168958663940e-01,-5.315019562840461731e-02,2.905311994254589081e-02,-3.992517292499542236e-02,1.028512492775917053e-01,-6.150376796722412109e-02,1.685986667871475220e-02,1.106767822057008743e-02,1.194254904985427856e-01,5.572185292840003967e-02,2.327794134616851807e-01,3.676885738968849182e-02,-1.844939589500427246e-01,-1.656863093376159668e-01,-1.128900125622749329e-01,-4.165847972035408020e-02,-1.366528961807489395e-02,-6.524327397346496582e-02,7.399725168943405151e-02,9.602184407413005829e-03,7.269125431776046753e-02,1.517218351364135742e-01,-1.257084589451551437e-02,-2.656406955793499947e-03,-1.799416914582252502e-02,1.621899195015430450e-02,1.784719824790954590e-01,-1.157835647463798523e-01,1.540376693010330200e-01,3.333831205964088440e-02,1.424541920423507690e-01,1.085433810949325562e-01,1.907856464385986328e-01,1.865630149841308594e-01,7.280972599983215332e-02,7.021906971931457520e-02,2.148720324039459229e-01,2.951851487159729004e-01,3.785882890224456787e-01,1.986788213253021240e-01,2.621392607688903809e-01,5.439701080322265625e-01,3.977599143981933594e-01,5.162532925605773926e-01,4.799177944660186768e-01,3.367777168750762939e-01,3.728343248367309570e-01,3.137216269969940186e-01,1.562846899032592773e-01,2.057798057794570923e-01,3.714082539081573486e-01,6.565507054328918457e-01,5.761814713478088379e-01,-9.873607009649276733e-02,4.750989377498626709e-01,-5.716029554605484009e-02,-1.324961781501770020e+00,-3.232719004154205322e-01,3.943389058113098145e-01,-3.016253113746643066e-01,-2.021190375089645386e-01,-2.445132136344909668e-01,2.899787724018096924e-01,7.567716836929321289e-01,-1.421595066785812378e-01,-4.341058060526847839e-02,2.068498581647872925e-01,-3.034384362399578094e-02,7.949350029230117798e-02,1.963221654295921326e-02,1.181629598140716553e-01,-1.344510167837142944e-01,-2.259130626916885376e-01,-7.829393446445465088e-02,-6.683821231126785278e-02,-3.912568464875221252e-02,-4.519317299127578735e-02,7.262898236513137817e-02,-9.963192790746688843e-02,1.784834414720535278e-01,1.733807325363159180e-01,3.279227763414382935e-02,1.351104676723480225e-01,4.333239421248435974e-02,-2.361797913908958435e-02,7.864221930503845215e-02,-1.598209291696548462e-01,6.322818994522094727e-02,5.527330189943313599e-02,8.973073214292526245e-02,3.807881474494934082e-02,-2.778536267578601837e-02,9.374192357063293457e-02,-1.130902543663978577e-01,7.794330269098281860e-02,4.873298853635787964e-02,-1.054357215762138367e-01,1.241650283336639404e-01,4.706806316971778870e-02,-1.559850871562957764e-01,1.895551234483718872e-01,-7.730390876531600952e-02,-1.281512975692749023e-01,2.681962847709655762e-01,-8.717199414968490601e-02,1.465956121683120728e-01,8.051525801420211792e-02,-2.519519068300724030e-02,4.720663279294967651e-02,-1.661563217639923096e-01,2.141500636935234070e-02,-4.436309263110160828e-02,-9.721634536981582642e-02,-1.132574751973152161e-01,-1.189127340912818909e-01,-1.335970163345336914e-01,-4.149326086044311523e-01,-1.308044642210006714e-01,-1.393318325281143188e-01,-7.949762046337127686e-02,-1.870472729206085205e-01,-2.751109302043914795e-01,-1.913474798202514648e-01,-2.367502450942993164e-02,-2.905613481998443604e-01,-2.999010086059570312e-01,-1.394283473491668701e-01,-3.017150461673736572e-01,-1.837500333786010742e-01,-3.857355415821075439e-01,-8.543282747268676758e-03,-1.113669723272323608e-01,-2.230680584907531738e-01,-1.310048401355743408e-01,-1.293243616819381714e-01,-2.796311974525451660e-01,-1.433596163988113403e-01,-1.923223435878753662e-01,5.097499117255210876e-02,-1.039137691259384155e-01,-3.450733423233032227e-02,-7.820244133472442627e-02,-7.302809506654739380e-02,-6.939633190631866455e-02,-1.519110351800918579e-01,-8.101376146078109741e-02,-1.106369588524103165e-02,-1.370148062705993652e-01,-7.281760685145854950e-03,-5.285819992423057556e-02,-2.810817025601863861e-02,-2.418276481330394745e-02,1.316251307725906372e-01,-1.217778101563453674e-01,4.095399752259254456e-02,1.922611147165298462e-02,-1.540388911962509155e-01,7.509943097829818726e-02,-1.470750719308853149e-01,-1.276028621941804886e-02,3.201047331094741821e-02,1.543685495853424072e-01,4.292997717857360840e-02,-2.595552615821361542e-02,-1.249454319477081299e-01,-9.459148347377777100e-02,-2.775944210588932037e-02,1.185682490468025208e-01,-1.177064925432205200e-01,2.207444757223129272e-01,-2.150310948491096497e-02,9.972140938043594360e-02,8.501321077346801758e-02,1.751957684755325317e-01,-4.738926887512207031e-02,2.715506255626678467e-01,2.375122904777526855e-01,-5.852769687771797180e-02,-2.927552163600921631e-01,-8.644236624240875244e-02,7.693083882331848145e-01,4.287559092044830322e-01,-2.944954037666320801e-01,1.130137085914611816e+00,2.978672087192535400e-01,-1.705660969018936157e-01,-2.100523710250854492e-01,-9.543598443269729614e-02,1.305758953094482422e-02,8.295392990112304688e-02,-1.991208344697952271e-01,-6.107866168022155762e-01,-2.074654214084148407e-02,2.071680128574371338e-01,3.289719810709357262e-03,3.329261839389801025e-01,5.657117962837219238e-01,5.243347585201263428e-02,3.481168746948242188e-01,1.933393031358718872e-01,4.697160422801971436e-02,2.522302567958831787e-01,1.897401362657546997e-01,1.189482137560844421e-01,9.340366721153259277e-02,2.499155998229980469e-01,-6.045519560575485229e-02,1.537105888128280640e-01,-4.582935944199562073e-02,1.075170338153839111e-01,-4.750042036175727844e-02,4.930346831679344177e-02,3.181190043687820435e-02,3.020426444709300995e-02,1.031763404607772827e-01,1.476588994264602661e-01,-9.302918799221515656e-03,6.839767843484878540e-02,4.068456962704658508e-02,1.967410743236541748e-01,3.217852860689163208e-02,2.270155400037765503e-01,-1.177097335457801819e-01,1.573188900947570801e-01,1.866806484758853912e-02,1.436254084110260010e-01,1.299211233854293823e-01,-1.886908523738384247e-02,-6.985755753703415394e-04,-1.026300992816686630e-02,-3.901360183954238892e-02,1.090263277292251587e-01,-9.776608645915985107e-02,6.617069989442825317e-02,1.155706793069839478e-01,-1.056804582476615906e-01,5.129933729767799377e-02,-6.990908086299896240e-02,1.018217504024505615e-01,-2.594713680446147919e-02,5.635633319616317749e-02,1.765165291726589203e-02,4.345358535647392273e-02,1.662197709083557129e-01,-1.878147125244140625e-01,-5.851297639310359955e-03,-1.769210956990718842e-02,7.566330581903457642e-02,-1.042902469635009766e-01,3.777465224266052246e-02,2.169946581125259399e-01,3.321965038776397705e-02,2.946189977228641510e-02,8.590786159038543701e-02,1.596526950597763062e-01,-1.254090666770935059e-01,2.010323107242584229e-01,1.160910278558731079e-01,-8.816791325807571411e-02,1.063694432377815247e-01,4.757880792021751404e-02,1.387803554534912109e-01,6.460767239332199097e-02,-5.613670498132705688e-02,-6.785187125205993652e-02,-6.811542063951492310e-02,-3.725249320268630981e-02,-6.616544723510742188e-02,-1.358836591243743896e-01,-6.954995542764663696e-02,1.382232904434204102e-01,-1.302233040332794189e-01,7.502204179763793945e-02,6.934107095003128052e-02,-7.147783041000366211e-02,4.510071873664855957e-02,-8.409890532493591309e-02,-1.635711640119552612e-02,8.135186135768890381e-02,-1.357439812272787094e-02,3.394439071416854858e-02,-1.911470592021942139e-01,-5.113291740417480469e-02,3.738132864236831665e-02,-2.533990517258644104e-02,-3.760183975100517273e-02,4.105876013636589050e-02,-3.097901344299316406e-01,3.476726263761520386e-02,-7.619373500347137451e-02,1.037666946649551392e-01,-7.317301630973815918e-02,-6.645617075264453888e-03,-1.902619004249572754e-02,3.448279201984405518e-02,5.235659331083297729e-02,-4.670671373605728149e-02,2.856504544615745544e-02,-7.383202761411666870e-02,1.066217124462127686e-01,2.847739681601524353e-02,-1.597192436456680298e-01,5.117827281355857849e-02,1.144251674413681030e-01,-1.475000679492950439e-01,1.716883182525634766e-01,-3.805133402347564697e-01,-2.525568604469299316e-01,-1.326882392168045044e-01,-5.497480034828186035e-01,3.511036038398742676e-01,7.822641730308532715e-01,-2.583495378494262695e-01,-7.119104266166687012e-01,2.556430697441101074e-01,1.605216264724731445e-01,1.087543815374374390e-01,2.887233793735504150e-01,2.251397371292114258e-01,2.464491873979568481e-01,-6.461647748947143555e-01,-2.628679573535919189e-01,-9.669485688209533691e-02,-3.828250467777252197e-01,2.513401508331298828e-01,1.724816299974918365e-02,-8.466252684593200684e-02,1.472380906343460083e-01,-6.828577816486358643e-02,-1.041266173124313354e-01,4.432032406330108643e-01,-1.560364291071891785e-02,1.692488044500350952e-01,1.645092070102691650e-01,2.215936966240406036e-02,2.387328594923019409e-01,-1.618423014879226685e-01,-9.594088792800903320e-02,1.943750977516174316e-01,2.832044288516044617e-02,-4.676376655697822571e-02,1.464426815509796143e-01,-2.392959967255592346e-02,1.041121929883956909e-01,8.050283789634704590e-02,6.220784038305282593e-02,-1.799535155296325684e-01,1.556871272623538971e-02,5.477047339081764221e-02,1.028232946991920471e-01,-7.913669943809509277e-02,1.139018125832080841e-02,-1.203209683299064636e-01,2.245434373617172241e-01,9.892998635768890381e-02,1.667990908026695251e-02,-1.236392334103584290e-01,2.221439182758331299e-01,4.669002443552017212e-02,-1.212472617626190186e-01,1.318462342023849487e-01,-5.865708459168672562e-03,8.622922748327255249e-02,1.234984770417213440e-01,3.343979595229029655e-03,-2.372527420520782471e-01,6.634953897446393967e-04,1.134661510586738586e-01,-9.176462888717651367e-03,-7.981916517019271851e-02,-3.220290541648864746e-01,-7.956072688102722168e-02,7.509946823120117188e-02,5.692715942859649658e-02,-1.235288083553314209e-01,1.645106226205825806e-01,-1.509327888488769531e-01,-8.028471469879150391e-02,4.323314502835273743e-02,8.851473778486251831e-02,-8.039427548646926880e-02,-1.169214844703674316e-01,1.238442435860633850e-01,1.440758816897869110e-02,-1.462216228246688843e-01,6.830963492393493652e-02,1.467229872941970825e-01,4.150596633553504944e-02,4.817392677068710327e-02,2.177472561597824097e-01,-1.572004556655883789e-01,5.794649943709373474e-02,-1.452541500329971313e-01,-5.215635523200035095e-02,8.818130195140838623e-02,-1.351149082183837891e-01,7.792810350656509399e-02,-2.432794868946075439e-01,-6.381920725107192993e-02,-6.343114376068115234e-02,-1.574808806180953979e-01,1.289807558059692383e-01,-1.200581863522529602e-01,3.441217914223670959e-02,9.787305444478988647e-02,-6.280138343572616577e-02,-4.241757839918136597e-02,1.152031794190406799e-01,6.686449516564607620e-03,-2.693508751690387726e-02,8.843037486076354980e-02,-1.139896884560585022e-01,-8.260539919137954712e-02,2.418628782033920288e-01,-1.664406955242156982e-01,2.531082555651664734e-02,-2.452340126037597656e-01,4.128218814730644226e-02,1.142540797591209412e-01,-1.536413729190826416e-01,-1.570852659642696381e-02,-5.795096978545188904e-02,-3.931334242224693298e-02,5.751891806721687317e-02,-1.886114329099655151e-01,-3.496699267998337746e-03,1.084977462887763977e-01,-2.855378985404968262e-01,3.139171302318572998e-01,-3.136547803878784180e-01,1.303032040596008301e-01,3.328669667243957520e-01,3.045277670025825500e-02,8.083326369524002075e-02,3.407654762268066406e-01,-2.517925202846527100e-01,3.848792016506195068e-01,-2.599007785320281982e-01,-8.498311042785644531e-01,1.007958687841892242e-02,-4.041816294193267822e-01,3.421611189842224121e-01,3.365424573421478271e-01,2.054183781147003174e-01,-5.864809826016426086e-02,2.047743350267410278e-01,9.330804944038391113e-01,6.006992459297180176e-01,-7.478725910186767578e-01,-5.954499244689941406e-01,3.588730990886688232e-01,3.485319614410400391e-01,-1.717552989721298218e-01,-4.080011248588562012e-01,-6.505210697650909424e-02,1.128739677369594574e-02,-2.602981328964233398e-01,-1.441824883222579956e-01,-7.075507193803787231e-02,3.291478455066680908e-01,-2.503756992518901825e-02,1.204296126961708069e-01,-1.139694154262542725e-01,4.001175239682197571e-02,6.570301204919815063e-02,-2.143539488315582275e-02,-5.195536091923713684e-02,-8.183917962014675140e-03,-2.988113649189472198e-02,1.602841317653656006e-01,-2.518717944622039795e-01,-1.301759779453277588e-01,-1.050243377685546875e-01,-7.000820338726043701e-02,-3.196454346179962158e-01,-2.915674746036529541e-01,1.874773390591144562e-02,-1.954255849123001099e-01,-2.040266841650009155e-01,8.157121390104293823e-02,-2.115620672702789307e-01,-2.347649447619915009e-02,6.498217582702636719e-02,-1.081672236323356628e-01,-6.523864716291427612e-02,-2.241398990154266357e-01,7.612209022045135498e-02,7.672174274921417236e-02,-1.004600599408149719e-01,-7.199964672327041626e-02,1.111657023429870605e-01,-1.978456974029541016e-01,-8.042364567518234253e-02,-9.480357915163040161e-02,-5.466536805033683777e-02,-1.348409652709960938e-01,-4.439107775688171387e-01,6.128526851534843445e-02,-5.749433115124702454e-02,3.512288630008697510e-02,-1.697943359613418579e-01,-1.331247985363006592e-01,-1.560744941234588623e-01,1.686511486768722534e-01,1.033510267734527588e-01,2.779902517795562744e-02,-1.120456010103225708e-01,1.482732710428535938e-03,-1.699456721544265747e-01,1.695108227431774139e-02,-2.421449497342109680e-02,-6.941675394773483276e-02,-2.674195915460586548e-02,-1.089568659663200378e-01,-4.799127206206321716e-02,-1.425009369850158691e-01,5.386357381939888000e-02,-5.526561290025711060e-02,-8.849499374628067017e-02,-1.945536434650421143e-01,1.809058338403701782e-02,1.385336965322494507e-01,6.781165301799774170e-02,1.020159944891929626e-01,-1.695894151926040649e-01,3.233265578746795654e-01,-7.397180795669555664e-02,-1.996329128742218018e-01,7.189774513244628906e-02,2.019194811582565308e-01,-3.382656872272491455e-01,9.815303236246109009e-02,-1.335711218416690826e-02,4.862849414348602295e-02,-2.009139657020568848e-01,1.795755140483379364e-02,1.335863023996353149e-01,-1.002533584833145142e-01,1.389146745204925537e-01,1.140636503696441650e-01,-1.577069014310836792e-01,9.492950886487960815e-02,3.132029250264167786e-02,1.221906691789627075e-01,9.586593508720397949e-02,-5.164431035518646240e-02,2.678658962249755859e-01,-3.868783637881278992e-02,3.288907408714294434e-01,1.165135875344276428e-01,2.715630531311035156e-01,1.783951669931411743e-01,2.318298667669296265e-01,5.823847278952598572e-02,9.301798790693283081e-02,-1.698708981275558472e-01,3.771919906139373779e-01,-5.810521543025970459e-02,-4.010187685489654541e-01,-2.234454900026321411e-01,4.273996129631996155e-02,-4.720069840550422668e-02,-2.726745605468750000e-01,3.314206898212432861e-01,9.588530659675598145e-01,1.618460565805435181e-02,-6.188524365425109863e-01,-6.335107088088989258e-01,5.556096509099006653e-02,-4.086260497570037842e-01,4.690767526626586914e-01,-4.931476712226867676e-02,1.201948374509811401e-01,-5.536284446716308594e-01,-2.728088796138763428e-01,2.947900630533695221e-02,5.244832634925842285e-01,2.814757525920867920e-01,-2.050781548023223877e-01,6.192939355969429016e-02,6.511684656143188477e-01,4.099017754197120667e-02,3.091366291046142578e-01,4.671809971332550049e-01,4.104954898357391357e-01,-7.608209550380706787e-02,-5.852481722831726074e-02,2.260620296001434326e-01,2.739198803901672363e-01,1.972682960331439972e-02,1.163115575909614563e-01,3.853730559349060059e-01,9.878188371658325195e-02,1.935890018939971924e-01,7.347996532917022705e-02,1.233923286199569702e-01,1.232822239398956299e-01,9.447412192821502686e-02,3.469842299818992615e-02,-1.452955603599548340e-01,-1.796606481075286865e-01,1.430771965533494949e-02,-9.563541412353515625e-02,-1.429572850465774536e-01,4.788008704781532288e-02,-1.061628609895706177e-01,-1.673998236656188965e-01,-1.926572620868682861e-02,-2.861207127571105957e-01,8.664035797119140625e-02,4.231375828385353088e-02,-8.688464760780334473e-02,8.591873943805694580e-02,9.954261593520641327e-03,4.167370498180389404e-02,1.281734853982925415e-01,1.743825674057006836e-01,-1.818805746734142303e-02,-2.760069668292999268e-01,-3.102073073387145996e-02,-4.509215708822011948e-03,-1.737863570451736450e-01,6.369937956333160400e-02,3.354133665561676025e-02,-3.354138508439064026e-02,-7.199870795011520386e-02,-1.109455227851867676e-01,-1.617317944765090942e-01,-1.649369895458221436e-01,4.049367457628250122e-02,-1.533036082983016968e-01,-1.158189550042152405e-01,4.946178942918777466e-02,-6.623203307390213013e-02,-8.157470822334289551e-02,-1.146403104066848755e-01,1.304969787597656250e-01,-2.316205799579620361e-01,-9.508826769888401031e-03,-1.655243039131164551e-01,-9.930837154388427734e-02,8.229311555624008179e-03,1.775680780410766602e-01,-6.473992764949798584e-02,-1.925640553236007690e-01,1.406530011445283890e-02,-1.159217432141304016e-01,2.033516764640808105e-02,-2.049998044967651367e-01,-2.012974768877029419e-01,5.432193353772163391e-02,1.326342578977346420e-02,-3.836951404809951782e-02,1.087021306157112122e-01,-1.728974133729934692e-01,-1.989164799451828003e-01,-1.382291764020919800e-01,6.290010362863540649e-02,2.596347928047180176e-01,-1.676303520798683167e-02,2.670351229608058929e-02,-6.145177781581878662e-02,7.500644773244857788e-02,1.144379079341888428e-01,-2.014936320483684540e-02,5.068827793002128601e-02,-1.927538076415657997e-03,-1.553834825754165649e-01,-1.469334866851568222e-02,5.495978891849517822e-02,-2.207184582948684692e-01,1.339119300246238708e-02,1.073249131441116333e-01,-2.753928303718566895e-01,-2.180380523204803467e-01,-1.615990549325942993e-01,-2.400170266628265381e-01,1.028815843164920807e-02,-1.331166625022888184e-01,-5.171053111553192139e-02,-2.585903927683830261e-02,9.110998362302780151e-02,2.126796403899788857e-03,-1.455533653497695923e-01,-2.072190791368484497e-01,3.817912638187408447e-01,-2.241330966353416443e-02,-2.210646867752075195e-01,-1.678320765495300293e-01,3.572014570236206055e-01,2.527182996273040771e-01,-3.259497880935668945e-01,7.494026422500610352e-01,6.705170273780822754e-01,-4.576727002859115601e-02,5.467698574066162109e-01,-1.696565747261047363e-01,-5.612604022026062012e-01,-3.840586915612220764e-02,1.377794519066810608e-02,-3.309296369552612305e-01,-7.958357222378253937e-03,2.024191468954086304e-01,4.220052659511566162e-01,7.169456481933593750e-01,2.696489691734313965e-01,2.740114331245422363e-01,4.161550402641296387e-01,1.971515715122222900e-01,1.533564925193786621e-01,1.223507970571517944e-01,2.416570633649826050e-01,2.581280767917633057e-01,-5.560115352272987366e-02,9.196544438600540161e-02,1.656879931688308716e-01,-7.767325639724731445e-02,1.103449985384941101e-01,-4.385568574070930481e-02,-1.076891124248504639e-01,-2.047066241502761841e-01,1.982407271862030029e-02,-1.204614341259002686e-01,-1.114261224865913391e-01,-1.154189035296440125e-01,-1.965519413352012634e-02,-5.263096466660499573e-02,-3.575991094112396240e-02,1.463382989168167114e-01,-6.845773011445999146e-02,-9.057035297155380249e-02,-2.117048949003219604e-02,-1.290397047996520996e-01,5.067269876599311829e-02,3.504842519760131836e-02,-1.287135761231184006e-02,3.677070140838623047e-02,1.515803635120391846e-01,-6.966692209243774414e-02,1.143803671002388000e-01,1.825384981930255890e-02,4.744617640972137451e-02,8.573863655328750610e-02,1.539970189332962036e-01,-7.165508717298507690e-02,-1.308018714189529419e-01,2.961361706256866455e-01,-5.760346725583076477e-02,4.745328053832054138e-02,-8.028799667954444885e-03,6.263487786054611206e-02,-1.586343497037887573e-01,1.248408332467079163e-01,-5.496990308165550232e-02,-1.494403630495071411e-01,1.453201025724411011e-01,-6.136240065097808838e-02,2.324297279119491577e-02,6.019835546612739563e-02,-9.711147844791412354e-02,-1.458187252283096313e-01,7.679907232522964478e-02,1.737857237458229065e-02,4.540424048900604248e-02,-2.021527290344238281e-01,1.044109985232353210e-01,-5.996994674205780029e-02,-3.973674774169921875e-02,8.489577472209930420e-02,2.069085836410522461e-02,1.105256304144859314e-01,5.448180437088012695e-02,9.320698678493499756e-02,-1.013680696487426758e-01,6.474284827709197998e-02,5.873477086424827576e-02,1.728405952453613281e-01,-1.192770302295684814e-01,2.661616355180740356e-02,-2.134415656328201294e-01,-2.452735155820846558e-01,8.887191861867904663e-02,-5.470870435237884521e-02,-1.952168345451354980e-02,-8.131298422813415527e-02,-1.153972893953323364e-01,-8.804646134376525879e-02,-4.951152577996253967e-02,-1.304275244474411011e-01,-4.355573654174804688e-02,2.974963560700416565e-02,-7.636035233736038208e-02,-1.015785112977027893e-01,-2.043856531381607056e-01,-9.374162554740905762e-02,-1.619525253772735596e-01,-5.649496987462043762e-02,1.284079402685165405e-01,-1.025257557630538940e-01,-1.581436693668365479e-01,-4.444536566734313965e-02,2.241740375757217407e-02,-7.145998626947402954e-02,4.652080126106739044e-03,1.679860055446624756e-01,1.081346720457077026e-01,5.068214610219001770e-02,1.176296547055244446e-01,1.356079876422882080e-01,3.554459661245346069e-02,1.405902653932571411e-01,4.340083524584770203e-02,-7.407212257385253906e-02,-6.280140578746795654e-02,-1.439256221055984497e-01,9.184999763965606689e-02,-6.040201708674430847e-02,-2.045831382274627686e-01,-1.713179945945739746e-01,-1.771484017372131348e-01,2.891438081860542297e-02,-9.572289139032363892e-02,2.373144589364528656e-02,-3.588879108428955078e-02,-4.100435972213745117e-01,-8.771012425422668457e-01,2.415838837623596191e-01,7.046926021575927734e-02,2.701687812805175781e-01,6.088039875030517578e-01,6.803403496742248535e-01,4.377528429031372070e-01,-2.590843439102172852e-01,-1.857189238071441650e-01,6.764009594917297363e-02,6.135721877217292786e-02,-3.972133994102478027e-02,7.207227498292922974e-02,1.150054633617401123e-01,1.659111529588699341e-01,1.177788153290748596e-01,-6.984437257051467896e-02,1.557286828756332397e-01,1.016354411840438843e-01,-2.338446676731109619e-02,-1.406659334897994995e-01,8.572272956371307373e-02,6.374712288379669189e-02,-2.160892635583877563e-01,1.640682853758335114e-02,3.578890487551689148e-02,8.191770757548511028e-04,5.848889425396919250e-02,1.444685012102127075e-01,-2.344818226993083954e-02,1.403745561838150024e-01,-4.617817699909210205e-02,1.241960525512695312e-01,-1.418373286724090576e-01,-5.317122489213943481e-02,2.672054767608642578e-01,7.497020065784454346e-02,1.417121291160583496e-01,1.959592103958129883e-02,4.094805568456649780e-02,1.493029147386550903e-01,1.370963901281356812e-01,4.849540442228317261e-02,9.824235737323760986e-02,2.365027666091918945e-01,2.339355349540710449e-01,1.711707264184951782e-01,1.440735310316085815e-01,1.269011348485946655e-01,1.302041709423065186e-01,3.105602860450744629e-01,3.548663482069969177e-02,-3.674276545643806458e-02,6.429879367351531982e-02,6.139373406767845154e-02,1.906380057334899902e-01,-2.083880007266998291e-01,-2.049467340111732483e-02,-2.697250060737133026e-02,1.688102781772613525e-01,5.243077874183654785e-02,-5.393994227051734924e-02,1.858000010251998901e-01,-5.033499747514724731e-02,2.183607667684555054e-01,4.061117023229598999e-02,2.516134381294250488e-01,-1.039799600839614868e-01,6.444618105888366699e-02,9.461667388677597046e-02,1.394010633230209351e-01,4.235254973173141479e-02,-9.591377526521682739e-02,1.476535201072692871e-01,5.832392349839210510e-02,3.831235691905021667e-02,1.724474281072616577e-01,2.226121276617050171e-01,-2.370108850300312042e-02,8.614783734083175659e-02,8.253418840467929840e-03,-4.245356470346450806e-02,-7.295981980860233307e-03,-1.302068233489990234e-01,-1.585955917835235596e-01,1.640947908163070679e-02,-3.367996588349342346e-02,-7.871966809034347534e-02,1.704738885164260864e-01,-1.843298599123954773e-02,1.461375504732131958e-01,3.857397288084030151e-02,1.875351667404174805e-01,1.091369241476058960e-01,8.770497888326644897e-02,1.384396255016326904e-01,4.248823679517954588e-04,2.729608714580535889e-01,3.666314110159873962e-02,4.380255565047264099e-02,3.345026671886444092e-01,9.295833855867385864e-02,1.002426445484161377e-01,-2.949369885027408600e-02,-1.177095808088779449e-02,2.760888934135437012e-01,-2.984567731618881226e-02,1.822570860385894775e-01,1.666364073753356934e-01,-2.641932480037212372e-02,3.479639589786529541e-01,2.161609083414077759e-01,-2.870705164968967438e-02,2.089446187019348145e-01,-9.717076271772384644e-02,-7.305515930056571960e-03,-2.083736956119537354e-01,1.332093030214309692e-01,-7.019368559122085571e-02,-9.609553217887878418e-02,-2.441290579736232758e-02,5.267342552542686462e-02,1.143819540739059448e-01,2.293369919061660767e-02,8.048625290393829346e-02,8.609663695096969604e-03,6.611653417348861694e-02,-1.446582376956939697e-01,5.213922858238220215e-01,-6.620708736591041088e-04,1.800395995378494263e-01,3.018731065094470978e-02,1.436115354299545288e-01,-3.398394286632537842e-01,-1.800572965294122696e-03,1.035499930381774902e+00,-1.805985271930694580e-01,-3.599919676780700684e-01,2.343638092279434204e-01,-2.261057794094085693e-01,-2.708084695041179657e-02,1.159916371107101440e-01,6.252430379390716553e-02,1.989243179559707642e-01,-2.688570022583007812e-01,9.993453323841094971e-02,-9.947781264781951904e-02,-1.681816391646862030e-02,-7.353742420673370361e-02,1.409665644168853760e-01,-1.178081706166267395e-01,-4.957437980920076370e-03,-3.241719678044319153e-02,1.124496608972549438e-01,-1.093109548091888428e-01,-1.495517324656248093e-02,-9.959631413221359253e-02,-5.487842857837677002e-02,-7.273174077272415161e-02,-4.995187371969223022e-02,-7.062125951051712036e-02,4.150043055415153503e-02,1.436133868992328644e-03,-1.078442111611366272e-01,-5.042257159948348999e-02,-9.293368784710764885e-04,3.563376143574714661e-02,-8.330286294221878052e-02,1.173332855105400085e-01,-1.212836727499961853e-01,-3.723374754190444946e-02,-1.127410307526588440e-01,-4.304615780711174011e-03,5.353356525301933289e-02,9.181359410285949707e-02,-8.201089804060757160e-04,5.762597545981407166e-02,1.701775491237640381e-01,2.141327783465385437e-02,6.223326921463012695e-02,-1.218389794230461121e-01,1.278526335954666138e-01,-8.015971630811691284e-02,4.548187255859375000e-01,-3.905683383345603943e-02,8.698590099811553955e-02,1.251812875270843506e-01,-1.709422916173934937e-01,1.031820252537727356e-01,-2.486741729080677032e-02,3.145294189453125000e-01,-1.207392439246177673e-01,1.325816214084625244e-01,-1.329775452613830566e-01,1.403758674860000610e-01,1.371034979820251465e-01,-6.498698890209197998e-02,-8.339197933673858643e-02,-6.234101578593254089e-02,1.217036843299865723e-01,-1.609452962875366211e-01,5.604816973209381104e-02,-1.325096935033798218e-01,-1.707262732088565826e-02,-5.783225875347852707e-03,-5.919904634356498718e-02,3.355247527360916138e-02,1.337966322898864746e-02,-1.597679406404495239e-01,-7.381901890039443970e-02,-9.305029362440109253e-02,-1.105924472212791443e-01,7.239705324172973633e-02,-5.931375920772552490e-02,-3.168712556362152100e-01,-8.385043591260910034e-03,-7.382501661777496338e-02,1.044655777513980865e-02,-3.159778118133544922e-01,-2.545755170285701752e-02,-1.402271986007690430e-01,3.695337101817131042e-02,-1.126866713166236877e-01,-5.726735293865203857e-02,-1.167274862527847290e-01,-3.534776717424392700e-02,-1.436932533979415894e-01,-1.388605833053588867e-01,1.868823310360312462e-03,-1.016747504472732544e-01,-7.936863601207733154e-02,-1.118880286812782288e-01,-1.254518777132034302e-01,-2.352509461343288422e-02,8.160020411014556885e-02,-1.925521492958068848e-01,1.497651487588882446e-01,-2.306710742413997650e-02,-1.054888516664505005e-01,-4.290385171771049500e-02,-7.666964083909988403e-04,-7.459880411624908447e-02,-8.426368981599807739e-02,-1.418426781892776489e-01,1.245565339922904968e-02,-1.654665023088455200e-01,1.071674674749374390e-01,8.961436152458190918e-02,4.425538331270217896e-02,2.249116748571395874e-01,-4.269591271877288818e-01,5.009525418281555176e-01,2.017883062362670898e-01,-1.917497873306274414e+00,-9.412417560815811157e-02,8.195101022720336914e-01,-1.976022869348526001e-01,-1.826064102351665497e-02,-7.546149194240570068e-02,-1.800399124622344971e-01,7.197041809558868408e-02,1.100677251815795898e-01,-7.303124070167541504e-01,4.601480364799499512e-01,9.767744541168212891e-01,-2.639065384864807129e-01,-5.057337693870067596e-03,2.798177301883697510e-01,6.415607780218124390e-02,1.897750496864318848e-01,5.108467303216457367e-03,3.263395130634307861e-01,1.272160559892654419e-01,-3.550910949707031250e-02,4.153528809547424316e-02,1.116232275962829590e-01,-2.293422967195510864e-01,5.571401119232177734e-02,1.736668311059474945e-02,4.507518187165260315e-02,-4.145346954464912415e-02,3.481851145625114441e-02,-1.272694617509841919e-01,5.873209238052368164e-02,-8.270175755023956299e-02,5.403075739741325378e-02,1.816162280738353729e-02,4.506266862154006958e-02,-2.664572931826114655e-02,1.463985294103622437e-01,1.049106344580650330e-01,1.152766123414039612e-01,3.859503939747810364e-02,2.459944598376750946e-02,-1.170389801263809204e-01,2.845297455787658691e-01,-1.601915359497070312e-01,1.307459175586700439e-02,-1.497855335474014282e-01,2.452720887959003448e-02,-8.689635992050170898e-02,-1.165514662861824036e-01,-1.602532863616943359e-01,1.342436373233795166e-01,-1.197508424520492554e-01,-1.270863134413957596e-02,-1.902053318917751312e-02,1.328279264271259308e-03,-1.246203184127807617e-01,5.657357722520828247e-02,-1.014094129204750061e-01,7.695095241069793701e-02,3.739107027649879456e-02,-1.843545958399772644e-02,4.061971232295036316e-02,-1.429351866245269775e-01,1.142132729291915894e-01,1.016905978322029114e-01,3.683360666036605835e-02,1.507855653762817383e-01,-5.025326739996671677e-03,1.967005431652069092e-01,-6.207558885216712952e-02,-1.634962391108274460e-03,1.772113842889666557e-03,8.052467554807662964e-02,-6.747135519981384277e-02,4.139479994773864746e-02,-1.263244450092315674e-01,3.050129860639572144e-02,2.676460146903991699e-01,-4.796072468161582947e-02,-3.224037215113639832e-02,2.714688181877136230e-01,-2.560865879058837891e-01,1.996047794818878174e-01,-7.314123213291168213e-02,1.807278990745544434e-01,-1.409617662429809570e-01,8.434972912073135376e-02,-2.033330798149108887e-01,1.591808348894119263e-01,-1.584329307079315186e-01,5.105694383382797241e-02,1.004176884889602661e-01,1.952410675585269928e-02,-6.265384145081043243e-03,-8.008999377489089966e-02,-1.049387753009796143e-01,-1.014458611607551575e-01,-1.332197487354278564e-01,-2.748330868780612946e-02,7.638553529977798462e-02,-6.768265366554260254e-02,3.073792345821857452e-02,-1.169418077915906906e-02,-1.353798955678939819e-01,1.728039383888244629e-01,3.389955312013626099e-02,7.521241903305053711e-02,-4.668513685464859009e-02,1.126599758863449097e-01,1.465888228267431259e-02,1.421858221292495728e-01,-1.214670240879058838e-01,9.273831546306610107e-02,1.568536460399627686e-02,1.200987696647644043e-01,-1.372232437133789062e-01,1.738950163125991821e-01,-2.512902319431304932e-01,-6.053910404443740845e-02,-1.429756730794906616e-01,-8.872192353010177612e-02,-4.121998250484466553e-01,1.543567180633544922e-01,-2.094841152429580688e-01,2.507936358451843262e-01,1.368656754493713379e-01,-2.200808674097061157e-01,1.422154426574707031e+00,-1.629440635442733765e-01,-1.804233908653259277e+00,3.426533341407775879e-01,2.741448581218719482e-01,-2.378888875246047974e-01,-2.844969630241394043e-01,-8.836466819047927856e-03,8.009722828865051270e-02,6.751837581396102905e-02,2.364524900913238525e-01,1.333959400653839111e-01,-1.064789667725563049e-01,1.138653978705406189e-01,1.012406200170516968e-01,-4.162111133337020874e-02,-7.038695365190505981e-02,-2.350183948874473572e-02,-7.626532018184661865e-02,-3.799225017428398132e-02,-1.304126828908920288e-01,-4.495429992675781250e-02,1.087769493460655212e-02,-2.888440154492855072e-02,1.820698752999305725e-02,-6.202899664640426636e-02,-3.387376666069030762e-02,1.457287520170211792e-01,1.332824230194091797e-01,1.012476384639739990e-01,1.740360558032989502e-01,1.810233592987060547e-01,3.506260812282562256e-01,1.004907265305519104e-01,2.550356984138488770e-01,7.145281881093978882e-02,2.900579385459423065e-02,1.243647038936614990e-01,1.288464963436126709e-01,1.614599227905273438e-01,-6.949012726545333862e-02,1.791675947606563568e-02,5.319078266620635986e-02,8.313844352960586548e-02,2.034685574471950531e-02,-2.726331725716590881e-02,-1.399626582860946655e-01,2.116312682628631592e-01,-6.460919231176376343e-02,1.491021662950515747e-01,3.246577456593513489e-02,-4.473043978214263916e-02,1.416921466588973999e-01,-8.678770391270518303e-04,1.586692333221435547e-01,-6.731495726853609085e-03,8.306443691253662109e-03,-3.814816847443580627e-02,-1.061644777655601501e-02,-1.100424453616142273e-01,-3.556861728429794312e-02,-1.732118427753448486e-02,-4.098577424883842468e-02,-1.090276166796684265e-01,1.009030267596244812e-01,-1.516826897859573364e-01,4.240620508790016174e-02,5.401186645030975342e-02,-1.398035138845443726e-01,2.092819213867187500e-01,5.127625912427902222e-02,6.197978276759386063e-03,2.069266736507415771e-01,-1.649554818868637085e-01,1.856126189231872559e-01,1.963829994201660156e-01,-7.435638457536697388e-02,2.840499281883239746e-01,-1.213129609823226929e-02,8.877278864383697510e-02,1.391649544239044189e-01,1.306838691234588623e-01,2.263102084398269653e-01,1.224714517593383789e-01,2.420874834060668945e-01,1.925048083066940308e-01,1.698760390281677246e-01,3.190972208976745605e-01,1.583044677972793579e-01,2.500286996364593506e-01,1.284101903438568115e-01,1.857103407382965088e-01,2.291231006383895874e-01,-6.163361016660928726e-03,1.310683190822601318e-01,-1.042766645550727844e-01,4.445615783333778381e-02,2.195434272289276123e-01,8.686448633670806885e-02,1.320535391569137573e-01,7.112656533718109131e-02,-8.319102972745895386e-02,2.492559105157852173e-01,7.153826951980590820e-02,1.918736696243286133e-01,6.091819331049919128e-02,5.861535668373107910e-02,8.037570863962173462e-02,-3.067935071885585785e-02,1.336873620748519897e-01,-4.892622679471969604e-02,-6.567612290382385254e-02,2.850843034684658051e-02,-5.180849507451057434e-02,1.052888557314872742e-01,4.116444662213325500e-02,-5.657648295164108276e-02,-4.305686801671981812e-02,-8.849982917308807373e-02,3.854103386402130127e-02,5.615035071969032288e-02,2.708429470658302307e-02,1.157395355403423309e-02,-9.935869276523590088e-02,7.132887840270996094e-02,2.710591852664947510e-01,3.821123838424682617e-01,4.637558460235595703e-01,9.829772710800170898e-01,8.450321555137634277e-01,1.123311758041381836e+00,9.053189754486083984e-01,-9.549049288034439087e-02,1.414468884468078613e-01,-1.619601398706436157e-01,-1.533793061971664429e-01,-2.779194116592407227e-01,-1.265412867069244385e-01,-4.468252658843994141e-01,5.345401912927627563e-02,1.802671998739242554e-01,3.385965526103973389e-01,6.873034238815307617e-01,5.117375850677490234e-01,4.616504013538360596e-01,3.161221742630004883e-01,1.675290912389755249e-01,3.696718811988830566e-02,5.534585565328598022e-03,-1.823568493127822876e-01,4.310845211148262024e-02,-8.871030807495117188e-02,-1.929863356053829193e-02,1.436176300048828125e-01,-1.005742996931076050e-01,-4.404893890023231506e-02,7.234132848680019379e-03,1.412885449826717377e-02,8.723173290491104126e-02,5.214451998472213745e-02,-1.114613935351371765e-01,6.783134490251541138e-02,-1.202051714062690735e-01,-7.225459814071655273e-02,-3.230247646570205688e-02,-7.134164869785308838e-02,1.540883779525756836e-01,-5.820382013916969299e-02,1.108614802360534668e-01,-7.266932725906372070e-02,2.740386314690113068e-02,-1.031380146741867065e-01,-1.610727161169052124e-01,-6.679865717887878418e-02,8.200807869434356689e-02,-1.631064414978027344e-01,-4.242714121937751770e-02,-1.100192442536354065e-01,-1.238289847970008850e-01,-1.777819693088531494e-01,-2.463773339986801147e-01,-1.845917254686355591e-01,-2.842921614646911621e-01,-9.950376302003860474e-02,-9.552337974309921265e-02,-1.927155070006847382e-02,-1.167845577001571655e-01,-3.137021064758300781e-01,-2.331943623721599579e-02,-6.902113556861877441e-02,1.108432039618492126e-01,-2.248934060335159302e-01,6.662469357252120972e-02,-2.008123844861984253e-01,-3.054146766662597656e-01,-1.003092229366302490e-01,-1.286369860172271729e-01,-1.684254705905914307e-01,-1.864605844020843506e-01,-1.613728404045104980e-01,-2.042772620916366577e-01,-1.364108175039291382e-01,-1.632844954729080200e-01,-7.683882862329483032e-02,-1.147481203079223633e-01,-3.197757303714752197e-01,-1.713772565126419067e-01,-3.852279782295227051e-01,-4.204768687486648560e-02,-1.723067164421081543e-01,9.407605230808258057e-02,-1.279139816761016846e-01,-2.273236066102981567e-01,-2.629208266735076904e-01,-1.577475666999816895e-01,-8.695476502180099487e-02,-9.866059571504592896e-02,-2.788558304309844971e-01,-1.716997623443603516e-01,-3.829777538776397705e-01,-2.207466214895248413e-01,-9.890116006135940552e-02,-3.563655167818069458e-02,-2.908484637737274170e-01,-1.168084889650344849e-01,-8.382687717676162720e-02,-6.532458961009979248e-02,-4.290694594383239746e-01,-7.414795923978090286e-03,-3.552137017250061035e-01,-1.599533408880233765e-01,-2.658190131187438965e-01,-1.854204088449478149e-01,-2.282745242118835449e-01,-3.018829524517059326e-01,-2.457132041454315186e-01,-2.559913396835327148e-01,-2.526592910289764404e-01,-2.627370059490203857e-01,-2.351804375648498535e-01,-1.223522126674652100e-01,-2.118264585733413696e-01,-1.396552920341491699e-01,-2.772437036037445068e-02,-1.304717212915420532e-01,-1.840422153472900391e-01,-5.971439182758331299e-02,-1.813112944364547729e-01,-4.510398209095001221e-02,-1.975001990795135498e-01,-1.839045137166976929e-01,-1.705911308526992798e-01,-9.423881024122238159e-02,-1.269543468952178955e-01,7.549451291561126709e-02,9.943260811269283295e-03,7.099020481109619141e-01,9.825953841209411621e-01,-6.099173426628112793e-02,-1.894512921571731567e-01,-6.146478652954101562e-01,-1.176086291670799255e-01,5.041308999061584473e-01,3.775069117546081543e-01,-3.196378471329808235e-03,4.133097827434539795e-02,5.689752697944641113e-01,9.014844298362731934e-01,7.751279473304748535e-01,7.287092208862304688e-01,2.603345215320587158e-01,2.059635072946548462e-01,1.616612970829010010e-01,3.590630888938903809e-01,3.099055886268615723e-01,3.632847368717193604e-01,2.119981870055198669e-02,1.864539980888366699e-01,1.806958466768264771e-01,3.084202408790588379e-01,-2.905105613172054291e-02,1.081811040639877319e-01,2.168490439653396606e-01,9.843327850103378296e-02,2.582708299160003662e-01,2.821038365364074707e-01,1.349788904190063477e-01,2.924630045890808105e-01,-1.773659698665142059e-02,1.721903383731842041e-01,3.303505182266235352e-01,-1.115251332521438599e-01,1.595554947853088379e-01,-1.936948508955538273e-03,-6.515216082334518433e-02,4.570737481117248535e-02,-1.268626563251018524e-02,-1.608405262231826782e-01,-2.384074479341506958e-01,-9.416006505489349365e-02,-9.241360425949096680e-02,-6.951080262660980225e-02,1.342061758041381836e-01,-6.162615492939949036e-02,-9.452462941408157349e-02,-1.291378438472747803e-01,1.960464380681514740e-02,5.600829422473907471e-02,-7.829979062080383301e-02,1.334156841039657593e-01,2.290311306715011597e-01,-1.017952114343643188e-01,9.892103821039199829e-02,9.275175631046295166e-02,5.132146552205085754e-02,-2.999190986156463623e-01,1.439005881547927856e-01,1.358001828193664551e-01,3.687042742967605591e-02,-1.080608591437339783e-01,-5.035119503736495972e-02,1.024119332432746887e-01,-2.740083038806915283e-01,1.052772998809814453e-01,6.782495882362127304e-03,2.401721850037574768e-02,-3.243336975574493408e-01,5.717204883694648743e-02,-2.078844606876373291e-01,3.568416535854339600e-01,3.407814353704452515e-02,7.436995953321456909e-02,2.678176760673522949e-02,-5.367680639028549194e-02,1.968590021133422852e-01,-1.191553920507431030e-01,5.443939939141273499e-02,2.509787678718566895e-01,-1.371423453092575073e-01,-1.168044731020927429e-01,1.299689710140228271e-01,1.259601563215255737e-01,-1.155540049076080322e-01,-9.796413034200668335e-02,7.505662739276885986e-02,-1.111909449100494385e-01,-9.535445272922515869e-02,-2.349522262811660767e-01,7.805710285902023315e-02,-1.048030331730842590e-01,-1.271226853132247925e-01,3.155867336317896843e-03,-4.282664507627487183e-02,-1.881386339664459229e-01,5.449721962213516235e-02,3.027034923434257507e-02,-1.392554640769958496e-01,7.323067635297775269e-02,3.002589643001556396e-01,-3.011403605341911316e-02,1.422868669033050537e-01,2.348070889711380005e-01,-1.112791597843170166e-01,2.209818065166473389e-01,1.054548174142837524e-01,-6.872674822807312012e-02,7.553764432668685913e-02,1.219214946031570435e-01,2.475297600030899048e-01,9.059678018093109131e-02,1.671138256788253784e-01,-1.987664401531219482e-02,9.133721888065338135e-02,-2.061615139245986938e-01,9.607767313718795776e-02,2.220561355352401733e-01,2.954016327857971191e-01,1.108227949589490891e-02,3.591119050979614258e-01,3.785147368907928467e-01,4.145671129226684570e-01,3.443808555603027344e-01,-1.844033151865005493e-01,-2.050673812627792358e-01,-1.429269462823867798e-01,1.025026664137840271e-02,3.270184397697448730e-01,4.977017343044281006e-01,7.227681875228881836e-01,3.496163487434387207e-01,-8.899608254432678223e-02,-1.077983379364013672e-01,1.122135668992996216e-01,-3.725243806838989258e-01,-4.039441347122192383e-01,-2.438202202320098877e-01,-1.145404428243637085e-01,2.074687033891677856e-01,2.747767567634582520e-01,1.662642508745193481e-01,5.573984235525131226e-03,1.222080960869789124e-01,-1.533328294754028320e-01,4.297688007354736328e-01,7.604700326919555664e-02,2.636384665966033936e-01,2.092246711254119873e-01,3.085151016712188721e-01,2.188105583190917969e-01,2.248539030551910400e-01,7.381551712751388550e-02,1.597828567028045654e-01,1.217719763517379761e-01,-1.781676337122917175e-02,2.530719041824340820e-01,4.092478752136230469e-01,1.013756915926933289e-02,2.861345708370208740e-01,3.160493373870849609e-01,3.365408778190612793e-01,9.269909560680389404e-02,2.825755178928375244e-01,3.277253806591033936e-01,-8.387447893619537354e-02,1.331488639116287231e-01,2.088796943426132202e-01,2.139332145452499390e-01,-1.044335588812828064e-01,2.236837595701217651e-01,2.104102969169616699e-01,-4.796639457345008850e-02,1.145092695951461792e-01,-8.882630616426467896e-02,-3.140604123473167419e-02,-1.364428400993347168e-01,2.407808229327201843e-02,-1.376614123582839966e-01,-2.002271264791488647e-01,-1.900061964988708496e-02,3.461593762040138245e-02,-1.425655484199523926e-01,1.132435053586959839e-01,-2.080720067024230957e-01,4.622889310121536255e-02,-1.140240803360939026e-01,3.795459866523742676e-02,-1.510411053895950317e-01,-1.121236979961395264e-01,5.469745770096778870e-02,1.158483047038316727e-02,-2.356272637844085693e-01,-6.447321176528930664e-02,-8.700755983591079712e-02,-3.552964329719543457e-02,-2.964930534362792969e-01,2.848518788814544678e-01,1.336367428302764893e-01,-2.310170233249664307e-01,1.597776710987091064e-01,-1.974237896502017975e-02,1.674954444169998169e-01,-2.484647333621978760e-01,-3.458384424448013306e-02,8.543366193771362305e-02,7.793928682804107666e-02,-5.116696469485759735e-03,3.929756209254264832e-02,1.463564336299896240e-01,-1.477435529232025146e-01,-2.252417244017124176e-02,3.778707981109619141e-02,-3.427645657211542130e-03,7.944338768720626831e-02,2.838247455656528473e-02,7.043129298835992813e-03,-2.881153523921966553e-01,-1.584312915802001953e-01,9.327438473701477051e-02,-2.917108535766601562e-01,-7.323389500379562378e-02,-1.844668090343475342e-01,-2.145742923021316528e-01,5.183599144220352173e-02,-4.245277121663093567e-02,-1.981728523969650269e-01,-2.608906626701354980e-01,-2.766410633921623230e-02,-3.425825834274291992e-01,-1.942419111728668213e-01,-1.254202425479888916e-01,-2.817783057689666748e-01,-9.507509320974349976e-02,-2.560052275657653809e-01,-1.931171398609876633e-03,-2.296054214239120483e-01,-3.620790839195251465e-01,1.950333098648115993e-04,-2.065967768430709839e-01,-1.351906806230545044e-01,-3.163509964942932129e-01,-1.814052015542984009e-01,-1.451959908008575439e-01,-4.761380255222320557e-01,-1.669304072856903076e-01,-5.689750611782073975e-02,-2.456152066588401794e-02,-2.737677395343780518e-01,2.884842753410339355e-01,9.475950151681900024e-02,1.896389126777648926e-01,3.312715291976928711e-01,8.150712400674819946e-02,-1.716615557670593262e-01,-2.789468467235565186e-01,-3.431291282176971436e-01,-8.024291694164276123e-02,2.577281594276428223e-01,-6.702135205268859863e-01,1.810470223426818848e-01,-1.304020583629608154e-01,-1.613658368587493896e-01,2.767264544963836670e-01,5.184777379035949707e-01,4.389977157115936279e-01,6.200860738754272461e-01,9.182996153831481934e-01,9.804345369338989258e-01,6.511753797531127930e-01,4.045529365539550781e-01,5.577170252799987793e-01,5.203926563262939453e-01,4.408640563488006592e-01,2.770246565341949463e-01,2.888859212398529053e-01,1.934496164321899414e-01,2.652435004711151123e-01,1.557074636220932007e-01,7.100170105695724487e-02,8.425780385732650757e-02,-9.205042570829391479e-02,1.788012683391571045e-01,-1.063141673803329468e-01,-1.277560181915760040e-02,-2.118401080369949341e-01,-6.977505981922149658e-02,2.446932252496480942e-03,-1.617539972066879272e-01,-2.994519472122192383e-01,-1.793697774410247803e-01,-7.659040391445159912e-02,-3.342333436012268066e-01,-3.360711336135864258e-01,-2.837534248828887939e-01,-5.314550921320915222e-02,-1.843314021825790405e-01,3.288839245215058327e-03,-1.490776091814041138e-01,3.934035822749137878e-02,-7.562475651502609253e-02,-2.966248244047164917e-02,-1.890959441661834717e-01,-3.363844007253646851e-02,-7.716216892004013062e-02,-6.091856583952903748e-02,-1.230997294187545776e-01,2.424104511737823486e-02,-9.200027212500572205e-03,2.153465058654546738e-03,-1.370591074228286743e-01,1.474893093109130859e-01,1.010771021246910095e-01,4.642908647656440735e-02,1.103287413716316223e-01,1.108190864324569702e-01,3.015106022357940674e-01,6.987622939050197601e-03,-6.248602271080017090e-02,7.574198395013809204e-02,2.347270026803016663e-02,-1.487215608358383179e-01,-3.495161607861518860e-02,-5.470310151576995850e-02,-2.448082119226455688e-01,-1.721817106008529663e-01,1.020047739148139954e-01,-8.029054850339889526e-02,9.596048295497894287e-02,-6.211657822132110596e-02,5.458204075694084167e-02,-1.625946760177612305e-01,-3.623932600021362305e-02,-5.774564296007156372e-02,-3.833771944046020508e-01,-1.007555350661277771e-01,-3.199329078197479248e-01,-5.687926895916461945e-03,-3.698890805244445801e-01,-2.657921314239501953e-01,-1.547250002622604370e-01,-2.115574926137924194e-01,1.294877193868160248e-02,-2.053814977407455444e-01,-5.226866900920867920e-02,-2.436737865209579468e-01,-3.799264505505561829e-02,-3.220624327659606934e-01,3.412686521187424660e-03,-7.057271152734756470e-02,3.530762344598770142e-02,-3.137632906436920166e-01,-4.300216957926750183e-02,-5.989663675427436829e-02,-3.128512501716613770e-01,-1.211491525173187256e-01,-5.151104182004928589e-02,-4.665408283472061157e-03,1.552188247442245483e-01,1.036107316613197327e-01,6.795071810483932495e-02,1.104894503951072693e-01,2.397582381963729858e-01,1.217601448297500610e-02,4.169715568423271179e-02,2.053041011095046997e-01,2.043828815221786499e-01,2.943049967288970947e-01,2.227558493614196777e-01,3.272701203823089600e-01,8.562371879816055298e-02,2.241234183311462402e-01,2.949723303318023682e-01,3.189070522785186768e-02,1.728659272193908691e-01,4.609129950404167175e-02,4.463258013129234314e-02,-1.053663641214370728e-01,-2.755523324012756348e-01,-2.668291926383972168e-01,-2.439689338207244873e-01,-2.013241201639175415e-01,-8.731734156608581543e-01,-7.084262371063232422e-01,-6.602638959884643555e-01,-8.136157393455505371e-01,-2.601118981838226318e-01,-3.091128170490264893e-01,-2.263182997703552246e-01,8.815753459930419922e-02,3.729155659675598145e-01,7.181115746498107910e-01,7.112447619438171387e-01,5.801890492439270020e-01,4.213554561138153076e-01,5.080223679542541504e-01,-6.886900216341018677e-02,-1.209363862872123718e-01,-2.383969575166702271e-01,-1.425278931856155396e-01,-2.915023863315582275e-01,-3.361642733216285706e-02,-2.261916846036911011e-01,-9.036713838577270508e-02,6.767590343952178955e-02,6.658826489001512527e-03,-1.269890069961547852e-01,1.752312034368515015e-01,2.292806841433048248e-02,5.419528111815452576e-02,2.101641446352005005e-01,1.355740875005722046e-01,1.297106593847274780e-01,3.626947104930877686e-01,1.384240090847015381e-01,1.635255068540573120e-01,8.692499995231628418e-02,1.634624302387237549e-01,1.222459301352500916e-01,2.377101033926010132e-01,1.947351694107055664e-01,1.774878948926925659e-01,1.077738478779792786e-01,2.907591760158538818e-01,1.866717822849750519e-02,1.300046741962432861e-01,2.070478796958923340e-01,-8.793178945779800415e-02,6.825940310955047607e-02,1.371325552463531494e-01,6.204082444310188293e-02,1.202876716852188110e-01,7.583000510931015015e-02,-1.068766266107559204e-01,5.266518797725439072e-03,-1.367845237255096436e-01,2.529460191726684570e-01,1.135475784540176392e-01,8.777987211942672729e-02,9.705646336078643799e-02,5.928150191903114319e-02,2.055284380912780762e-01,-1.163453701883554459e-02,1.745757162570953369e-01,3.916859161108732224e-03,1.056745648384094238e-01,3.072283975780010223e-02,-4.541292786598205566e-02,-2.736246213316917419e-03,-9.457691758871078491e-02,1.550755649805068970e-01,1.612201631069183350e-01,1.206426098942756653e-01,4.278060793876647949e-01,2.058008909225463867e-01,1.419914215803146362e-01,3.544378876686096191e-01,1.331315636634826660e-01,1.143153980374336243e-01,3.498514369130134583e-02,-4.438475891947746277e-02,-3.050458431243896484e-02,7.953696697950363159e-02,2.470892667770385742e-01,3.299502655863761902e-02,2.827519923448562622e-02,-5.326452478766441345e-02,1.589013189077377319e-01,8.108349516987800598e-03,2.821101434528827667e-02,2.864120900630950928e-01,-1.339579373598098755e-02,2.467594295740127563e-01,9.116052836179733276e-02,7.647870481014251709e-02,3.238976895809173584e-01,1.235348582267761230e-01,1.353027075529098511e-01,2.420829534530639648e-01,1.244931071996688843e-01,-2.512932568788528442e-02,2.056343406438827515e-01,-5.743638798594474792e-02,2.369854748249053955e-01,1.066212132573127747e-01,1.751527935266494751e-02,-5.225732922554016113e-03,2.542395293712615967e-01,1.207041069865226746e-01,1.441072374582290649e-01,-1.430787742137908936e-01,1.584588438272476196e-01,3.313254192471504211e-02,1.840491145849227905e-01,6.520767509937286377e-02,7.898517698049545288e-02,4.407124519348144531e-01,3.367660641670227051e-01,1.359288841485977173e-01,2.587463259696960449e-01,1.829412281513214111e-01,5.448297038674354553e-02,2.159821838140487671e-01,3.553372323513031006e-01,-5.200261250138282776e-02,5.859646201133728027e-02,-5.401754006743431091e-02,1.852071844041347504e-02,-1.857912242412567139e-01,-1.022007390856742859e-01,-5.784658193588256836e-01,-2.239250689744949341e-01,-8.700234442949295044e-02,4.722701385617256165e-02,3.300314545631408691e-01,-2.159921526908874512e-01,-2.196197360754013062e-01,-6.390160322189331055e-02,-2.462469339370727539e-01,-4.919604957103729248e-01,-5.685394406318664551e-01,-3.020235896110534668e-02,1.180938109755516052e-01,1.180774793028831482e-01,-6.894471123814582825e-03,-1.437298506498336792e-01,1.433770917356014252e-02,4.605872090905904770e-03,2.669084072113037109e-02,-2.272289991378784180e-01,-1.938475854694843292e-02,-1.639987230300903320e-01,1.778513938188552856e-01,-1.550921499729156494e-01,2.142848633229732513e-02,-5.391895771026611328e-02,-4.201870784163475037e-02,-5.126795172691345215e-02,-2.111273854970932007e-01,-2.277928739786148071e-01,-1.989084929227828979e-01,6.774790585041046143e-02,-6.246892735362052917e-02,-5.962623283267021179e-02,-6.188153102993965149e-02,-8.370093256235122681e-02,3.730845823884010315e-02,-1.468507796525955200e-01,-1.670413650572299957e-02,1.754696667194366455e-01,3.296039998531341553e-02,-9.601721912622451782e-02,9.210731089115142822e-02,6.334970891475677490e-02,-2.005142718553543091e-01,8.999014645814895630e-02,-4.709938913583755493e-02,1.930028796195983887e-01,-1.648837476968765259e-01,2.146420329809188843e-01,-1.524728089570999146e-01,1.081502716988325119e-02,-5.154464021325111389e-02,-2.433183044195175171e-01,8.353438973426818848e-02,-2.835492789745330811e-01,-2.786739170551300049e-01,-1.161933094263076782e-01,-6.218706071376800537e-02,-2.786949872970581055e-01,-1.608884036540985107e-01,-7.969366014003753662e-02,2.365164272487163544e-02,2.262637764215469360e-02,-1.117912828922271729e-01,-1.188457827083766460e-03,-1.951243961229920387e-03,-8.321380615234375000e-02,-9.334600716829299927e-02,-1.382480263710021973e-01,-1.656808108091354370e-01,-6.018757075071334839e-02,-9.358318150043487549e-02,9.089177101850509644e-02,3.637124598026275635e-02,-7.003877311944961548e-03,9.282948076725006104e-02,-2.824561670422554016e-03,-1.122445017099380493e-01,3.257731720805168152e-02,-4.263847321271896362e-02,-2.876783907413482666e-01,-9.200928360223770142e-02,-4.580237343907356262e-02,1.413601636886596680e-01,-2.729066312313079834e-01,-1.502610296010971069e-01,1.018870845437049866e-01,1.983487419784069061e-02,1.298017352819442749e-01,4.495783708989620209e-03,9.762462228536605835e-03,9.933342784643173218e-02,-1.990103721618652344e-01,-2.346422672271728516e-01,-1.274009346961975098e-01,-1.882908344268798828e-01,-3.181466162204742432e-01,-1.145898476243019104e-01,-1.897231042385101318e-01,-9.101162664592266083e-03,-2.994323968887329102e-01,-6.149177439510822296e-03,-2.997348308563232422e-01,-3.080409467220306396e-01,-1.102648451924324036e-01,-2.867307364940643311e-01,-1.793506145477294922e-01,-2.162374258041381836e-01,-1.763787716627120972e-01,-1.073162928223609924e-01,-3.267594054341316223e-02,-3.780883848667144775e-01,-2.029527872800827026e-01,-7.645403593778610229e-02,-5.757062137126922607e-02,-1.776125133037567139e-01,-7.952030003070831299e-02,-3.041646778583526611e-01,-1.424788981676101685e-01,-3.167444467544555664e-01,-1.696755141019821167e-01,-1.785723567008972168e-01,-1.061236262321472168e-01,-1.475138217210769653e-01,-4.301930963993072510e-01,-8.075184226036071777e-01,-4.183168411254882812e-01,2.846223488450050354e-02,2.691581249237060547e-01,-1.153716668486595154e-01,-1.591353863477706909e-01,-8.244211673736572266e-01,-5.375399589538574219e-01,-1.792604178190231323e-01,-2.676127254962921143e-01,-1.548460777848958969e-02,4.229414463043212891e-01,2.447904497385025024e-01,2.064185738563537598e-01,3.812499344348907471e-01,3.507608175277709961e-01,3.919724524021148682e-01,5.923103094100952148e-01,4.346860051155090332e-01,4.577619433403015137e-01,5.018950104713439941e-01,2.688728868961334229e-01,4.788542687892913818e-01,5.406482219696044922e-01,3.584634661674499512e-01,6.070657968521118164e-01,3.591768145561218262e-01,2.702865898609161377e-01,5.328512191772460938e-01,2.651019394397735596e-01,3.599959611892700195e-01,2.289861589670181274e-01,9.459955990314483643e-02,2.857860922813415527e-01,4.416449666023254395e-01,5.131123065948486328e-01,4.262219369411468506e-01,1.717643886804580688e-01,1.886109560728073120e-01,1.767727434635162354e-01,1.821613758802413940e-01,2.592435181140899658e-01,2.196127176284790039e-01,2.586884796619415283e-01,7.089214771986007690e-02,3.189002275466918945e-01,-3.106247633695602417e-02,1.976241171360015869e-01,2.760021984577178955e-01,2.326979935169219971e-01,4.602382481098175049e-01,2.434337139129638672e-01,1.488706767559051514e-01,3.747228533029556274e-02,4.021322727203369141e-01,6.950983311980962753e-03,1.616134345531463623e-01,1.455922126770019531e-01,1.845726519823074341e-01,-3.109638020396232605e-02,-5.973697081208229065e-02,1.393107622861862183e-01,-9.147698432207107544e-02,1.189290210604667664e-01,-1.413948684930801392e-01,1.402739882469177246e-01,1.864255033433437347e-02,5.498052760958671570e-02,3.153901174664497375e-02,1.692994236946105957e-01,1.822156310081481934e-01,8.508560247719287872e-03,1.299585103988647461e-01,9.632430225610733032e-02,1.167883425951004028e-01,6.277799606323242188e-02,-9.619858860969543457e-02,2.943806946277618408e-01,6.058417633175849915e-02,1.781928688287734985e-01,6.485375761985778809e-02,1.672769933938980103e-01,4.747831448912620544e-02,1.629595309495925903e-01,8.051268011331558228e-02,-3.131951019167900085e-02,2.499366998672485352e-01,-1.060189679265022278e-01,4.724326729774475098e-02,3.013854660093784332e-02,1.482383720576763153e-02,-2.033346518874168396e-02,-3.101207315921783447e-02,7.665052264928817749e-02,4.315227270126342773e-02,-2.031806111335754395e-01,-9.150354564189910889e-02,-6.574632972478866577e-02,8.134108036756515503e-02,2.195324003696441650e-01,-2.367796748876571655e-02,-4.622008185833692551e-03,7.271486520767211914e-02,4.637607559561729431e-02,-2.722997404634952545e-02,1.958141028881072998e-01,2.988244779407978058e-02,9.900690615177154541e-02,3.093400970101356506e-02,6.260786950588226318e-02,-5.431510880589485168e-02,5.695085600018501282e-02,1.108233854174613953e-01,2.788535952568054199e-01,2.214423269033432007e-01,-3.417328745126724243e-02,1.686502844095230103e-01,2.466514334082603455e-02,-1.082828938961029053e-01,1.929638385772705078e-01,-8.385676145553588867e-02,2.137261778116226196e-01,1.085308939218521118e-01,9.251835197210311890e-02,1.551706343889236450e-01,1.181600540876388550e-01,-1.310405582189559937e-01,4.660293087363243103e-02,-2.306031137704849243e-01,-1.631730645895004272e-01,-4.759561121463775635e-01,-4.809609651565551758e-01,2.567937672138214111e-01,7.701098322868347168e-01,1.812647581100463867e-01,-1.032327786087989807e-01,1.380395889282226562e-01,1.208370700478553772e-01,3.904393315315246582e-02,-2.170398086309432983e-02,2.477247565984725952e-01,3.012353479862213135e-01,5.052398443222045898e-01,3.174007534980773926e-01,2.179382294416427612e-01,-8.349844813346862793e-02,8.854430913925170898e-02,8.383224159479141235e-02,9.599200636148452759e-02,1.015188992023468018e-01,2.221725732088088989e-01,2.678297162055969238e-01,3.296010196208953857e-01,2.863070666790008545e-01,2.636285424232482910e-01,-9.679296612739562988e-02,2.313784509897232056e-01,-1.390330195426940918e-01,1.461188644170761108e-01,9.013028442859649658e-02,-3.079347610473632812e-01,6.995563209056854248e-02,9.957045316696166992e-02,4.032040387392044067e-02,1.283505093306303024e-02,-1.084677577018737793e-01,-6.654086709022521973e-02,-1.021787002682685852e-01,3.099801018834114075e-02,8.915679901838302612e-02,-1.478441357612609863e-01,-2.213806509971618652e-01,-2.105690985918045044e-01,-3.382602035999298096e-01,-1.823823084123432636e-03,-1.117199137806892395e-01,1.494278013706207275e-01,7.929884642362594604e-02,-4.065636172890663147e-02,-8.843069523572921753e-02,3.836999833583831787e-02,-1.086431834846735001e-02,-9.674544632434844971e-02,2.086414843797683716e-01,-1.052794307470321655e-01,1.515547838062047958e-02,1.222161650657653809e-01,3.205906599760055542e-02,-2.325168997049331665e-02,6.543757021427154541e-02,1.805171072483062744e-01,1.992820762097835541e-02,3.758476078510284424e-01,7.240080088376998901e-02,-4.815507680177688599e-03,-1.003420501947402954e-01,1.582671105861663818e-01,-1.013333946466445923e-01,1.363521069288253784e-02,-2.221727669239044189e-01,-3.281131088733673096e-01,-1.888726800680160522e-01,-1.113957073539495468e-02,4.210300147533416748e-01,-8.185586333274841309e-02,4.358984297141432762e-04,1.442714780569076538e-01,-1.688826233148574829e-01,-1.924876868724822998e-02,1.749590337276458740e-01,-2.091111242771148682e-01,-2.413433492183685303e-01,-1.314754337072372437e-01,-4.309912770986557007e-02,-1.821155250072479248e-01,-7.995232194662094116e-02,-1.423999220132827759e-01,-2.891773357987403870e-03,3.272438049316406250e-01,1.451954245567321777e-01,