3.068055212497711182e-02,-6.300520151853561401e-02,2.007924020290374756e-03,7.017742097377777100e-02,-6.511946767568588257e-02,8.471177518367767334e-02,-3.083346039056777954e-02,5.735555291175842285e-02,-2.677952498197555542e-02,5.680941045284271240e-02,5.181185901165008545e-03,-8.406519889831542969e-02,-7.936736196279525757e-02,-1.710368692874908447e-02,3.977601230144500732e-02,-5.167715251445770264e-02,3.784693032503128052e-02,-2.827971428632736206e-02,-2.732441946864128113e-02,2.026086300611495972e-02,6.181623041629791260e-02,-6.819279491901397705e-02,4.716992378234863281e-03,-5.487903952598571777e-03,-8.919611573219299316e-03,5.050839483737945557e-02,1.598159968852996826e-02,2.011656016111373901e-02,-4.163480177521705627e-02,-1.452402770519256592e-02,3.836360573768615723e-02,-7.839653640985488892e-02,5.422993004322052002e-02,1.782418042421340942e-02,4.428985714912414551e-02,-4.569213464856147766e-02,-8.465311676263809204e-02,1.395341008901596069e-02,-1.394570618867874146e-02,-4.295164346694946289e-02,5.859482288360595703e-02,2.700680494308471680e-02,-4.418187588453292847e-02,7.109543681144714355e-02,-7.164300978183746338e-02,8.517309091985225677e-03,-6.473490595817565918e-02,-7.097775489091873169e-02,4.695045948028564453e-02,2.616523951292037964e-02,-4.000877216458320618e-02,-6.361483037471771240e-02,1.635060459375381470e-02,-1.367136836051940918e-03,-8.039396256208419800e-02,6.103113293647766113e-03,1.389022171497344971e-02,7.442191243171691895e-02,2.347924560308456421e-02,-1.157224178314208984e-02,5.586765706539154053e-03,-2.980867400765419006e-02,-7.950709015130996704e-02,-5.930316168814897537e-03,3.460412472486495972e-02,-5.525284260511398315e-02,-7.880498468875885010e-02,-4.546149820089340210e-02,-8.764981478452682495e-02,-3.340196982026100159e-02,-9.318693727254867554e-02,-8.208999782800674438e-02,-1.368978340178728104e-02,5.476584658026695251e-02,-7.584901154041290283e-02,-2.110165916383266449e-02,5.909083411097526550e-02,-4.444171860814094543e-02,-2.567785233259201050e-02,-4.010827094316482544e-02,5.225147306919097900e-02,-5.732989311218261719e-02,6.274153292179107666e-02,1.539440453052520752e-02,8.360596001148223877e-02,7.367359101772308350e-02,3.485738486051559448e-02,-1.606736332178115845e-02,-6.792148202657699585e-02,-2.350963838398456573e-02,-8.947397023439407349e-02,2.196696959435939789e-02,2.987525053322315216e-02,-9.083884954452514648e-02,2.600410953164100647e-02,-9.401191771030426025e-02,-9.337760508060455322e-02,-7.294090837240219116e-02,5.997443571686744690e-02,-8.708569407463073730e-02,-8.827300742268562317e-03,-1.130002085119485855e-02,-2.495153062045574188e-02,3.328556939959526062e-02,4.522734507918357849e-02,1.391014549881219864e-02,-3.621141240000724792e-02,-1.945902965962886810e-02,2.010810561478137970e-02,5.017043277621269226e-02,1.698663830757141113e-02,-8.183542639017105103e-02,2.223002165555953979e-02,-4.051974415779113770e-02,-8.440672606229782104e-02,5.040776729583740234e-02,-1.323931664228439331e-02,-8.637987077236175537e-03,3.342562168836593628e-02,6.106470152735710144e-02,-1.597971841692924500e-02,1.353174634277820587e-02,1.202253811061382294e-02,3.230179473757743835e-02,5.054128170013427734e-02,-7.952942699193954468e-02,6.592079997062683105e-02,2.564753964543342590e-02,4.965791106224060059e-02,-3.376419469714164734e-02,-1.018657535314559937e-01,-4.475719854235649109e-02,-7.263182103633880615e-02,-4.236014559864997864e-02,-5.057634413242340088e-02,5.214235931634902954e-02,2.971864491701126099e-02,6.678864359855651855e-02,8.015300333499908447e-02,-3.966207429766654968e-02,4.585973918437957764e-03,8.138664066791534424e-02,5.406829714775085449e-02,1.122877001762390137e-04,-2.874694392085075378e-02,3.295283298939466476e-03,3.356280969455838203e-03,-9.113385342061519623e-03,2.684888802468776703e-02,1.232083514332771301e-02,6.704652309417724609e-02,-1.243288535624742508e-02,-9.391701966524124146e-02,7.249824702739715576e-02,-2.451855875551700592e-02,-7.491248100996017456e-02,2.212888747453689575e-02,2.221150696277618408e-02,-9.584971517324447632e-02,5.913952365517616272e-02,-6.834032386541366577e-02,-8.411891758441925049e-03,-3.045785240828990936e-03,-8.984573930501937866e-02,-7.769123185425996780e-03,4.203899577260017395e-02,3.690037131309509277e-02,-3.713682293891906738e-03,-4.438960924744606018e-02,-6.507617235183715820e-02,-6.667188555002212524e-02,2.443691343069076538e-02,3.152517601847648621e-02,-1.740345545113086700e-02,-8.241195976734161377e-02,4.696187097579240799e-03,-8.958135545253753662e-02,1.216492801904678345e-02,2.812045812606811523e-02,6.928478926420211792e-02,-5.366178601980209351e-02,-6.792960315942764282e-02,-5.830572918057441711e-02,-1.847142167389392853e-02,4.444336146116256714e-02,-9.099241346120834351e-02,-1.853106543421745300e-02,-7.584897428750991821e-02,5.522774904966354370e-02,-1.004045549780130386e-02,-6.192642729729413986e-03,-9.516325779259204865e-03,-9.093431383371353149e-02,5.745534971356391907e-02,3.950434923171997070e-02,5.746771395206451416e-02,5.353516340255737305e-02,7.029229402542114258e-02,7.245016098022460938e-02,-7.405322045087814331e-02,-1.347362250089645386e-02,-1.137910224497318268e-02,-2.804972976446151733e-02,-6.682892888784408569e-02,-7.494161278009414673e-02,5.477166175842285156e-02,-9.710878878831863403e-02,-7.886507362127304077e-02,-2.175418101251125336e-02,6.515015661716461182e-02,-6.549654155969619751e-02,5.439582467079162598e-02,1.242665573954582214e-02,-9.725899994373321533e-02,5.905986949801445007e-02,-8.700504899024963379e-02,4.415412619709968567e-02,5.000743642449378967e-02,3.767343983054161072e-02,-1.195962540805339813e-02,-5.468534678220748901e-02,7.036553323268890381e-02,-3.790659457445144653e-02,-6.565403938293457031e-02,-4.582152143120765686e-02,-4.140831530094146729e-03,-7.156077027320861816e-02,-2.189712971448898315e-02,4.318154975771903992e-02,-6.638150662183761597e-02,3.195760399103164673e-02,2.912723459303379059e-02,-7.721479237079620361e-02,-6.755574047565460205e-02,-4.362627118825912476e-02,6.509945541620254517e-02,4.920574650168418884e-02,-7.688637077808380127e-02,3.196258842945098877e-02,-5.418998654931783676e-03,-4.387033358216285706e-02,-9.486221708357334137e-03,-9.587855078279972076e-03,-4.933929815888404846e-02,-7.582259923219680786e-02,4.973701760172843933e-02,2.002707310020923615e-02,-5.308456718921661377e-02,-1.218339055776596069e-02,5.504325404763221741e-02,4.920916259288787842e-02,2.041644603013992310e-02,-5.730099231004714966e-02,-7.706573605537414551e-02,3.198293596506118774e-02,6.672540307044982910e-02,-6.581593304872512817e-02,2.594459615647792816e-02,-5.808733776211738586e-02,-7.215742766857147217e-02,-1.225010026246309280e-02,-3.976706042885780334e-02,-7.695128768682479858e-02,-6.367412954568862915e-02,-9.295049309730529785e-02,-6.761386990547180176e-02,-1.501813810318708420e-02,-1.035853698849678040e-01,-1.451514102518558502e-02,-5.128310248255729675e-02,1.565789990127086639e-02,-5.590435490012168884e-02,4.607852548360824585e-03,-2.057189866900444031e-02,3.589628636837005615e-02,-4.267815127968788147e-02,-6.755153089761734009e-02,4.560361802577972412e-02,-7.535249739885330200e-02,-8.032298833131790161e-02,4.587458074092864990e-02,-2.037206292152404785e-02,-5.725304782390594482e-02,-2.317110076546669006e-02,2.119264192879199982e-02,-8.411870151758193970e-02,5.142375081777572632e-02,6.232062727212905884e-02,6.754914671182632446e-02,6.594379246234893799e-02,4.621878266334533691e-02,3.963209316134452820e-02,6.382900476455688477e-02,-8.068022131919860840e-02,3.946937620639801025e-02,-6.364618986845016479e-02,-2.535095997154712677e-02,2.634823508560657501e-02,-5.792878568172454834e-02,-7.842776179313659668e-02,-4.787760972976684570e-02,3.801302984356880188e-02,-2.657420001924037933e-02,-6.683659739792346954e-03,-2.449706569314002991e-02,-1.090228632092475891e-01,-4.070807993412017822e-02,6.764173507690429688e-03,4.516065120697021484e-02,-5.314263701438903809e-02,-7.561355829238891602e-02,-3.150325268507003784e-02,-1.505299098789691925e-02,4.192494973540306091e-02,-5.387290194630622864e-02,-2.629736438393592834e-02,3.336862474679946899e-02,3.030068054795265198e-02,-1.538861356675624847e-02,-7.389955967664718628e-02,-1.876010675914585590e-03,-1.061421185731887817e-01,2.078105509281158447e-02,2.554191462695598602e-02,-3.067837469279766083e-02,3.959531709551811218e-02,-1.216726470738649368e-02,6.038982048630714417e-02,-3.746484173461794853e-03,-2.512647956609725952e-02,-5.933269113302230835e-02,-1.125738918781280518e-01,-1.514232903718948364e-02,-3.880840167403221130e-02,-4.972339421510696411e-02,-3.438653796911239624e-02,6.773526966571807861e-02,-5.229164287447929382e-02,4.922758042812347412e-02,-1.870547793805599213e-02,4.558129236102104187e-02,1.145835407078266144e-02,7.033836445771157742e-04,7.204796373844146729e-02,-8.398459106683731079e-02,-9.499161690473556519e-02,2.843037992715835571e-02,2.319090254604816437e-02,5.150621384382247925e-02,-1.834756322205066681e-02,-1.131203398108482361e-02,1.653148420155048370e-02,-8.383450657129287720e-02,2.752556838095188141e-02,-7.461705058813095093e-02,-2.438290230929851532e-02,4.433124512434005737e-02,2.958861738443374634e-02,-1.102172881364822388e-01,-9.902079403400421143e-02,-3.934200853109359741e-02,-5.858815461397171021e-02,4.811707139015197754e-02,3.218691796064376831e-02,-3.154273331165313721e-02,8.388018608093261719e-02,3.258315473794937134e-02,3.067652508616447449e-02,-8.113411068916320801e-02,-6.154451891779899597e-02,-2.969557233154773712e-02,-2.611880190670490265e-02,-6.719179451465606689e-02,-5.051087215542793274e-02,-5.605856329202651978e-02,2.070972137153148651e-02,-1.512472331523895264e-02,-1.445546280592679977e-02,5.489640682935714722e-02,3.276829142123460770e-03,-9.748449921607971191e-02,-9.645389765501022339e-02,-2.592828497290611267e-02,3.799146972596645355e-03,-1.037348508834838867e-01,6.697101891040802002e-02,5.070976540446281433e-02,-8.140159398317337036e-02,-7.197286188602447510e-02,-5.304379388689994812e-02,6.595160067081451416e-02,-1.117876917123794556e-02,-3.075249865651130676e-02,4.676707088947296143e-02,-8.135574311017990112e-02,7.327951490879058838e-02,-2.208578400313854218e-02,-1.478244550526142120e-02,6.068174261599779129e-03,4.976114630699157715e-02,1.872278936207294464e-02,-5.994223058223724365e-02,6.542102992534637451e-02,1.594769395887851715e-02,-2.048061415553092957e-02,-1.011806447058916092e-02,4.278774559497833252e-02,-9.057455509901046753e-02,-9.956833720207214355e-02,-5.236090626567602158e-03,-6.249713152647018433e-02,7.111297547817230225e-02,-3.475477173924446106e-02,-9.703712910413742065e-02,-5.369692668318748474e-02,-6.537100672721862793e-02,-3.898920491337776184e-02,7.268266379833221436e-02,-4.323521256446838379e-02,1.654499024152755737e-02,6.390744447708129883e-02,-8.483988046646118164e-02,-7.452422380447387695e-02,7.252949476242065430e-02,-1.183238252997398376e-02,-5.192733183503150940e-02,-6.876427680253982544e-02,-6.104509159922599792e-02,2.255491167306900024e-02,-8.777551352977752686e-02,-3.073981404304504395e-02,3.443673625588417053e-02,-8.395329862833023071e-02,2.904971316456794739e-02,5.933088436722755432e-02,-8.809907734394073486e-02,-9.579506516456604004e-02,-1.034443173557519913e-02,-2.336453273892402649e-02,-5.612106062471866608e-03,-6.030519306659698486e-02,3.491416573524475098e-02,-7.447913289070129395e-02,-2.112425677478313446e-02,6.510451436042785645e-02,2.519682794809341431e-02,5.175954103469848633e-02,-4.064801707863807678e-02,-4.735678434371948242e-02,-1.699149608612060547e-03,-6.895351409912109375e-02,8.919084444642066956e-03,6.111910566687583923e-02,6.348701566457748413e-02,5.954217910766601562e-02,-1.335588935762643814e-02,-6.928253173828125000e-02,-3.360757604241371155e-02,2.548086456954479218e-02,4.904885590076446533e-02,1.741421595215797424e-02,-1.126926741562783718e-03,-6.016376987099647522e-02,-1.094101369380950928e-02,-3.759696707129478455e-02,-8.026573061943054199e-02,6.463671475648880005e-02,-7.262903451919555664e-02,-3.704017773270606995e-02,-2.398902736604213715e-02,2.030998840928077698e-02,-3.668634966015815735e-02,5.136324092745780945e-02,4.670314490795135498e-02,-6.650577485561370850e-02,-4.135539382696151733e-02,-6.748906522989273071e-02,-7.721021771430969238e-02,-8.468149602413177490e-02,-8.462323993444442749e-02,-5.966241285204887390e-02,5.422814935445785522e-02,-8.894132077693939209e-02,-2.835945039987564087e-02,-2.972947619855403900e-02,7.434461731463670731e-04,4.243344813585281372e-02,-3.055826947093009949e-02,-3.535449132323265076e-02,2.286885492503643036e-02,-2.820629999041557312e-02,2.308292686939239502e-02,5.369374528527259827e-02,-8.458930253982543945e-02,-7.846972346305847168e-02,6.911973655223846436e-02,-8.048646897077560425e-02,-6.585184484720230103e-02,-2.348170801997184753e-02,3.958592191338539124e-02,7.293090969324111938e-02,-2.776523679494857788e-02,5.069850385189056396e-02,-7.674661278724670410e-02,4.441578686237335205e-02,8.200347423553466797e-03,-1.724050939083099365e-02,-5.710301920771598816e-02,-8.824749290943145752e-02,2.118452824652194977e-02,4.014522209763526917e-02,-8.043069392442703247e-02,-5.778152868151664734e-02,-1.340260542929172516e-02,1.344381272792816162e-02,-3.638065233826637268e-02,-7.133646402508020401e-03,-7.179191708564758301e-02,-4.303176328539848328e-02,2.524533076211810112e-03,-1.913601160049438477e-02,4.753010813146829605e-03,2.735352329909801483e-02,-2.036400698125362396e-02,2.866802550852298737e-02,-1.289786491543054581e-02,5.374007299542427063e-02,1.936241611838340759e-02,-7.977890223264694214e-02,3.175234049558639526e-02,2.929525077342987061e-02,1.496724784374237061e-03,7.750280201435089111e-02,5.859810113906860352e-02,-4.456484317779541016e-02,1.936185732483863831e-02,-3.432272002100944519e-02,6.606764346361160278e-02,-9.808238595724105835e-02,-1.075405720621347427e-02,-8.343898504972457886e-02,6.074853241443634033e-03,-5.561133846640586853e-02,-5.672514811158180237e-02,-3.541363403201103210e-02,-1.148535497486591339e-02,-2.339913137257099152e-02,-1.745474524796009064e-02,4.722162708640098572e-02,-1.125713344663381577e-02,5.891227163374423981e-03,4.837168846279382706e-03,-9.831117093563079834e-02,-6.035888101905584335e-03,4.832719266414642334e-02,-3.528704121708869934e-02,-6.182510405778884888e-02,6.150176003575325012e-02,7.944387197494506836e-02,-1.583471894264221191e-04,-7.099585980176925659e-02,-5.280516669154167175e-02,-1.837407797574996948e-02,2.312066406011581421e-02,4.087518900632858276e-02,-8.154455572366714478e-02,1.601921021938323975e-02,6.106390431523323059e-02,-2.848271979019045830e-03,-4.503753501921892166e-03,1.344643533229827881e-02,6.731062382459640503e-02,-6.821893621236085892e-03,2.685550227761268616e-02,5.614103749394416809e-02,-8.839977532625198364e-02,-8.540372550487518311e-02,-5.042038112878799438e-02,3.359657526016235352e-02,3.637925535440444946e-02,5.347124487161636353e-02,-3.407090529799461365e-02,9.890228509902954102e-03,-3.910666331648826599e-02,-3.973246365785598755e-02,-2.617393992841243744e-02,9.542956948280334473e-03,2.107328176498413086e-02,5.894559621810913086e-02,-8.060336112976074219e-02,7.155323028564453125e-02,3.134270012378692627e-02,-7.209022343158721924e-02,-7.157991826534271240e-02,2.912473119795322418e-02,-6.842131167650222778e-02,-9.286603331565856934e-02,4.378203675150871277e-02,-3.078195266425609589e-02,-6.250562611967325211e-03,1.248513255268335342e-02,4.147388413548469543e-02,1.260204985737800598e-02,-9.733471274375915527e-02,4.038898646831512451e-02,-2.810514345765113831e-02,-2.288979291915893555e-02,-9.050448238849639893e-02,-2.049496211111545563e-02,5.057774111628532410e-02,3.351866500452160835e-03,-8.427760004997253418e-02,7.759683579206466675e-02,-2.588725462555885315e-02,4.931820929050445557e-02,6.860285997390747070e-02,-2.857644483447074890e-02,-2.300740778446197510e-02,3.964704275131225586e-02,2.767375111579895020e-02,7.098286598920822144e-02,-9.985088557004928589e-02,4.496697336435317993e-02,6.225423514842987061e-02,3.856461122632026672e-02,-1.288277562707662582e-02,-2.277643047273159027e-02,-8.668568916618824005e-03,-6.821350008249282837e-02,-7.818579673767089844e-02,-1.004702225327491760e-02,-3.283342346549034119e-02,-2.198176458477973938e-02,7.042086124420166016e-02,-7.526755332946777344e-02,-1.468251738697290421e-02,4.622771963477134705e-02,1.959079131484031677e-02,6.486462056636810303e-02,-5.712458398193120956e-03,-1.004268229007720947e-02,-4.528340324759483337e-02,4.559132456779479980e-02,8.539886772632598877e-02,4.491466283798217773e-02,7.772162556648254395e-02,6.515625119209289551e-02,4.712209105491638184e-03,3.398285433650016785e-02,6.929011084139347076e-03,-7.564683444797992706e-03,6.260048598051071167e-02,1.150708179920911789e-02,-9.647652506828308105e-02,5.408143997192382812e-02,-8.422201871871948242e-02,-7.861677557229995728e-02,-7.816243916749954224e-02,-5.162163451313972473e-02,5.989913269877433777e-02,-6.561411917209625244e-02,2.327044866979122162e-02,-5.735563859343528748e-02,-8.209074730984866619e-04,2.511152811348438263e-02,-2.101433090865612030e-02,2.236173022538423538e-03,5.226297676563262939e-02,7.794131338596343994e-02,-1.644577831029891968e-02,3.131650388240814209e-02,4.671978950500488281e-02,-4.584133625030517578e-02,-4.276487603783607483e-02,-8.106364309787750244e-02,2.594597637653350830e-02,-5.495368316769599915e-02,-5.428319424390792847e-02,-5.040413886308670044e-02,-2.926348149776458740e-02,-9.591783583164215088e-02,6.520387530326843262e-02,-8.716267347335815430e-02,-3.438395634293556213e-02,-9.585934877395629883e-02,-6.816669553518295288e-02,-8.619649708271026611e-02,7.143788039684295654e-02,-2.569856122136116028e-02,2.538149058818817139e-02,-5.306519567966461182e-03,-4.240708891302347183e-03,-6.245639920234680176e-02,-1.627560891211032867e-02,-7.159288227558135986e-02,-7.569588720798492432e-03,6.758302450180053711e-02,-1.887401193380355835e-02,-1.355726271867752075e-02,-7.399293780326843262e-02,-1.169301569461822510e-02,-1.943606138229370117e-02,-6.871487200260162354e-02,4.870150983333587646e-02,6.147551536560058594e-02,-5.664430558681488037e-02,5.280540883541107178e-02,7.652998715639114380e-02,3.842970356345176697e-02,-4.164342954754829407e-02,-5.510479584336280823e-02,4.825344681739807129e-02,2.377525717020034790e-02,1.093886047601699829e-02,-6.689321249723434448e-02,-2.427510771667584777e-04,-9.645000100135803223e-03,-3.418161999434232712e-03,5.340120568871498108e-02,4.266981407999992371e-02,2.585658431053161621e-02,-8.525221794843673706e-02,-8.370515704154968262e-02,-3.133664652705192566e-02,7.249543070793151855e-02,2.332152426242828369e-02,-3.649460151791572571e-02,1.642981916666030884e-02,-3.271807730197906494e-02,5.554451048374176025e-02,4.365554451942443848e-02,-7.642941176891326904e-02,7.243518531322479248e-02,5.338704586029052734e-02,-5.732288956642150879e-02,8.209165930747985840e-02,7.952713966369628906e-02,4.020895063877105713e-02,-6.889271736145019531e-02,3.607973456382751465e-02,-6.043057143688201904e-02,-1.291050016880035400e-02,7.516109943389892578e-02,5.829209089279174805e-02,-1.915232837200164795e-02,2.201585285365581512e-02,-1.526213623583316803e-02,-2.032123506069183350e-03,-1.516751945018768311e-02,4.166190326213836670e-02,4.271373152732849121e-02,6.409870088100433350e-02,-4.325768351554870605e-02,-1.399033516645431519e-02,4.260523617267608643e-02,-4.247659072279930115e-02,-8.584353327751159668e-02,1.918227970600128174e-02,-9.868048131465911865e-03,-5.819847434759140015e-02,6.604461371898651123e-02,8.580176532268524170e-02,-6.656048446893692017e-02,-1.256081461906433105e-02,-3.611437603831291199e-02,-5.783110857009887695e-03,3.685501217842102051e-02,3.345139324665069580e-03,8.640438318252563477e-05,-5.347856134176254272e-02,1.735901832580566406e-02,-7.180459052324295044e-02,6.210424005985260010e-02,-5.401377379894256592e-02,-1.183335483074188232e-02,3.616917878389358521e-02,6.541267037391662598e-02,-2.904968336224555969e-02,7.001130282878875732e-02,-2.512733638286590576e-02,-4.737769067287445068e-02,-4.501147195696830750e-02,-5.726519972085952759e-02,-4.655713587999343872e-02,2.595250308513641357e-02,-1.041884720325469971e-02,-4.738827794790267944e-02,8.187468349933624268e-02,-5.735944584012031555e-02,-7.200254499912261963e-02,4.280531406402587891e-02,4.336735606193542480e-02,-5.296437442302703857e-02,-4.047603905200958252e-02,-7.445491850376129150e-03,1.431009173393249512e-02,3.176188468933105469e-01,2.871572375297546387e-01,-9.555868804454803467e-03,4.391558468341827393e-02,-4.453850165009498596e-02,-1.776880025863647461e-02,3.758690506219863892e-02,1.301603019237518311e-02,-4.513762891292572021e-03,-4.346065968275070190e-02,2.487791329622268677e-02,2.149616181850433350e-02,-3.307719156146049500e-02,3.791394829750061035e-02,-2.097748219966888428e-03,-6.372423470020294189e-02,-7.872070372104644775e-02,1.054421812295913696e-02,-5.062318220734596252e-02,-6.904248893260955811e-02,3.881502896547317505e-02,2.208982110023498535e-01,3.556409776210784912e-01,6.588297486305236816e-01,9.352329373359680176e-01,1.737504124641418457e+00,2.469425439834594727e+00,4.404029548168182373e-01,5.594400763511657715e-01,2.064297944307327271e-01,-9.219558835029602051e-01,1.095665469765663147e-01,1.323948055505752563e-01,7.823028564453125000e-01,2.454727172851562500e+00,2.431170463562011719e+00,2.665073633193969727e+00,2.544673442840576172e+00,1.944425225257873535e+00,1.078978061676025391e+00,-4.807753115892410278e-02,-1.607356220483779907e-02,-4.604612290859222412e-02,5.024988949298858643e-02,-4.824802652001380920e-02,8.817262947559356689e-03,6.619681715965270996e-01,6.651610136032104492e-02,1.467208147048950195e+00,3.722668290138244629e-01,1.187626719474792480e+00,1.501510739326477051e+00,2.880051612854003906e+00,2.129815578460693359e+00,1.834657549858093262e+00,1.944026231765747070e+00,1.788628578186035156e+00,1.736956089735031128e-01,9.610805511474609375e-01,1.402987718582153320e+00,6.590842604637145996e-01,3.013291656970977783e-01,5.115833282470703125e-01,8.087825179100036621e-01,-1.046065799891948700e-02,3.024729788303375244e-01,-2.841572165489196777e-01,-5.207949876785278320e-01,4.586504995822906494e-01,1.086603045463562012e+00,-3.488243371248245239e-02,2.986391633749008179e-02,-2.136898040771484375e-02,7.792045176029205322e-02,-6.127322316169738770e-01,1.045215249061584473e+00,-1.032678365707397461e+00,1.111207604408264160e+00,1.191105842590332031e+00,1.332145571708679199e+00,1.798732399940490723e+00,6.269820928573608398e-01,-4.311525523662567139e-01,6.406183838844299316e-01,1.539990544319152832e+00,1.203379154205322266e+00,1.118573546409606934e+00,5.806274414062500000e-01,5.979816317558288574e-01,-4.645783603191375732e-01,5.900574922561645508e-01,4.075522422790527344e-01,4.115121066570281982e-02,-1.451842188835144043e-01,-3.100086702033877373e-03,-1.957085877656936646e-01,6.280127763748168945e-01,7.551711201667785645e-01,-7.725929468870162964e-02,-3.650800883769989014e-02,-8.605598658323287964e-02,3.609453886747360229e-02,-1.234573006629943848e+00,1.036757469177246094e+00,3.343816399574279785e-01,6.905924081802368164e-01,2.008276879787445068e-01,-3.613913059234619141e-01,-3.859287798404693604e-01,3.435003757476806641e-02,-1.530253887176513672e-01,-2.655516862869262695e-01,-5.403882861137390137e-01,-7.159211039543151855e-01,-2.046301960945129395e-01,-2.271935045719146729e-01,-1.080270111560821533e-01,-1.555850356817245483e-01,-3.960702717304229736e-01,-2.318778783082962036e-01,4.566977024078369141e-01,-7.360328435897827148e-01,-2.998945713043212891e-01,-6.332265734672546387e-01,3.577177822589874268e-01,4.971566498279571533e-01,1.075001358985900879e+00,1.046783328056335449e+00,3.022789210081100464e-02,-5.615658313035964966e-02,-1.752618074417114258e+00,-1.749761581420898438e+00,2.255686372518539429e-01,2.133968323469161987e-01,-1.406101435422897339e-01,1.169145256280899048e-01,-1.426759958267211914e-01,-6.425007432699203491e-02,-2.539815902709960938e-01,-4.309155046939849854e-01,-4.269647896289825439e-01,-1.981059461832046509e-01,-2.663702964782714844e-01,-4.431814253330230713e-01,-1.934393048286437988e-01,-2.965305149555206299e-01,-2.028117030858993530e-01,-3.212778270244598389e-01,-6.090690568089485168e-02,-1.485178470611572266e-01,-7.821905016899108887e-01,-3.871337175369262695e-01,-8.931777477264404297e-01,6.006997823715209961e-01,2.003788709640502930e+00,8.987009525299072266e-01,3.062156587839126587e-02,1.797107011079788208e-01,-2.437626719474792480e-01,-2.849546968936920166e-01,8.808103390038013458e-03,1.660569906234741211e-01,1.014968603849411011e-01,1.379290670156478882e-01,-1.903738528490066528e-01,-6.878001987934112549e-02,-8.603625744581222534e-02,-4.022878035902976990e-02,-3.981881141662597656e-01,-3.895730674266815186e-01,-8.554931730031967163e-02,2.658206224441528320e-01,3.992812633514404297e-01,3.960866630077362061e-01,7.156190276145935059e-01,4.768389090895652771e-02,1.391151398420333862e-01,-8.218628168106079102e-02,-3.375984430313110352e-01,6.011755391955375671e-02,-9.522984027862548828e-01,7.837331891059875488e-01,1.424949407577514648e+00,9.517092108726501465e-01,-1.102797314524650574e-01,6.941747665405273438e-01,-8.218659758567810059e-01,-1.216165535151958466e-02,-8.696424365043640137e-01,-8.741822838783264160e-01,2.091038823127746582e-01,-1.430475525557994843e-02,1.570775061845779419e-01,1.177596971392631531e-01,1.026941929012537003e-02,-3.735733404755592346e-02,1.466337293386459351e-01,-1.889202296733856201e-01,-1.734176874160766602e-01,4.903854131698608398e-01,1.187265589833259583e-01,2.156734019517898560e-01,8.865154534578323364e-02,-3.200446665287017822e-01,-2.053218930959701538e-01,2.689221799373626709e-01,-2.119210809469223022e-01,5.747532472014427185e-02,-3.476416468620300293e-01,-9.469197988510131836e-01,9.926633238792419434e-01,2.297714650630950928e-01,-1.207355260848999023e+00,1.086945414543151855e+00,-6.314932107925415039e-01,-5.128767713904380798e-02,-7.447152137756347656e-01,-4.872078001499176025e-01,-2.863246947526931763e-02,-3.561022579669952393e-01,3.900786042213439941e-01,-2.457299083471298218e-01,9.843938052654266357e-02,2.197479456663131714e-01,-3.478771820664405823e-02,-1.545264571905136108e-01,-8.420950919389724731e-02,-3.216568753123283386e-02,2.135087102651596069e-01,1.116768345236778259e-01,1.965667009353637695e-01,6.778797507286071777e-02,-2.810524106025695801e-01,-1.030133515596389771e-01,5.532152056694030762e-01,7.526537775993347168e-02,-8.845176100730895996e-01,1.498512029647827148e-01,9.853578209877014160e-01,1.410517189651727676e-02,6.631866097450256348e-01,1.346799015998840332e+00,-1.272394657135009766e-01,-4.853703081607818604e-01,-3.848303854465484619e-01,-6.330686807632446289e-02,1.372080445289611816e-01,2.946801185607910156e-01,2.918059527873992920e-01,3.457109332084655762e-01,2.831078767776489258e-01,3.741687834262847900e-01,5.021500587463378906e-01,-5.081045255064964294e-02,-6.278239935636520386e-02,-5.310050398111343384e-02,-8.039342612028121948e-02,1.328776925802230835e-01,-3.676255643367767334e-01,-3.724752739071846008e-02,4.449203312397003174e-01,-1.533780544996261597e-01,2.366165071725845337e-01,2.686697542667388916e-01,7.539078593254089355e-02,1.155030846595764160e+00,6.057124733924865723e-01,1.282736897468566895e+00,8.161225914955139160e-01,8.027729988098144531e-01,-1.190415859222412109e+00,-7.576548308134078979e-02,2.637311220169067383e-01,4.399824738502502441e-01,6.046659946441650391e-01,3.740987479686737061e-01,7.591394782066345215e-01,6.102590560913085938e-01,4.561598300933837891e-01,-1.500553935766220093e-01,-1.500429660081863403e-01,-1.996276527643203735e-01,-3.643582165241241455e-01,-6.190428137779235840e-01,3.454608144238591194e-03,-3.063455224037170410e-01,8.698857575654983521e-02,8.278620429337024689e-03,1.325442641973495483e-01,-2.260171920061111450e-01,1.268791258335113525e-01,5.397942066192626953e-01,-2.369736135005950928e-01,3.862714469432830811e-01,-1.239391565322875977e+00,2.427013963460922241e-01,1.438008039258420467e-03,-8.792081475257873535e-01,8.268573284149169922e-01,3.298615217208862305e-01,4.963247179985046387e-01,1.293380618095397949e+00,3.107668459415435791e-01,8.207250833511352539e-01,6.581072211265563965e-01,3.457599580287933350e-01,9.453879296779632568e-02,-1.200959384441375732e-01,-3.500838577747344971e-01,-1.767971813678741455e-01,-1.676984876394271851e-01,-2.105687260627746582e-01,2.801694571971893311e-01,4.089876115322113037e-01,4.335528314113616943e-01,1.870234906673431396e-01,4.823709130287170410e-01,2.865878343582153320e-01,3.802922666072845459e-01,2.314531058073043823e-02,7.481607794761657715e-01,6.703438758850097656e-01,-3.067928254604339600e-01,1.022236108779907227e+00,-3.755249679088592529e-01,2.091739475727081299e-01,3.679254651069641113e-01,-6.848514080047607422e-01,6.187882423400878906e-01,5.980643630027770996e-01,-5.263718962669372559e-02,-2.573404228314757347e-03,-3.076695501804351807e-01,-5.188035964965820312e-01,-8.561582118272781372e-02,-3.695962131023406982e-01,-8.421997427940368652e-01,-8.363139629364013672e-02,3.709869980812072754e-01,3.390217423439025879e-01,4.100580811500549316e-01,4.041793346405029297e-01,5.116818547248840332e-01,3.328566253185272217e-01,3.917903006076812744e-01,2.162251472473144531e-01,4.159170985221862793e-01,9.845874309539794922e-01,8.536635339260101318e-02,-8.112770318984985352e-02,-5.536364316940307617e-01,1.584408879280090332e+00,-7.702600955963134766e-01,-3.177870213985443115e-01,1.249163597822189331e-01,-4.119840264320373535e-01,-3.957682847976684570e-02,2.638986110687255859e-01,-4.368309080600738525e-01,-6.381707191467285156e-01,-4.093417823314666748e-01,-6.023994088172912598e-01,-3.275941312313079834e-01,-3.566006124019622803e-01,-8.306890726089477539e-01,3.918092697858810425e-02,4.821474254131317139e-01,2.338527143001556396e-01,5.874286890029907227e-01,3.876720070838928223e-01,4.532780051231384277e-01,6.716834306716918945e-01,7.483545541763305664e-01,5.027267336845397949e-01,4.069760739803314209e-01,3.046186566352844238e-01,1.317786276340484619e-01,-7.220931649208068848e-01,-1.462240099906921387e+00,-6.715153157711029053e-02,-1.154325485229492188e+00,1.005010381340980530e-01,4.455397725105285645e-01,3.432376682758331299e-01,-6.945904493331909180e-01,-6.019163727760314941e-01,-4.075710773468017578e-01,-2.508866488933563232e-01,-1.152165755629539490e-01,-4.292155504226684570e-01,9.168579429388046265e-02,-5.850281566381454468e-03,-2.987397909164428711e-01,3.874946534633636475e-01,9.817970544099807739e-02,5.020079612731933594e-01,4.648627936840057373e-01,4.464228451251983643e-01,4.694097042083740234e-01,1.864952296018600464e-01,8.273661136627197266e-03,1.273877024650573730e-01,-1.075117141008377075e-01,9.695000201463699341e-02,-6.514301300048828125e-01,2.325022518634796143e-01,-8.073281496763229370e-02,-4.871644079685211182e-01,-9.413242936134338379e-01,-8.286208659410476685e-02,-1.772628664970397949e+00,-2.952145636081695557e-01,-1.016286015510559082e+00,-4.725490510463714600e-01,-1.967276483774185181e-01,-1.074609309434890747e-01,1.282802782952785492e-02,-4.205449521541595459e-01,-4.459747672080993652e-02,-1.353101283311843872e-01,2.746503651142120361e-01,2.222407162189483643e-01,4.354667067527770996e-01,2.386805713176727295e-01,-4.401332437992095947e-01,2.202749252319335938e-02,-9.957138448953628540e-02,-9.092167019844055176e-02,-7.536852359771728516e-02,-4.522324353456497192e-02,-6.971741467714309692e-02,-6.685032695531845093e-02,1.082356125116348267e-01,-3.142345845699310303e-01,-9.224006533622741699e-01,9.333606362342834473e-01,7.555958628654479980e-01,-3.476972281932830811e-01,-1.535146951675415039e+00,6.438210010528564453e-01,6.618685126304626465e-01,1.251873075962066650e-01,3.679811656475067139e-01,1.526066809892654419e-01,-2.276029139757156372e-01,-6.065329909324645996e-02,9.650735557079315186e-02,1.258301585912704468e-01,1.224440485239028931e-01,5.041491985321044922e-01,8.980145305395126343e-02,9.769498556852340698e-02,7.054890692234039307e-02,-9.613852947950363159e-02,-1.921538636088371277e-02,1.133347898721694946e-01,-2.755580544471740723e-01,-2.137242555618286133e-01,-1.542853862047195435e-01,-2.669261991977691650e-01,4.256157875061035156e-01,-5.025503039360046387e-01,-2.223181247711181641e+00,-1.698451638221740723e+00,-5.721881613135337830e-02,-4.046773910522460938e-01,-1.694834589958190918e+00,2.924267649650573730e-01,2.923946380615234375e-01,-7.744605094194412231e-02,-4.642970263957977295e-01,-5.912861227989196777e-02,-8.443757891654968262e-02,-1.144265234470367432e-01,3.458167314529418945e-01,1.989844441413879395e-02,3.212492763996124268e-01,5.409694314002990723e-01,2.019067481160163879e-02,3.080965578556060791e-01,1.354592591524124146e-01,-6.032712012529373169e-02,1.652256585657596588e-02,1.911886334419250488e-01,-4.248224496841430664e-01,-5.632695741951465607e-03,-4.256347715854644775e-01,-1.000516176223754883e+00,-6.514782309532165527e-01,1.363479971885681152e+00,-1.328492045402526855e+00,-7.611509561538696289e-01,1.296110391616821289e+00,-2.284706532955169678e-01,1.127483606338500977e+00,-1.208872079849243164e+00,3.167869150638580322e-01,-1.006004810333251953e+00,-6.531104445457458496e-01,1.550419777631759644e-01,-1.403975486755371094e-01,-3.922869265079498291e-01,5.357261896133422852e-01,3.710707426071166992e-01,-8.789903670549392700e-02,-7.411541417241096497e-03,2.857571467757225037e-02,3.141137063503265381e-01,9.065590798854827881e-02,2.250823378562927246e-01,-9.680515527725219727e-02,-7.892308384180068970e-02,-2.899002134799957275e-01,-1.193402260541915894e-01,-9.664881974458694458e-02,-7.690868377685546875e-01,-9.676032662391662598e-01,3.761619329452514648e-01,-1.642902195453643799e-01,-1.205756664276123047e+00,-1.782031506299972534e-01,1.267546653747558594e+00,2.342550516128540039e+00,-1.023868560791015625e+00,8.298527002334594727e-01,1.395418345928192139e-01,6.227701157331466675e-02,-2.126409560441970825e-01,-3.897385299205780029e-01,-2.211251705884933472e-01,-1.381310168653726578e-02,-1.397633254528045654e-01,-2.889539860188961029e-02,-1.396931707859039307e-01,1.430431008338928223e-01,-2.966086752712726593e-02,2.228614538908004761e-01,1.709106117486953735e-01,-3.297820687294006348e-01,1.501487493515014648e-01,-1.698727160692214966e-01,-8.249469846487045288e-02,9.993626922369003296e-02,-9.363028407096862793e-01,-5.551257729530334473e-01,5.507369041442871094e-01,-2.600355446338653564e-01,-1.266778469085693359e+00,3.281792998313903809e-02,6.995717287063598633e-01,3.426931798458099365e-01,-5.895644426345825195e-01,4.846791028976440430e-01,-2.507209777832031250e-01,-2.016893029212951660e-01,2.625108063220977783e-01,-4.391616582870483398e-01,-3.314917683601379395e-01,-1.752184033393859863e-01,-5.330902338027954102e-01,-3.857308924198150635e-01,-1.705045849084854126e-01,1.787823885679244995e-01,1.859047412872314453e-01,-2.095188200473785400e-01,-2.508921548724174500e-02,-3.065142408013343811e-02,-3.477217257022857666e-01,-5.854749679565429688e-01,-2.803895473480224609e-01,3.470346331596374512e-01,-2.726778686046600342e-01,6.797339916229248047e-01,8.674520850181579590e-01,5.233647823333740234e-01,2.244155295193195343e-02,-3.403261601924896240e-01,-9.152327775955200195e-01,-2.882304787635803223e-01,-3.557892143726348877e-01,-2.288391143083572388e-01,-5.052250027656555176e-01,-2.749193906784057617e-01,2.924596369266510010e-01,2.374332249164581299e-01,-2.337244600057601929e-01,2.052381932735443115e-01,-4.166491627693176270e-01,1.412327587604522705e-01,2.903294563293457031e-02,2.685258686542510986e-01,-1.916679441928863525e-01,-1.440345644950866699e-01,-1.394541561603546143e-01,8.946444839239120483e-02,-6.110361590981483459e-02,1.135580055415630341e-02,-5.855327472090721130e-02,-1.190344542264938354e-01,-7.800428867340087891e-01,6.752133965492248535e-01,-3.896722495555877686e-01,-1.502265810966491699e+00,-1.109284628182649612e-02,-4.641908407211303711e-01,-1.048775762319564819e-02,-2.833177149295806885e-01,-7.386835217475891113e-01,6.953966617584228516e-02,2.836496531963348389e-01,-1.700641065835952759e-01,-1.321042031049728394e-01,-3.392963111400604248e-01,5.420271307229995728e-02,3.760305419564247131e-02,-1.946231573820114136e-01,9.991867095232009888e-02,-2.887458503246307373e-01,-2.891822755336761475e-01,-1.718222945928573608e-01,2.012080512940883636e-02,2.701480090618133545e-01,-6.508173942565917969e-01,-4.683495759963989258e-01,1.633108258247375488e-01,-4.193120896816253662e-01,-8.740411698818206787e-02,-1.720319986343383789e-01,-8.383229970932006836e-01,-1.397156238555908203e+00,-2.021173715591430664e+00,4.469603672623634338e-02,9.311735630035400391e-05,8.452142775058746338e-02,-3.081537187099456787e-01,-8.126896023750305176e-01,-5.748553872108459473e-01,4.076274577528238297e-03,2.698029577732086182e-01,1.843225657939910889e-01,5.117810964584350586e-01,-3.473343849182128906e-01,-2.778015136718750000e-01,-1.854674145579338074e-02,-2.839325368404388428e-01,-2.135723978281021118e-01,-2.678749263286590576e-01,-5.600715801119804382e-02,2.653629286214709282e-03,-2.306418865919113159e-01,2.657640874385833740e-01,7.063743658363819122e-03,-3.202002495527267456e-02,-1.860555410385131836e-01,8.820779323577880859e-01,2.663767933845520020e-01,7.230035662651062012e-01,-8.651810884475708008e-01,-2.127882957458496094e+00,-1.660803705453872681e-02,2.436085045337677002e-02,-8.243347704410552979e-02,8.531998097896575928e-02,-1.089580506086349487e-01,7.530220150947570801e-01,-4.090584814548492432e-01,3.610398173332214355e-01,-1.278972625732421875e-01,-2.486489713191986084e-01,-1.942138820886611938e-01,9.926793724298477173e-02,-1.124967634677886963e-01,-5.379683151841163635e-02,-7.906832545995712280e-02,-4.071627259254455566e-01,2.203421890735626221e-01,-8.792866021394729614e-03,5.954731628298759460e-02,-9.473272413015365601e-02,-8.969923108816146851e-02,6.921386718750000000e-01,6.992951035499572754e-01,4.052876234054565430e-01,1.109247207641601562e+00,-4.579114317893981934e-01,-1.110054016113281250e+00,-5.692947506904602051e-01,5.970109999179840088e-02,-2.413824573159217834e-02,3.473580628633499146e-02,8.705281615257263184e-01,-1.401998043060302734e+00,-7.129160165786743164e-01,1.064278721809387207e+00,6.574068069458007812e-01,6.112039685249328613e-01,6.539229750633239746e-01,2.595411241054534912e-01,3.327265083789825439e-01,6.295135021209716797e-01,5.451791286468505859e-01,3.212191537022590637e-02,4.671308100223541260e-01,7.056231796741485596e-02,3.374991118907928467e-01,1.135614067316055298e-01,5.326130986213684082e-01,5.625920295715332031e-01,6.175031065940856934e-01,6.905554533004760742e-01,-1.844857037067413330e-01,-6.660625934600830078e-01,-1.032909631729125977e+00,4.084296822547912598e-01,-6.220340728759765625e-01,7.004347443580627441e-02,-4.374943673610687256e-02,2.892264723777770996e-02,-1.824166625738143921e-02,1.237559020519256592e-01,-1.945109516382217407e-01,1.363722234964370728e-01,9.089170098304748535e-01,2.153965711593627930e+00,1.059460997581481934e+00,1.231785416603088379e+00,1.175996422767639160e+00,7.482443451881408691e-01,6.914601922035217285e-01,1.221331954002380371e+00,1.380380272865295410e+00,1.579042226076126099e-01,3.869976997375488281e-01,9.477579593658447266e-02,6.698113679885864258e-01,1.225539967417716980e-01,8.607691526412963867e-01,1.071149468421936035e+00,6.836010217666625977e-01,3.672237321734428406e-02,9.032890200614929199e-01,3.148759603500366211e-01,-7.614223659038543701e-02,-6.061439216136932373e-02,5.681750178337097168e-02,-4.667731374502182007e-02,-7.266639918088912964e-02,-3.794958069920539856e-02,-2.933680117130279541e-01,-1.994489580392837524e-01,9.697177410125732422e-01,1.455534100532531738e+00,1.430350184440612793e+00,-3.271861076354980469e-01,8.074824213981628418e-01,-1.207191571593284607e-01,6.184305548667907715e-01,1.519905924797058105e-01,6.500007510185241699e-01,1.006470441818237305e+00,-6.181460991501808167e-02,4.606856405735015869e-01,1.229256987571716309e+00,8.799429237842559814e-02,-1.034520030021667480e+00,3.798308670520782471e-01,3.895709812641143799e-01,1.067780137062072754e+00,5.102956295013427734e-02,-6.213595718145370483e-02,-5.217778682708740234e-02,8.613981306552886963e-02,5.183719098567962646e-02,6.600125133991241455e-02,-1.037617772817611694e-02,-4.218099266290664673e-02,6.499291956424713135e-02,-4.139431938529014587e-02,-9.486228227615356445e-04,-1.666910946369171143e-03,-3.200903534889221191e-03,-6.403987109661102295e-02,1.671029627323150635e-02,-3.971270099282264709e-02,-8.173512667417526245e-02,-1.728751137852668762e-02,3.939391672611236572e-02,-1.093548536300659180e-02,2.753336727619171143e-02,-7.840035110712051392e-02,8.040888607501983643e-02,-4.811478778719902039e-02,-8.483357727527618408e-02,7.016791403293609619e-02,3.470998257398605347e-02,-4.151322320103645325e-02,1.747757196426391602e-03,7.008725404739379883e-02,-7.186613231897354126e-02,8.243206143379211426e-02,-4.966875165700912476e-02,-2.293472737073898315e-02,5.860605835914611816e-02,-4.050831124186515808e-02,8.176028728485107422e-02,-4.346933960914611816e-02,-2.147493138909339905e-02,-2.436679042875766754e-02,4.724793434143066406e-01,5.993041992187500000e-01,-3.560105264186859131e-01,4.347306787967681885e-01,-6.905288100242614746e-01,-5.604175925254821777e-01,-6.504475474357604980e-01,-3.683362603187561035e-01,1.336466670036315918e+00,3.708625435829162598e-01,2.468979358673095703e-01,-8.609406352043151855e-01,-8.367848992347717285e-01,-4.985764026641845703e-01,-3.145157173275947571e-02,-1.808214932680130005e-02,-7.738199084997177124e-02,-2.188775688409805298e-02,4.033458232879638672e-02,8.242417871952056885e-02,-2.663477510213851929e-02,2.972319722175598145e-02,-5.775021761655807495e-02,-5.840314552187919617e-02,-5.493489503860473633e-01,-8.029288053512573242e-01,-6.661017239093780518e-02,-8.312915563583374023e-01,5.684506893157958984e-01,1.380828142166137695e+00,7.308307886123657227e-01,4.566659331321716309e-01,5.751779079437255859e-01,3.633814454078674316e-01,1.120173573493957520e+00,3.652147054672241211e-01,-2.466194033622741699e-01,1.431676596403121948e-01,2.452952116727828979e-01,-3.882558345794677734e-01,3.233749568462371826e-01,5.049618482589721680e-01,2.594298869371414185e-02,8.314249515533447266e-01,1.547458171844482422e+00,1.228765487670898438e+00,-4.797763749957084656e-02,3.529563546180725098e-02,-4.287531226873397827e-02,3.565786033868789673e-02,6.354448795318603516e-01,-8.048863410949707031e-01,-1.320792794227600098e+00,7.330207228660583496e-01,7.087062001228332520e-01,-6.294023990631103516e-01,8.416576981544494629e-01,1.843716621398925781e+00,5.952206850051879883e-01,8.615146279335021973e-01,8.000629544258117676e-01,4.126641154289245605e-01,7.083491683006286621e-01,7.120998501777648926e-01,4.143379628658294678e-01,4.641129672527313232e-01,-3.493405282497406006e-01,-1.930353417992591858e-02,-2.836258113384246826e-01,3.056027926504611969e-03,-2.790627181529998779e-01,-1.684615612030029297e+00,8.264178037643432617e-01,1.103430271148681641e+00,-2.943810224533081055e-01,-5.765452980995178223e-02,3.477402031421661377e-03,-2.269010692834854126e-01,1.482205390930175781e+00,-6.202561855316162109e-01,-3.412795960903167725e-01,6.160724163055419922e-01,1.253262162208557129e+00,7.624809145927429199e-01,-2.228488922119140625e-01,1.115458130836486816e+00,6.801798343658447266e-01,3.474984765052795410e-01,5.243397951126098633e-01,1.413878649473190308e-01,3.057052791118621826e-01,3.606233000755310059e-01,4.662348926067352295e-01,3.708351552486419678e-01,3.118019104003906250e-01,4.907185137271881104e-01,4.658825397491455078e-01,2.787920534610748291e-01,7.740154862403869629e-02,-1.791830897331237793e+00,2.907876670360565186e-01,7.873480916023254395e-01,-6.784028410911560059e-01,-4.335264563560485840e-01,-1.923195272684097290e-02,4.286769032478332520e-02,1.380362868309020996e+00,-1.222872614860534668e+00,-1.693943142890930176e-01,-3.588855266571044922e-01,-2.283383011817932129e-01,1.967623382806777954e-01,4.209321737289428711e-02,-8.390327543020248413e-02,3.075130879878997803e-01,4.849373996257781982e-01,7.304480075836181641e-01,1.447769850492477417e-01,-3.218745812773704529e-02,-4.470476508140563965e-02,2.658735811710357666e-01,1.080979555845260620e-01,1.653280258178710938e-01,-2.980017066001892090e-01,2.207735329866409302e-01,8.171311020851135254e-02,-2.533724159002304077e-02,1.741529405117034912e-01,-5.630968809127807617e-01,-3.085754513740539551e-01,-6.247279047966003418e-01,-4.639455676078796387e-01,5.514842271804809570e-02,5.506374239921569824e-01,7.802285552024841309e-01,-9.328929781913757324e-01,-2.305262684822082520e-01,-4.541848003864288330e-01,-2.288894206285476685e-01,2.466197460889816284e-01,-3.842246904969215393e-02,9.905393421649932861e-02,4.248316586017608643e-01,2.191724777221679688e-01,1.636758446693420410e-01,4.830182194709777832e-01,3.013161122798919678e-01,-1.036557331681251526e-01,1.371207684278488159e-01,-1.045006662607192993e-01,2.690132260322570801e-01,8.397404849529266357e-02,2.161114662885665894e-01,-4.917674362659454346e-01,3.923131227493286133e-01,2.675511874258518219e-03,-5.620997548103332520e-01,-1.442454457283020020e+00,-1.382538378238677979e-01,-6.325915455818176270e-02,6.468083243817090988e-03,1.746612071990966797e+00,-2.618922293186187744e-01,2.710782587528228760e-01,2.447198703885078430e-02,4.727075695991516113e-01,6.039422377943992615e-02,8.630566881038248539e-04,1.574708372354507446e-01,-1.683025509119033813e-01,6.690393388271331787e-02,3.861858248710632324e-01,1.442852914333343506e-01,4.753897488117218018e-01,3.475928008556365967e-01,-3.927727695554494858e-03,-2.391639864072203636e-03,1.406036131083965302e-02,-3.412563204765319824e-01,-1.302076280117034912e-01,4.422095417976379395e-02,-5.565994419157505035e-03,4.965294599533081055e-01,2.864165604114532471e-01,-9.639021754264831543e-01,-1.596836805343627930e+00,-1.255979239940643311e-01,5.906512215733528137e-02,-3.216030774638056755e-03,1.155105829238891602e+00,-1.363491177558898926e+00,-1.643313318490982056e-01,1.469001471996307373e-01,-1.208746880292892456e-01,-5.679454803466796875e-01,-2.944391667842864990e-01,6.379134953022003174e-02,-3.215895593166351318e-02,-5.726227164268493652e-02,1.343478411436080933e-01,1.946567595005035400e-01,-1.458156947046518326e-02,4.369839429855346680e-01,3.831779658794403076e-01,-6.849055737257003784e-02,2.138006314635276794e-02,2.336206138134002686e-01,5.607732385396957397e-02,-2.491068840026855469e-01,2.076688222587108612e-02,1.594291329383850098e-01,-4.359397292137145996e-01,-9.816675782203674316e-01,-1.623447656631469727e+00,-7.518497705459594727e-01,-4.446811228990554810e-02,9.425044804811477661e-02,9.442117214202880859e-01,-7.028517127037048340e-01,-1.346971094608306885e-01,2.792135812342166901e-02,6.874017715454101562e-01,-3.696025609970092773e-01,-7.430371642112731934e-02,-4.254958331584930420e-01,-4.662824794650077820e-02,2.873333692550659180e-01,-3.092226386070251465e-01,-4.024953842163085938e-01,-1.288779497146606445e+00,-7.408230900764465332e-01,-2.270242422819137573e-01,2.029066681861877441e-01,-2.161354869604110718e-01,1.245281994342803955e-01,2.160225212574005127e-01,6.272295117378234863e-02,-2.397497147321701050e-01,2.562533915042877197e-01,5.028923153877258301e-01,-2.426276206970214844e+00,9.377908706665039062e-01,-5.707264542579650879e-01,-4.149761199951171875e-01,9.474069811403751373e-03,3.525577187538146973e-01,9.217010736465454102e-01,-4.356864988803863525e-01,1.906588077545166016e-01,4.595161974430084229e-01,8.083376288414001465e-02,1.834586858749389648e-01,-2.826254367828369141e-01,-7.137379050254821777e-01,-1.379787921905517578e+00,-2.498394012451171875e+00,-1.784139633178710938e+00,-8.637821674346923828e-01,-6.753129959106445312e-01,-4.649572968482971191e-01,-6.766045838594436646e-02,1.681555509567260742e-01,1.803057044744491577e-01,-1.242840066552162170e-01,1.042552366852760315e-01,-5.387492850422859192e-02,2.451343238353729248e-01,-5.247430205345153809e-01,-1.708530545234680176e+00,8.200981616973876953e-01,7.506042122840881348e-01,-3.701795339584350586e-01,1.153956651687622070e-01,3.460880815982818604e-01,6.342778801918029785e-01,-1.563034057617187500e-01,-1.195268034934997559e+00,-3.584922254085540771e-01,-1.195461988449096680e+00,-1.963792562484741211e+00,-2.114678144454956055e+00,-3.174002647399902344e+00,-2.023840904235839844e+00,-7.984236478805541992e-01,-6.367024034261703491e-02,-6.972922012209892273e-03,-4.538763314485549927e-02,4.059819504618644714e-02,1.887809336185455322e-01,2.373566105961799622e-02,1.156562473624944687e-02,-5.178173258900642395e-02,-2.695687115192413330e-01,-1.529209613800048828e-01,1.963822096586227417e-01,-4.929762482643127441e-01,-5.087471008300781250e-01,4.284715652465820312e-01,-9.492731690406799316e-01,6.448327563703060150e-03,8.203937858343124390e-02,-6.301105618476867676e-01,-7.836713790893554688e-01,5.465651303529739380e-02,-3.163696527481079102e+00,-2.698796987533569336e+00,-4.170361995697021484e+00,-2.941237688064575195e+00,-9.667072296142578125e-01,-9.252146482467651367e-01,3.105739653110504150e-01,5.996065735816955566e-01,-4.142332822084426880e-02,1.554125100374221802e-01,-8.953302353620529175e-02,-1.423732489347457886e-01,-2.787578105926513672e-02,-3.373149037361145020e-01,-4.826248809695243835e-02,-9.618949145078659058e-02,1.899247616529464722e-01,-2.056084871292114258e-01,-7.716271877288818359e-01,-2.632503211498260498e-01,7.226849794387817383e-01,6.063373684883117676e-01,-1.012256622314453125e+00,3.402720764279365540e-02,-6.022679209709167480e-01,-9.752584695816040039e-01,-4.338119626045227051e-01,-7.791569828987121582e-01,-2.006443977355957031e+00,-9.032038450241088867e-01,-2.435401976108551025e-01,-1.634183377027511597e-01,2.466441690921783447e-02,4.805797338485717773e-01,6.612270474433898926e-01,1.060633137822151184e-01,3.148931860923767090e-01,2.803570330142974854e-01,1.353545207530260086e-02,-1.864829659461975098e-01,1.664396822452545166e-01,-3.006622195243835449e-01,-1.250510811805725098e-01,6.550984084606170654e-02,1.510213166475296021e-01,-3.525629937648773193e-01,1.077720075845718384e-01,-5.662884712219238281e-01,3.407390713691711426e-01,-4.936822354793548584e-01,-2.561845481395721436e-01,1.176466226577758789e+00,8.155645430088043213e-02,-3.124622702598571777e-01,-5.555196404457092285e-01,-2.736469507217407227e-01,1.161369323730468750e+00,8.172000050544738770e-01,9.016779661178588867e-01,8.797270655632019043e-01,2.128575742244720459e-01,4.861253499984741211e-01,1.209731549024581909e-01,2.176209241151809692e-01,-4.365034028887748718e-02,1.122301295399665833e-01,9.495994448661804199e-02,-3.017256259918212891e-01,3.754834458231925964e-02,-1.617962270975112915e-01,6.312964111566543579e-02,-1.047166734933853149e-01,7.941725105047225952e-02,2.715371251106262207e-01,2.454004883766174316e-01,4.119085520505905151e-02,8.494272828102111816e-02,-4.890145063400268555e-01,1.911808133125305176e+00,1.023483872413635254e+00,9.913909435272216797e-02,3.086632490158081055e-01,6.430478692054748535e-01,5.151171684265136719e-01,5.796967148780822754e-01,5.172013044357299805e-01,9.547095298767089844e-01,2.411209791898727417e-02,-4.642888307571411133e-01,-1.383013278245925903e-01,8.554160594940185547e-02,-1.063347756862640381e-01,-1.831163465976715088e-01,1.549902111291885376e-01,1.011760532855987549e-02,2.609966099262237549e-01,-1.313484758138656616e-01,-2.215002179145812988e-01,3.693083673715591431e-02,6.204399093985557556e-02,-1.141574606299400330e-01,6.147316694259643555e-01,-5.045775175094604492e-01,4.618787467479705811e-01,4.077599570155143738e-02,3.974683880805969238e-01,2.000044584274291992e+00,1.759364485740661621e+00,8.399763703346252441e-02,4.625185728073120117e-01,5.805824995040893555e-01,8.905293941497802734e-01,2.370722293853759766e-01,3.640349209308624268e-01,2.954533100128173828e-01,-3.000152111053466797e-01,-5.086256861686706543e-01,-2.869586050510406494e-01,1.929666548967361450e-01,-4.642216861248016357e-02,1.933020073920488358e-03,6.205275654792785645e-02,7.136047631502151489e-02,9.110674262046813965e-03,6.642103940248489380e-02,1.462407317012548447e-02,-1.278126090764999390e-01,1.972184181213378906e-01,9.709002822637557983e-02,-3.706376999616622925e-02,-4.419110119342803955e-01,5.969308689236640930e-02,-9.629609435796737671e-02,7.072211503982543945e-01,1.242015838623046875e+00,1.852110266685485840e+00,-2.784325927495956421e-02,3.270469307899475098e-01,4.475720524787902832e-01,6.903150677680969238e-01,-2.508339583873748779e-01,4.042794406414031982e-01,-2.698543071746826172e-01,-2.147175818681716919e-01,-2.433527559041976929e-01,-2.503609955310821533e-01,-1.354992836713790894e-01,3.674380853772163391e-02,-7.007913291454315186e-02,-3.809744715690612793e-01,2.393546886742115021e-02,2.558176219463348389e-02,-1.385749280452728271e-01,-1.878283470869064331e-01,-1.682329922914505005e-01,-2.855706587433815002e-02,-5.901549458503723145e-01,-4.115553796291351318e-01,-2.184276431798934937e-01,-6.640091538429260254e-01,5.441211462020874023e-01,2.312988042831420898e+00,7.361338287591934204e-02,2.279433727264404297e+00,1.016851663589477539e+00,7.117033004760742188e-01,-8.970444649457931519e-02,7.625363469123840332e-01,-2.410459518432617188e-01,4.163138568401336670e-01,3.765962123870849609e-01,1.833639889955520630e-01,1.713837534189224243e-01,3.338672816753387451e-01,1.596845984458923340e-01,-2.807882130146026611e-01,6.567761301994323730e-02,1.796981245279312134e-01,-1.015359759330749512e-01,-1.873252987861633301e-01,1.482782959938049316e-01,2.628209888935089111e-01,-1.512870490550994873e-01,2.452676147222518921e-01,1.113292127847671509e-01,2.833359837532043457e-01,3.333815038204193115e-01,-1.318362355232238770e-01,4.099668562412261963e-01,1.524907827377319336e+00,1.045727252960205078e+00,1.573834776878356934e+00,-1.917542815208435059e-01,3.568572103977203369e-01,-1.022276043891906738e+00,-1.442086137831211090e-02,-3.452550172805786133e-01,9.873545914888381958e-02,-6.240662187337875366e-02,3.001185059547424316e-01,-4.409925341606140137e-01,-1.242575496435165405e-01,-4.034418463706970215e-01,1.794708520174026489e-01,-3.255726769566535950e-02,2.442870289087295532e-01,-8.617495745420455933e-02,-2.169362902641296387e-01,8.919443190097808838e-02,5.644333735108375549e-02,4.209685921669006348e-01,2.029568254947662354e-01,2.479617744684219360e-01,4.348195195198059082e-01,1.703083366155624390e-01,6.076877713203430176e-01,3.269299268722534180e-01,3.176914453506469727e-01,7.958747744560241699e-01,7.380550503730773926e-01,3.885155916213989258e-02,5.510854721069335938e-01,-7.489463686943054199e-01,2.788378894329071045e-01,6.448592543601989746e-01,7.765579819679260254e-01,-3.234408497810363770e-01,2.253098487854003906e-01,-2.531475126743316650e-01,9.905118495225906372e-02,1.417690515518188477e-01,4.308794811367988586e-02,2.696433067321777344e-01,1.291114538908004761e-01,9.675705432891845703e-02,2.828197479248046875e-01,4.881846904754638672e-02,-1.159907802939414978e-01,3.383031487464904785e-02,-1.983439922332763672e-01,-2.547133564949035645e-01,2.120196670293807983e-01,-1.283681839704513550e-01,-1.890158951282501221e-01,4.214354455471038818e-01,-1.311360448598861694e-01,-2.451835274696350098e-01,-6.730604171752929688e-01,-3.086499571800231934e-01,-5.590420961380004883e-01,-6.193092465400695801e-01,-4.808262884616851807e-01,-1.085422858595848083e-01,-2.407380044460296631e-01,-1.319856345653533936e-01,1.179027110338211060e-01,1.164320930838584900e-01,1.077115610241889954e-01,1.428995747119188309e-02,-6.971819326281547546e-03,-5.895918980240821838e-02,-9.934889525175094604e-02,8.244016766548156738e-02,-3.858707249164581299e-01,-2.144471369683742523e-02,-1.427803635597229004e-01,1.504798680543899536e-01,1.772290319204330444e-01,5.918382480740547180e-02,3.333776295185089111e-01,-6.773867458105087280e-02,6.297892928123474121e-01,2.704099416732788086e-01,2.003646612167358398e+00,6.032735705375671387e-01,5.584724247455596924e-02,-2.259673774242401123e-01,4.338277503848075867e-02,-1.748999357223510742e-01,2.810467481613159180e-01,-6.862201690673828125e-01,5.666372925043106079e-02,-3.357633948326110840e-01,1.383463293313980103e-01,1.169109493494033813e-01,-4.033882021903991699e-01,2.310663759708404541e-01,1.400013118982315063e-01,-3.573839068412780762e-01,-5.260181613266468048e-03,1.793181449174880981e-01,-3.894302845001220703e-01,2.901190519332885742e-01,4.586229100823402405e-02,-1.681202203035354614e-01,3.819495439529418945e-01,2.423343807458877563e-01,8.632510900497436523e-02,-2.025830447673797607e-01,-1.702371090650558472e-01,1.692286968231201172e+00,2.026194483041763306e-01,-7.344301342964172363e-01,8.634818345308303833e-02,-2.199901640415191650e-02,-8.320699632167816162e-02,7.462187409400939941e-01,2.098778188228607178e-01,-4.634937942028045654e-01,6.718786358833312988e-01,-2.723235487937927246e-01,5.536997914314270020e-01,-1.725786030292510986e-01,3.013377189636230469e-01,-1.348130702972412109e-01,5.555582046508789062e-02,-1.734018698334693909e-02,-3.253364190459251404e-02,1.777271628379821777e-01,1.124889776110649109e-01,6.997504085302352905e-02,-1.883578896522521973e-01,1.920089125633239746e-01,3.897300362586975098e-01,4.197190999984741211e-01,7.355253100395202637e-01,1.149268150329589844e+00,-1.574114561080932617e-01,7.057662010192871094e-01,-3.608893454074859619e-01,-2.799856960773468018e-01,5.550530552864074707e-02,-4.869617894291877747e-02,8.126412332057952881e-02,1.860988438129425049e-01,-6.646533012390136719e-01,2.374689280986785889e-02,-1.093086674809455872e-01,-1.786141246557235718e-01,2.852304279804229736e-01,8.806776404380798340e-01,3.362072110176086426e-01,3.396861851215362549e-01,1.222101822495460510e-01,1.824777573347091675e-01,2.774651348590850830e-01,2.714931666851043701e-01,1.781049817800521851e-01,-1.938445121049880981e-01,2.922379970550537109e-01,-8.501701802015304565e-02,2.719512581825256348e-01,1.438691914081573486e-01,-4.145552963018417358e-02,2.990238964557647705e-01,-1.016112685203552246e+00,-2.278267443180084229e-01,-2.505786418914794922e-01,7.627142220735549927e-02,3.369087725877761841e-02,6.820103526115417480e-02,-7.145988941192626953e-02,-1.200396567583084106e-01,7.574790716171264648e-01,7.697670459747314453e-01,-2.024551481008529663e-02,1.462761163711547852e-01,4.094869792461395264e-01,2.154305428266525269e-01,4.774700105190277100e-01,7.016645669937133789e-01,3.317416608333587646e-01,1.014561176300048828e+00,3.826213181018829346e-01,3.652606904506683350e-01,8.875271677970886230e-01,2.020797580480575562e-01,1.206578612327575684e+00,8.730394244194030762e-01,7.084526419639587402e-01,7.864151895046234131e-02,-6.800718307495117188e-01,-2.561778724193572998e-01,-1.247886419296264648e+00,1.736184395849704742e-02,1.742528378963470459e-01,4.664938524365425110e-02,3.725651651620864868e-02,3.198886662721633911e-02,4.635688662528991699e-02,4.915229976177215576e-03,1.693069934844970703e-02,-2.420240826904773712e-02,3.912392556667327881e-01,-5.464448779821395874e-02,4.855670332908630371e-01,5.850987434387207031e-01,4.465593099594116211e-01,1.202961087226867676e+00,4.671667218208312988e-01,1.431038975715637207e+00,9.256463646888732910e-01,3.887902796268463135e-01,-5.425747632980346680e-01,4.401651024818420410e-01,7.425873875617980957e-01,5.341413021087646484e-01,1.219088912010192871e+00,1.435494184494018555e+00,1.168684601783752441e+00,-1.306741237640380859e-01,-5.188000947237014771e-02,4.068882763385772705e-02,5.418941006064414978e-02,5.430187284946441650e-02,-8.246748149394989014e-02,-6.053390353918075562e-02,7.821373641490936279e-03,4.687304794788360596e-02,5.314129590988159180e-02,-5.243708565831184387e-02,-3.984984010457992554e-02,6.432959437370300293e-02,1.985952816903591156e-02,5.184848979115486145e-02,1.687857508659362793e-01,6.879817843437194824e-01,8.995819091796875000e-01,9.178715944290161133e-01,1.962374150753021240e-01,7.071852684020996094e-01,3.716480731964111328e-01,1.055072322487831116e-01,7.042642682790756226e-02,2.066155821084976196e-01,6.345379352569580078e-02,1.521028392016887665e-02,-7.033434510231018066e-02,-1.299992650747299194e-01,-1.067756116390228271e-02,-7.064366340637207031e-02,-3.706153482198715210e-02,1.746498048305511475e-03,-4.004792496562004089e-02,-3.340827673673629761e-02,7.498288154602050781e-02,-4.602462053298950195e-02,-6.731793284416198730e-02,-4.175350069999694824e-03,5.715404450893402100e-02,-5.853833258152008057e-02,5.709300935268402100e-02,-4.072302952408790588e-02,1.587407290935516357e-02,-2.082245796918869019e-02,5.926214158535003662e-03,4.834730029106140137e-01,6.775123476982116699e-01,-6.486209481954574585e-02,-6.504132598638534546e-02,4.524838924407958984e-02,5.636765062808990479e-02,5.626405775547027588e-02,-5.444149672985076904e-02,-4.253147915005683899e-02,7.529518008232116699e-02,7.261605560779571533e-02,4.806914925575256348e-02,6.025716662406921387e-03,5.572883784770965576e-02,-4.894001781940460205e-02,-5.001794174313545227e-02,5.246692895889282227e-02,8.148550987243652344e-03,7.023054361343383789e-02,-1.372324675321578979e-02,1.201042905449867249e-02,9.931785613298416138e-02,3.278923630714416504e-01,5.258609056472778320e-01,1.135913848876953125e+00,7.281520962715148926e-01,1.364754199981689453e+00,1.071016550064086914e+00,9.625588059425354004e-01,1.531883835792541504e+00,6.543209403753280640e-02,1.482236266136169434e+00,9.268109202384948730e-01,1.399146795272827148e+00,1.165880322456359863e+00,2.616736888885498047e+00,2.574587583541870117e+00,2.202685117721557617e+00,1.330974817276000977e+00,4.670983254909515381e-01,-1.232744008302688599e-02,2.821755409240722656e-02,-6.653510034084320068e-03,2.824299037456512451e-02,-6.678839772939682007e-02,3.041855245828628540e-02,2.188299298286437988e-01,1.159843683242797852e+00,2.047046184539794922e+00,1.261267066001892090e+00,2.271055459976196289e+00,2.834992408752441406e+00,1.591579556465148926e+00,2.223325014114379883e+00,1.642425179481506348e+00,1.119674205780029297e+00,6.809819936752319336e-01,2.832190036773681641e+00,1.490552067756652832e+00,1.216234564781188965e+00,1.345639586448669434e+00,9.515237808227539062e-01,1.886211156845092773e+00,3.763386487960815430e+00,3.014869451522827148e+00,2.894783258438110352e+00,2.709160804748535156e+00,1.114199995994567871e+00,1.444389939308166504e+00,1.018417596817016602e+00,-1.829025149345397949e-02,-9.763270616531372070e-03,6.963816285133361816e-02,6.617136299610137939e-02,8.805544972419738770e-01,1.695107698440551758e+00,-1.179120540618896484e+00,-2.713217437267303467e-01,-5.610239878296852112e-02,-2.660552859306335449e-01,5.271356105804443359e-01,1.636966824531555176e+00,1.085055232048034668e+00,6.171644926071166992e-01,1.951987296342849731e-01,8.624604940414428711e-01,4.474272206425666809e-02,1.539730578660964966e-01,-1.297533214092254639e-01,-2.040950804948806763e-01,3.033408522605895996e-01,3.251920342445373535e-01,3.673833012580871582e-01,1.700611948966979980e+00,1.774959802627563477e+00,1.533819913864135742e+00,1.792755961418151855e+00,8.898130655288696289e-01,-1.222806349396705627e-01,7.851822674274444580e-02,-5.318207666277885437e-02,1.223841160535812378e-01,1.593318581581115723e+00,-6.441039443016052246e-01,9.589629769325256348e-01,-2.607751190662384033e-01,5.232463479042053223e-01,5.353093743324279785e-01,1.240495443344116211e+00,3.451120853424072266e-01,1.051595509052276611e-01,1.840770989656448364e-01,3.809422254562377930e-01,4.245573878288269043e-01,2.555871009826660156e-01,3.899849653244018555e-01,9.342006593942642212e-02,6.151504516601562500e-01,4.206874221563339233e-02,-6.421256065368652344e-01,5.024322271347045898e-01,1.281535625457763672e-01,8.456162810325622559e-01,1.504287958145141602e+00,-4.103236794471740723e-01,-4.016489684581756592e-01,1.321728974580764771e-01,7.422019839286804199e-01,-3.872496634721755981e-02,-5.159462243318557739e-02,2.717581272125244141e+00,-2.615997791290283203e-01,1.098234772682189941e+00,-1.271391153335571289e+00,6.037558428943157196e-03,-4.200127720832824707e-01,-1.947645694017410278e-01,-4.604507982730865479e-01,4.650280177593231201e-01,-6.167383864521980286e-02,-2.097083181142807007e-01,1.529458761215209961e-01,-2.669668197631835938e-01,5.420904755592346191e-01,-2.693455517292022705e-01,2.687137424945831299e-01,2.741159200668334961e-01,3.279473185539245605e-01,2.295783758163452148e-01,5.569838881492614746e-01,2.936112135648727417e-02,1.047124266624450684e-01,1.245250344276428223e+00,1.390541046857833862e-01,2.227163463830947876e-01,9.205484390258789062e-01,-2.173921465873718262e-02,-2.397235780954360962e-01,-8.491175770759582520e-01,-6.882384419441223145e-01,4.496882855892181396e-01,-1.057225346565246582e+00,-2.949697077274322510e-01,6.184781789779663086e-01,-8.077353984117507935e-02,-1.599853672087192535e-02,-1.458002626895904541e-01,-7.331373542547225952e-02,-7.541907578706741333e-02,1.075483635067939758e-01,5.053961873054504395e-01,3.580855131149291992e-01,2.396926432847976685e-01,-1.319110989570617676e-01,-1.022785082459449768e-01,-2.746026515960693359e-01,-1.610887050628662109e-01,-2.463090568780899048e-01,-3.998690843582153320e-01,2.311552464962005615e-01,-7.632324099540710449e-02,1.186296463012695312e+00,1.269112467765808105e+00,2.426917999982833862e-01,1.353087276220321655e-01,-1.553606152534484863e+00,-6.764439344406127930e-01,-1.012408256530761719e+00,4.657432436943054199e-01,-7.406917810440063477e-01,-1.069678738713264465e-01,-4.041086435317993164e-01,2.058804482221603394e-01,-2.797746360301971436e-01,-2.150162607431411743e-01,1.154813840985298157e-01,1.290460675954818726e-01,1.187136247754096985e-01,4.284546673297882080e-01,4.028266072273254395e-01,1.228655651211738586e-01,-1.502562016248703003e-01,3.749603033065795898e-02,1.617358624935150146e-01,-2.726650536060333252e-01,-1.064191013574600220e-01,-5.928628146648406982e-02,-6.934879422187805176e-01,-9.859478473663330078e-02,4.298796355724334717e-01,7.641012072563171387e-01,3.934465944766998291e-01,-6.008242368698120117e-01,-1.397004485130310059e+00,3.494462370872497559e-01,-1.596980392932891846e-01,9.254104644060134888e-02,-1.391620337963104248e-01,-2.148165404796600342e-01,-7.563546895980834961e-01,5.705269426107406616e-02,-9.852256625890731812e-02,-2.383365482091903687e-01,-1.723131388425827026e-01,-1.388658583164215088e-01,-8.818190544843673706e-03,1.196951493620872498e-01,-9.033519029617309570e-02,9.383875876665115356e-02,-1.023737639188766479e-01,-2.063889205455780029e-01,-8.748400956392288208e-02,-3.266316950321197510e-01,1.682374179363250732e-01,-3.142430633306503296e-02,-6.060352921485900879e-01,6.489919424057006836e-01,1.021265864372253418e+00,1.634843349456787109e+00,-7.745559215545654297e-01,-3.842431902885437012e-01,-1.620918393135070801e+00,5.399491637945175171e-03,2.588677220046520233e-03,-2.288369238376617432e-01,1.995915919542312622e-01,-1.548499334603548050e-02,6.016536802053451538e-02,-1.023771464824676514e-01,1.146339401602745056e-01,2.241695970296859741e-01,2.025046572089195251e-02,1.300614029169082642e-01,-2.481194213032722473e-02,-3.121104463934898376e-02,1.758587509393692017e-01,1.138886734843254089e-01,-2.326827049255371094e-01,-1.406449079513549805e-01,5.413735751062631607e-03,-1.141534075140953064e-01,-7.324092388153076172e-01,-2.977260947227478027e-01,-3.714051246643066406e-01,7.574245333671569824e-01,2.609228789806365967e-01,-4.935558438301086426e-01,-1.374486684799194336e+00,-5.182593464851379395e-01,-1.035641312599182129e+00,-1.053301572799682617e+00,1.152160525321960449e+00,1.963795162737369537e-03,4.946668148040771484e-01,5.058996081352233887e-01,-3.789432346820831299e-02,5.639212578535079956e-02,-2.026584893465042114e-01,4.675212875008583069e-02,2.512311041355133057e-01,4.368590116500854492e-01,-3.364787697792053223e-01,-4.456207454204559326e-01,-7.727996110916137695e-01,-2.428588122129440308e-01,-6.876331567764282227e-02,3.152294158935546875e-01,-8.572553098201751709e-02,-4.833960533142089844e-02,2.302723675966262817e-01,9.199631959199905396e-02,5.895865559577941895e-01,-4.017024487257003784e-02,-5.573402047157287598e-01,2.764520943164825439e-01,-1.442587614059448242e+00,-3.322677453979849815e-03,2.487532794475555420e-01,1.725270897150039673e-01,1.085362508893013000e-01,4.995909631252288818e-01,2.840891182422637939e-01,2.602153420448303223e-01,1.513027995824813843e-01,5.968729257583618164e-01,2.922461926937103271e-01,-3.777526691555976868e-02,-2.943356037139892578e-01,-3.414517939090728760e-01,-7.820448279380798340e-01,-6.769275665283203125e-01,-2.783313095569610596e-01,1.310442686080932617e-01,8.029763400554656982e-02,2.920071184635162354e-01,2.262212932109832764e-01,6.323950886726379395e-01,8.207746744155883789e-01,7.449538111686706543e-01,4.060923755168914795e-01,-1.110486537218093872e-01,8.498096466064453125e-02,5.927886962890625000e-01,-8.036389946937561035e-01,2.065630108118057251e-01,-1.558308452367782593e-01,2.721078395843505859e-01,-1.727856397628784180e-01,6.283709406852722168e-01,6.731244325637817383e-01,5.425537228584289551e-01,1.830657720565795898e-01,-2.557435333728790283e-01,-1.611601002514362335e-02,-2.588288784027099609e-01,-1.077248007059097290e-01,-3.220513463020324707e-01,-3.585603237152099609e-01,-4.086681604385375977e-01,-3.795419931411743164e-01,-1.571186035871505737e-01,1.824949085712432861e-01,1.614164561033248901e-01,1.550178229808807373e-01,2.915266752243041992e-01,2.188710570335388184e-01,1.867976933717727661e-01,1.387485742568969727e+00,1.913561820983886719e+00,-1.024594545364379883e+00,-1.698521971702575684e+00,-1.134393095970153809e+00,5.430662631988525391e-01,9.431337118148803711e-01,-2.972186207771301270e-01,-5.212765932083129883e-01,4.982068836688995361e-01,3.817970454692840576e-01,-1.099997833371162415e-01,3.270896673202514648e-01,3.857564926147460938e-01,8.218338340520858765e-02,6.850522011518478394e-02,-4.108469784259796143e-01,-5.254981294274330139e-02,-4.414289891719818115e-01,1.772604882717132568e-01,6.993785500526428223e-02,1.431105285882949829e-01,2.669481635093688965e-01,-5.543351545929908752e-02,4.873551726341247559e-01,1.523388177156448364e-01,-2.303546816110610962e-01,2.929879128932952881e-01,1.160656511783599854e-01,3.291882202029228210e-02,-5.301909446716308594e-01,-1.019893646240234375e+00,1.071822881698608398e+00,-8.481895923614501953e-01,2.691806480288505554e-02,-6.307786107063293457e-01,-3.666417896747589111e-01,1.508935540914535522e-01,-3.081831336021423340e-01,2.980349659919738770e-01,1.037139222025871277e-01,-2.543091773986816406e-01,-2.397926896810531616e-01,-2.318544089794158936e-01,-1.528272032737731934e-01,-4.744644165039062500e-01,5.849198251962661743e-02,7.654971629381179810e-02,2.350368648767471313e-01,1.922296732664108276e-01,-1.626660674810409546e-01,1.510022790171205997e-03,-2.778298966586589813e-02,3.243213295936584473e-01,-1.238443553447723389e-01,5.117421969771385193e-02,-1.062353610992431641e+00,-1.965493559837341309e-01,1.570907831192016602e+00,1.344929337501525879e+00,7.820352166891098022e-02,-6.306908130645751953e-01,-6.742402315139770508e-01,-2.569179236888885498e-02,-7.810390591621398926e-01,2.294868379831314087e-01,4.015775863081216812e-03,-4.699198305606842041e-01,1.292257290333509445e-02,-4.348889365792274475e-02,-1.417906284332275391e-01,-3.040264844894409180e-01,5.178007483482360840e-02,-2.139038294553756714e-01,6.081327795982360840e-01,1.488897055387496948e-01,-9.051341563463211060e-02,1.752480268478393555e-01,-2.395600378513336182e-01,5.474585574120283127e-03,7.873411476612091064e-02,-1.519841849803924561e-01,-4.452583380043506622e-05,-6.375919580459594727e-01,-3.303740322589874268e-01,-5.410701632499694824e-01,9.324990510940551758e-01,-7.227779030799865723e-01,-1.415995121002197266e+00,3.508863151073455811e-01,-5.860005617141723633e-01,-5.246298313140869141e-01,-1.651328057050704956e-01,3.190656900405883789e-01,-2.199593931436538696e-02,1.688492745161056519e-01,-3.991937935352325439e-01,-1.003903821110725403e-01,-5.667173266410827637e-01,-1.781028658151626587e-01,5.228945016860961914e-01,-1.734566539525985718e-01,5.074228346347808838e-02,5.168448686599731445e-01,-1.976937353610992432e-01,-6.236097589135169983e-02,-2.202377170324325562e-01,2.675528526306152344e-01,-1.657605320215225220e-01,-7.128238677978515625e-02,-2.229150831699371338e-01,-3.133790567517280579e-03,1.346192210912704468e-01,-4.680266678333282471e-01,3.204489469528198242e+00,1.026208639144897461e+00,-1.010009646415710449e+00,-5.645237863063812256e-03,-7.078392803668975830e-02,-9.666525125503540039e-01,2.226386219263076782e-02,-5.295217037200927734e-01,1.348801553249359131e-01,3.110891878604888916e-01,-2.700734511017799377e-02,1.976612210273742676e-01,-1.223430931568145752e-01,7.428721785545349121e-01,-2.282465100288391113e-01,-1.230967137962579727e-02,1.749907881021499634e-01,-2.359357289969921112e-02,-6.047574058175086975e-02,-8.242892473936080933e-02,2.232907712459564209e-02,-2.330789715051651001e-01,-6.812825053930282593e-02,-1.069179326295852661e-01,-1.898369938135147095e-01,-4.201902449131011963e-01,-5.682402849197387695e-01,1.895934343338012695e-01,2.062923669815063477e+00,7.856512814760208130e-02,1.379689574241638184e+00,7.666665911674499512e-01,-4.328414425253868103e-02,-4.598254561424255371e-01,1.135544031858444214e-01,-1.170383095741271973e-01,-7.163581848144531250e-01,4.625176787376403809e-01,-1.680233627557754517e-01,-1.676787436008453369e-01,1.685380488634109497e-01,3.484729528427124023e-01,3.586752712726593018e-02,-3.723246231675148010e-02,-4.452208802103996277e-02,-9.175073355436325073e-02,1.385128498077392578e-01,-5.797549709677696228e-02,1.776156425476074219e-01,-5.815130099654197693e-02,2.904405118897557259e-03,-5.006276816129684448e-02,-1.904525011777877808e-01,-4.726891517639160156e-01,6.434487700462341309e-01,1.670922040939331055e-01,1.965356945991516113e+00,-8.025791645050048828e-01,5.493213534355163574e-01,1.243482902646064758e-01,-5.884612202644348145e-01,3.379946053028106689e-01,2.455257475376129150e-01,-4.621947705745697021e-01,8.671330660581588745e-02,2.882943451404571533e-01,3.974429368972778320e-01,-3.688942641019821167e-02,2.062267363071441650e-01,6.141525506973266602e-01,2.384232729673385620e-01,1.970323920249938965e-01,3.683002293109893799e-01,2.647417783737182617e-01,2.315948903560638428e-01,4.705085754394531250e-01,-2.282339632511138916e-01,1.977350413799285889e-01,1.579261198639869690e-02,4.733038544654846191e-01,1.227988675236701965e-01,3.888995051383972168e-01,7.334772348403930664e-01,-4.801689982414245605e-01,9.027057290077209473e-01,2.094976186752319336e+00,7.368071079254150391e-01,2.949765324592590332e-02,1.148173570632934570e+00,1.400318741798400879e-01,3.375369310379028320e-01,7.571870088577270508e-01,9.208799004554748535e-01,4.492076635360717773e-01,5.094239488244056702e-02,-1.307370699942111969e-02,1.307978481054306030e-01,4.031675159931182861e-01,5.060786008834838867e-01,1.518757194280624390e-01,3.973140716552734375e-01,4.377493858337402344e-01,3.422227501869201660e-01,5.737659931182861328e-01,5.006051659584045410e-01,3.037401139736175537e-01,3.523362576961517334e-01,4.537182152271270752e-01,-6.962569057941436768e-02,-2.431680820882320404e-02,3.050081431865692139e-01,1.457650303840637207e+00,7.510939240455627441e-01,1.903111696243286133e+00,3.214405775070190430e-01,2.189290523529052734e-01,8.356130719184875488e-01,-3.286368250846862793e-01,7.243686914443969727e-01,-1.485453825443983078e-02,3.335429430007934570e-01,6.493114233016967773e-01,4.771245718002319336e-01,3.681935667991638184e-01,4.267562925815582275e-01,3.341647088527679443e-01,3.150199651718139648e-01,3.260521292686462402e-01,3.121869266033172607e-01,2.678517997264862061e-01,2.223908901214599609e-01,3.146292865276336670e-01,3.456542789936065674e-01,2.404247671365737915e-01,-5.329310661181807518e-04,4.130844399333000183e-02,2.654359862208366394e-02,-2.073316276073455811e-01,9.850741028785705566e-01,2.274346828460693359e+00,2.250472009181976318e-01,-1.072154760360717773e+00,-2.885180525481700897e-02,8.581601828336715698e-02,3.137511759996414185e-02,-2.820855975151062012e-01,1.544348716735839844e+00,-1.828774660825729370e-01,4.123736917972564697e-01,3.411865532398223877e-01,-3.809901773929595947e-01,2.925151884555816650e-01,7.251938804984092712e-03,1.732929795980453491e-02,4.808054491877555847e-02,-1.694783121347427368e-01,2.626885175704956055e-01,3.027642965316772461e-01,-2.046594917774200439e-01,8.308444917201995850e-02,7.943932712078094482e-02,4.567154943943023682e-01,-2.280834764242172241e-01,8.500284552574157715e-01,7.833106815814971924e-02,4.407919347286224365e-01,1.429038405418395996e+00,1.864195942878723145e+00,1.138000726699829102e+00,-9.663469791412353516e-01,6.022871285676956177e-02,4.013484716415405273e-02,-7.027807831764221191e-02,-2.221698313951492310e-01,8.350344896316528320e-01,-1.157200813293457031e+00,1.613249331712722778e-01,-2.631933987140655518e-01,-2.963945865631103516e-01,7.235661745071411133e-01,5.630452185869216919e-02,5.599153786897659302e-02,9.603299945592880249e-02,1.080996543169021606e-01,1.071591898798942566e-01,1.920522749423980713e-02,6.949649006128311157e-02,-1.185166165232658386e-01,2.264518588781356812e-01,5.293008685111999512e-01,6.652472019195556641e-01,8.227816224098205566e-01,1.011718630790710449e+00,1.091126441955566406e+00,2.087546586990356445e+00,1.745525598526000977e+00,7.977340817451477051e-01,2.739087045192718506e-01,-2.999848872423171997e-02,-5.141768231987953186e-02,6.281274557113647461e-02,-7.046215534210205078e-01,5.954201817512512207e-01,-1.025542467832565308e-01,-2.480782866477966309e-01,-4.225243628025054932e-01,-5.717859864234924316e-01,-4.204135835170745850e-01,1.260130293667316437e-02,-9.089841507375240326e-03,-8.556058257818222046e-02,3.218137621879577637e-01,-1.662591993808746338e-01,-9.231807291507720947e-02,1.251644194126129150e-01,5.227262973785400391e-01,2.769888564944267273e-02,7.934722304344177246e-01,2.799319326877593994e-01,8.228103518486022949e-01,6.183889508247375488e-01,1.322417616844177246e+00,2.637792825698852539e+00,9.453191161155700684e-01,8.102704286575317383e-01,9.360428154468536377e-02,-4.484515637159347534e-02,-3.173679113388061523e-02,-6.021937727928161621e-02,9.877243041992187500e-01,-1.208210349082946777e+00,-1.821385920047760010e-01,3.871448636054992676e-01,3.542428314685821533e-01,-6.659521907567977905e-02,1.298109292984008789e-01,1.470997836440801620e-02,-2.583451382815837860e-02,-3.183637261390686035e-01,-1.043626070022583008e-01,3.131268322467803955e-01,1.832538694143295288e-01,-5.215465426445007324e-01,-1.251754611730575562e-01,-8.251562714576721191e-02,1.524462997913360596e-01,4.224361777305603027e-01,4.270665049552917480e-01,-3.140980601310729980e-01,-4.645974040031433105e-01,-1.834685057401657104e-01,-8.650203943252563477e-01,2.746497392654418945e-01,-6.699388623237609863e-01,5.792824923992156982e-02,2.098294347524642944e-02,6.051912903785705566e-03,-5.385821312665939331e-02,6.716659665107727051e-01,1.135411143302917480e+00,1.133075356483459473e+00,1.041685581207275391e+00,7.746674418449401855e-01,6.689389944076538086e-01,4.753020703792572021e-01,6.733492016792297363e-01,2.299845963716506958e-01,8.552935719490051270e-02,3.232277929782867432e-01,6.532130837440490723e-01,-3.229434788227081299e-01,-2.849343419075012207e-01,3.277874290943145752e-01,3.819684684276580811e-01,-6.663532853126525879e-01,4.956149458885192871e-01,1.164826035499572754e+00,3.053767979145050049e-01,4.719785749912261963e-01,1.162051796913146973e+00,4.360242187976837158e-02,4.254961013793945312e-02,-4.307679831981658936e-03,3.915916383266448975e-02,-2.587543427944183350e-02,6.227129697799682617e-02,-2.486916258931159973e-02,-6.770982742309570312e-01,-6.823483109474182129e-01,7.585059404373168945e-01,8.082984089851379395e-01,8.606926202774047852e-01,-1.640619337558746338e-01,-5.116807222366333008e-01,4.718335345387458801e-02,5.592737793922424316e-01,-4.238696694374084473e-01,2.964141964912414551e-01,4.954937994480133057e-01,5.452172756195068359e-01,-8.816819190979003906e-01,5.048305392265319824e-01,4.687350988388061523e-01,3.138788938522338867e-01,-9.966753721237182617e-01,-1.581153869628906250e-01,-1.150117874145507812e+00,2.932507544755935669e-02,6.228885054588317871e-02,3.642502427101135254e-02,5.586087703704833984e-03,6.336145102977752686e-03,-1.174411177635192871e-02,4.768843948841094971e-02,-1.130827516317367554e-02,4.604665935039520264e-02,5.794724822044372559e-02,-1.141037046909332275e-02,2.595151960849761963e-02,-5.374868214130401611e-02,6.072033941745758057e-02,5.309715867042541504e-02,-8.275640755891799927e-02,5.771698951721191406e-01,6.817233562469482422e-01,-8.348246663808822632e-02,1.546410471200942993e-02,-7.675595581531524658e-03,-5.218890681862831116e-02,-7.636959850788116455e-02,7.343839108943939209e-02,-5.378717556595802307e-02,-5.580338090658187866e-02,-7.206049561500549316e-02,6.691269576549530029e-02,7.530708611011505127e-02,3.788314014673233032e-02,3.071344643831253052e-02,4.100385308265686035e-02,-4.458311200141906738e-02,1.704457402229309082e-02,-5.121363326907157898e-02,-1.190283149480819702e-02,1.380745787173509598e-02,4.419606178998947144e-02,5.896140336990356445e-01,7.991795539855957031e-01,7.038215994834899902e-01,9.482779502868652344e-01,6.792831420898437500e-01,-2.513912618160247803e-01,7.518888264894485474e-02,-9.987010955810546875e-01,-7.531479001045227051e-01,3.432644605636596680e-01,-7.613157033920288086e-01,8.207192644476890564e-03,1.964829087257385254e+00,1.400860071182250977e+00,8.686217069625854492e-01,-9.879833459854125977e-02,2.640624642372131348e-01,7.865676283836364746e-01,-3.741671517491340637e-02,-6.086313351988792419e-02,-2.070349454879760742e-02,2.766788005828857422e-02,7.755361497402191162e-02,7.472151517868041992e-02,-4.702845215797424316e-02,-1.200604200363159180e+00,-1.186131954193115234e+00,1.300076246261596680e+00,8.172591924667358398e-01,9.287914633750915527e-01,2.145908832550048828e+00,8.683037161827087402e-01,3.234911262989044189e-01,1.026634812355041504e+00,3.281485736370086670e-01,8.121362924575805664e-01,-2.952151298522949219e-01,6.337463110685348511e-02,-4.742641150951385498e-01,5.669597387313842773e-01,5.979242920875549316e-01,5.119537115097045898e-01,7.714632153511047363e-01,5.747107863426208496e-01,-1.384887695312500000e-01,4.487211704254150391e-01,1.894896775484085083e-01,-1.243372082710266113e+00,-1.739889383316040039e-02,-8.338148146867752075e-02,3.943362832069396973e-02,8.073039352893829346e-03,-5.959700345993041992e-01,-1.980239272117614746e+00,-1.389111019670963287e-02,-6.193568110466003418e-01,2.541463971138000488e-01,-3.844519257545471191e-01,-9.011340141296386719e-01,2.912160158157348633e-01,2.097604870796203613e-01,-9.322291612625122070e-02,-2.089617997407913208e-01,2.936930060386657715e-01,-3.097265958786010742e-01,3.829043805599212646e-01,-2.007502019405364990e-01,-2.283143401145935059e-01,2.007981389760971069e-01,-3.031584024429321289e-01,-2.252842485904693604e-01,7.109007239341735840e-01,1.215899467468261719e+00,1.024249911308288574e+00,-1.952908933162689209e-01,-1.242010831832885742e+00,9.821033477783203125e-02,-6.149667501449584961e-02,4.642777144908905029e-02,2.048293501138687134e-02,3.850840032100677490e-01,-2.314497232437133789e+00,8.258294463157653809e-01,2.355904579162597656e-01,7.935248315334320068e-02,-7.071222662925720215e-01,4.711440503597259521e-01,3.718008995056152344e-01,8.055142760276794434e-01,-1.671339869499206543e-01,1.371872425079345703e-01,1.623160839080810547e-01,4.913560450077056885e-01,-9.993348270654678345e-02,4.097588956356048584e-01,2.008052170276641846e-01,-2.066867202520370483e-01,5.101933479309082031e-01,2.496128082275390625e-01,2.355061918497085571e-01,1.588094830513000488e-01,2.534469775855541229e-02,-1.739761680364608765e-01,-6.170747876167297363e-01,-7.556653618812561035e-01,1.092622756958007812e+00,4.220385849475860596e-02,4.726167023181915283e-02,2.580310106277465820e+00,-1.466239690780639648e+00,3.782590478658676147e-02,-8.835639953613281250e-01,-4.393700957298278809e-01,-2.134607732295989990e-01,-3.973729163408279419e-02,-1.916747838258743286e-01,1.087682172656059265e-01,1.823785603046417236e-01,2.273201942443847656e-01,-2.026157081127166748e-01,5.628361701965332031e-01,3.353014588356018066e-01,1.872540861368179321e-01,-1.508753001689910889e-01,-1.657312810420989990e-01,1.566580235958099365e-01,2.425651550292968750e-01,5.036023855209350586e-01,3.323960304260253906e-02,1.333050131797790527e-01,2.201047688722610474e-01,5.744965001940727234e-02,7.749844789505004883e-01,5.702496170997619629e-01,1.589085906744003296e-02,2.002203166484832764e-01,-2.624258697032928467e-01,-7.994548678398132324e-01,2.431693673133850098e-01,-5.045970082283020020e-01,-8.491961956024169922e-01,-3.066946566104888916e-01,-1.583555340766906738e-01,-3.569541573524475098e-01,-4.769927859306335449e-01,-3.589792251586914062e-01,4.947005584836006165e-02,-2.382119446992874146e-01,-2.687434852123260498e-01,2.265775352716445923e-01,-8.180597424507141113e-02,-5.853981375694274902e-01,-7.004429697990417480e-01,3.791088238358497620e-02,-1.215025857090950012e-01,-6.177208423614501953e-01,-1.090585291385650635e-01,3.640969395637512207e-01,5.759637951850891113e-01,9.763951897621154785e-01,3.397671878337860107e-01,7.383450865745544434e-01,-5.894140154123306274e-02,-7.522775530815124512e-01,-5.397461056709289551e-01,-1.218464136123657227e+00,-6.903378665447235107e-02,-2.508159279823303223e-01,-5.737724900245666504e-01,2.588510215282440186e-01,7.621644437313079834e-02,-5.441754460334777832e-01,-7.785702496767044067e-02,-2.396663576364517212e-01,-3.602358400821685791e-01,-4.373194649815559387e-02,1.241376921534538269e-01,-2.624101638793945312e-01,-5.948219299316406250e-01,-3.635290861129760742e-01,-3.152703940868377686e-01,-1.938915997743606567e-01,-5.268906950950622559e-01,5.712400376796722412e-02,1.470581144094467163e-01,7.978402823209762573e-02,4.648405313491821289e-02,3.602114915847778320e-01,5.943157672882080078e-01,-9.021524339914321899e-02,4.054470062255859375e-01,-1.319860458374023438e+00,-1.704615354537963867e+00,-5.486479401588439941e-02,-3.686746060848236084e-01,-1.691471487283706665e-01,1.184257343411445618e-01,2.515033185482025146e-01,-4.327614903450012207e-01,-1.223566234111785889e-01,-7.803787291049957275e-02,2.507496997714042664e-02,1.694272011518478394e-01,3.266408145427703857e-01,-1.665909290313720703e-01,-2.096309959888458252e-01,-5.259253382682800293e-01,-3.107976540923118591e-02,-2.763046026229858398e-01,-1.190537810325622559e-01,-1.362920105457305908e-01,-2.736651003360748291e-01,2.682493329048156738e-01,2.447273731231689453e-01,3.513245880603790283e-01,3.398895561695098877e-01,3.677278161048889160e-01,4.401206672191619873e-01,-7.471004128456115723e-02,-1.441314458847045898e+00,-2.035832166671752930e+00,-1.609549522399902344e-01,-1.523299574851989746e+00,-3.946688473224639893e-01,1.877660118043422699e-02,-2.547381259500980377e-02,9.109733998775482178e-02,-1.546626165509223938e-02,-2.405432760715484619e-01,-1.416905969381332397e-01,-3.029702007770538330e-01,-2.031133323907852173e-01,-4.207255542278289795e-01,-8.047352433204650879e-01,-4.881281554698944092e-01,-1.559280008077621460e-01,-3.168891370296478271e-01,-8.100622892379760742e-02,-1.138550490140914917e-01,3.139339685440063477e-01,-2.906464934349060059e-01,5.067001581192016602e-01,7.476684451103210449e-01,4.713719189167022705e-01,4.114413559436798096e-01,-2.090687990188598633e+00,8.199432492256164551e-02,-9.537780284881591797e-01,-1.855056524276733398e+00,-1.413846254348754883e+00,-3.708423078060150146e-01,4.809339996427297592e-03,-2.014740854501724243e-01,1.825788170099258423e-01,1.820220053195953369e-01,3.755505681037902832e-01,-1.199795212596654892e-02,7.984043657779693604e-02,3.173228204250335693e-01,-1.385180801153182983e-01,1.598649173974990845e-01,-2.063416987657546997e-01,-3.876432776451110840e-01,-2.509777247905731201e-01,-1.337594091892242432e-01,5.430190265178680420e-02,-1.549523174762725830e-01,8.549411594867706299e-02,2.042475529015064240e-02,3.960994184017181396e-01,1.031474113464355469e+00,-3.538495302200317383e-01,1.236715912818908691e-02,6.791200637817382812e-01,5.651475489139556885e-02,-1.166861534118652344e+00,1.427667308598756790e-02,-3.468797504901885986e-01,4.099026620388031006e-01,4.522422850131988525e-01,2.021864503622055054e-01,3.568544089794158936e-01,2.395196557044982910e-01,3.140870332717895508e-01,1.118833050131797791e-01,-2.251318693161010742e-01,1.232122704386711121e-01,2.052620798349380493e-01,5.770386457443237305e-01,-2.576327621936798096e-01,-2.533188462257385254e-01,-3.671057224273681641e-01,-1.027730107307434082e-01,2.868674695491790771e-01,-1.736530512571334839e-01,-9.205466508865356445e-02,3.518606424331665039e-01,5.188721418380737305e-01,1.257682561874389648e+00,8.762453198432922363e-01,7.612253427505493164e-01,6.567438840866088867e-01,-4.201449453830718994e-02,-5.524392127990722656e-01,-1.041100621223449707e+00,2.267742305994033813e-01,1.566211134195327759e-01,2.175884991884231567e-01,1.408441737294197083e-02,1.984414309263229370e-01,3.934070002287626266e-03,-2.489608526229858398e-01,-5.123256891965866089e-02,-9.347864240407943726e-02,3.514522314071655273e-01,6.974197626113891602e-01,5.764817595481872559e-01,7.403369992971420288e-02,5.319758132100105286e-02,-1.096542626619338989e-01,-3.192230463027954102e-01,-2.206581681966781616e-01,-8.949030935764312744e-02,-5.117357522249221802e-02,-1.839133910834789276e-02,2.320255339145660400e-01,1.061198592185974121e+00,4.047028422355651855e-01,-9.606080651283264160e-01,-9.065264463424682617e-01,4.984784722328186035e-01,-5.758272409439086914e-01,-1.757413983345031738e+00,-4.254136085510253906e-01,-8.014677166938781738e-01,-1.441476959735155106e-02,-3.022029101848602295e-01,-1.988420933485031128e-01,5.544432997703552246e-02,-1.264304518699645996e-01,-1.284038424491882324e-01,6.448487937450408936e-02,7.285746932029724121e-01,4.514855146408081055e-01,2.382889389991760254e-01,5.462571978569030762e-01,2.012398838996887207e-01,3.127255290746688843e-02,-6.218097731471061707e-02,3.032365143299102783e-01,1.762581169605255127e-01,-2.876807451248168945e-01,-3.421275615692138672e-01,8.627449274063110352e-01,-5.574489012360572815e-02,3.750872015953063965e-01,1.160393595695495605e+00,1.172350883483886719e+00,1.121067166328430176e+00,-7.190837264060974121e-01,-5.966097116470336914e-01,4.088595211505889893e-01,-1.007375359535217285e+00,-1.864376664161682129e-01,9.249895811080932617e-02,-5.021253824234008789e-01,-2.400731295347213745e-01,7.641758769750595093e-03,-4.160346463322639465e-02,4.398834407329559326e-01,6.364868879318237305e-01,2.366332113742828369e-01,4.908306598663330078e-01,1.961236000061035156e-01,2.369444668292999268e-01,9.350787103176116943e-02,6.569370161741971970e-03,-2.149400264024734497e-01,-2.521486878395080566e-01,-6.659622490406036377e-02,-2.727800905704498291e-01,-4.908132553100585938e-01,-6.197492480278015137e-01,1.259475588798522949e+00,-7.396749258041381836e-01,7.136046290397644043e-01,8.635643124580383301e-01,-8.341566920280456543e-01,-1.179569810628890991e-01,4.323022365570068359e-01,-3.589521348476409912e-01,-2.565471827983856201e-01,-1.113892719149589539e-02,-2.645177207887172699e-02,4.802708327770233154e-02,1.815993338823318481e-01,1.185827478766441345e-01,3.230247199535369873e-01,2.039510309696197510e-01,4.493451714515686035e-01,8.063247203826904297e-01,2.008334696292877197e-01,1.341971755027770996e-01,-1.678785681724548340e-01,-2.133459597826004028e-02,-2.493178546428680420e-01,-7.034580111503601074e-01,-5.674670338630676270e-01,-3.907634913921356201e-01,-3.767028152942657471e-01,-6.793747544288635254e-01,1.293625473976135254e+00,-6.109730601310729980e-01,1.713597536087036133e+00,3.345806151628494263e-02,-7.449239492416381836e-01,2.210800349712371826e-01,5.062080621719360352e-01,3.147274553775787354e-01,-4.950096309185028076e-01,-1.691665798425674438e-01,2.979823648929595947e-01,2.245050370693206787e-01,2.365886718034744263e-01,4.761543869972229004e-01,4.007679969072341919e-02,6.803523749113082886e-02,4.822545349597930908e-01,3.989832401275634766e-01,3.554973602294921875e-01,-3.525548800826072693e-02,-2.407710552215576172e-01,-1.974551677703857422e-01,-3.897657096385955811e-01,-6.818990111351013184e-01,-3.220242559909820557e-01,-3.701308667659759521e-01,2.538254261016845703e-01,-4.650269448757171631e-02,1.756820082664489746e+00,-3.475155830383300781e-01,1.113145798444747925e-01,-6.508506834506988525e-02,-7.237039208412170410e-01,2.450549155473709106e-01,-3.075078129768371582e-01,6.214863061904907227e-01,3.146106004714965820e-01,2.949094176292419434e-01,-1.090481728315353394e-01,4.161674976348876953e-01,5.758841037750244141e-01,6.186902523040771484e-01,5.899302959442138672e-01,-7.461136579513549805e-02,4.307213723659515381e-01,4.119256734848022461e-01,-2.060740999877452850e-02,1.530200056731700897e-02,-2.232373505830764771e-01,-2.521677315235137939e-01,-3.383593261241912842e-02,1.221456304192543030e-01,4.050058126449584961e-01,3.054311275482177734e-01,4.613382816314697266e-01,4.871326386928558350e-01,-3.116376996040344238e-01,-1.361964046955108643e-01,-1.041806578636169434e+00,-1.127994894981384277e+00,-2.421374171972274780e-01,4.353150427341461182e-01,-3.721904754638671875e-01,3.802089691162109375e-01,4.960735440254211426e-01,2.980237305164337158e-01,2.889750003814697266e-01,3.221088051795959473e-01,4.512471556663513184e-01,1.039412319660186768e-01,-3.428111672401428223e-01,1.436950415372848511e-01,2.883928418159484863e-01,1.592739820480346680e-01,1.172339171171188354e-01,6.962066399864852428e-04,2.166036283597350121e-03,-1.212199181318283081e-01,1.231772080063819885e-01,3.368430733680725098e-01,8.327521383762359619e-03,1.123057603836059570e-01,5.445021986961364746e-01,5.731586217880249023e-01,3.300932645797729492e-01,-1.244537159800529480e-01,6.893400549888610840e-01,3.492197021842002869e-02,-1.333338856697082520e+00,8.672594428062438965e-01,3.628546893596649170e-01,4.233130216598510742e-01,3.234315812587738037e-01,2.579476237297058105e-01,3.717102408409118652e-01,3.811077475547790527e-01,5.265403985977172852e-01,3.432104587554931641e-01,-5.222466215491294861e-02,-4.698814749717712402e-01,3.669766187667846680e-01,3.140937164425849915e-02,4.426834285259246826e-01,1.765859425067901611e-01,4.655254483222961426e-01,3.928074985742568970e-02,-8.711487054824829102e-02,3.844714537262916565e-02,2.896499633789062500e-01,3.966512382030487061e-01,8.693024516105651855e-01,-3.649216294288635254e-01,1.248831272125244141e+00,3.624610006809234619e-01,-9.754047393798828125e-01,2.515508234500885010e-02,-3.934022486209869385e-01,2.705536484718322754e-01,-1.179657876491546631e-01,-1.420150995254516602e-01,-3.296366035938262939e-01,2.915924228727817535e-02,5.532948374748229980e-01,5.957512557506561279e-02,3.836518228054046631e-01,4.739901125431060791e-01,1.629957705736160278e-01,-7.079314440488815308e-03,7.127465307712554932e-02,8.855187892913818359e-02,7.061997056007385254e-02,1.847371608018875122e-01,2.085836678743362427e-01,2.998411357402801514e-01,-3.859847411513328552e-02,6.200864911079406738e-01,6.800570487976074219e-01,1.850271970033645630e-01,7.100417613983154297e-01,-1.934603750705718994e-01,-9.005976915359497070e-01,5.686027407646179199e-01,-2.359997630119323730e-01,2.112766802310943604e-01,8.929013013839721680e-01,-1.104270935058593750e+00,-2.969879508018493652e-01,-1.241077855229377747e-01,-2.891813814640045166e-01,4.808367490768432617e-01,4.022828638553619385e-01,1.119734346866607666e-01,1.289541721343994141e-01,-8.687328547239303589e-03,-1.051918193697929382e-01,-1.004025861620903015e-01,1.969131082296371460e-01,3.828838467597961426e-01,-8.792450278997421265e-02,-4.293140470981597900e-01,5.119204521179199219e-01,1.841449588537216187e-01,-1.013542413711547852e-01,1.565438359975814819e-01,-1.473612636327743530e-01,4.158181548118591309e-01,8.534519672393798828e-01,-7.640102505683898926e-01,-6.520997285842895508e-01,1.340399861335754395e+00,1.281534284353256226e-01,2.771476507186889648e-01,3.074096143245697021e-02,-1.210135340690612793e+00,2.789026796817779541e-01,7.756392359733581543e-01,3.967422246932983398e-01,-5.886887386441230774e-02,3.337498307228088379e-01,-2.542114555835723877e-01,-1.574786752462387085e-02,2.111283540725708008e-01,-2.314049936830997467e-02,7.799836993217468262e-02,-2.137064337730407715e-01,-7.361691445112228394e-02,1.435269564390182495e-01,-1.564715504646301270e-01,1.709558516740798950e-01,2.481991499662399292e-01,4.972727596759796143e-01,2.218592017889022827e-01,6.853349208831787109e-01,5.351081490516662598e-01,-4.646372050046920776e-02,-8.415734171867370605e-01,-8.278969526290893555e-01,1.132179260253906250e+00,1.088955625891685486e-01,-6.816948205232620239e-02,6.685751676559448242e-02,-7.230692505836486816e-01,-3.861947953701019287e-01,1.020004868507385254e+00,6.670357286930084229e-02,-2.289316505193710327e-01,-6.441572904586791992e-01,2.198080271482467651e-01,1.165971755981445312e-01,-2.844624221324920654e-01,-2.661657631397247314e-01,6.416517496109008789e-02,-2.339411228895187378e-01,-2.052669646218419075e-03,-2.161029540002346039e-02,2.675424516201019287e-01,-5.390835925936698914e-02,2.044178098440170288e-01,1.324579119682312012e-01,3.881253302097320557e-01,4.803975224494934082e-01,2.808977365493774414e-01,2.348454147577285767e-01,-1.380123972892761230e+00,-4.661704003810882568e-01,-4.139919579029083252e-02,3.793283551931381226e-02,-8.036905527114868164e-02,6.483688950538635254e-02,-7.732217907905578613e-01,-1.877561926841735840e+00,-2.385267257690429688e+00,-6.700533628463745117e-01,-3.749982416629791260e-01,-4.313818514347076416e-01,5.240158364176750183e-02,1.532177031040191650e-01,3.241490200161933899e-02,2.082975655794143677e-01,9.749130345880985260e-03,-1.296703219413757324e-01,-1.695703715085983276e-02,-1.115826815366744995e-01,1.978604495525360107e-02,-5.673549771308898926e-01,-2.806529402732849121e-01,3.603777587413787842e-01,-5.192251801490783691e-01,-4.099840521812438965e-01,1.135954484343528748e-01,-7.002216577529907227e-01,-4.710752069950103760e-01,1.070295214653015137e+00,1.118002295494079590e+00,-6.738754361867904663e-02,-4.894496127963066101e-02,-2.449521794915199280e-02,-2.973956167697906494e-01,-3.499188125133514404e-01,-4.682582914829254150e-01,-9.938077926635742188e-01,-4.252759516239166260e-01,-9.509889036417007446e-02,-6.346305012702941895e-01,6.993599981069564819e-02,1.740973740816116333e-01,-8.553514629602432251e-02,1.525311172008514404e-02,-5.229985713958740234e-01,-2.134616374969482422e-01,2.543245553970336914e-01,-2.455215454101562500e-01,-3.254878222942352295e-01,-4.777728617191314697e-01,-5.917977914214134216e-02,-3.637063503265380859e-01,2.731247544288635254e-01,9.271169900894165039e-01,8.949846029281616211e-01,1.529638171195983887e-01,-7.543867230415344238e-01,3.635247349739074707e-01,8.833535015583038330e-03,5.091474950313568115e-02,-1.668086647987365723e-02,-1.639583706855773926e-02,-2.109519392251968384e-01,2.208108305931091309e-01,-1.413123726844787598e+00,-2.494433879852294922e+00,-2.448036193847656250e+00,-1.127458095550537109e+00,-1.679478883743286133e+00,-8.015679717063903809e-01,-2.514888644218444824e-01,-1.198025226593017578e+00,-7.278233170509338379e-01,-5.687458515167236328e-01,-9.940377473831176758e-01,-4.896526932716369629e-01,1.232773065567016602e-01,-1.966723799705505371e-01,-6.876394152641296387e-01,-1.290745258331298828e+00,-3.230313062667846680e-01,9.904862940311431885e-02,-1.767852783203125000e+00,-1.146165013313293457e+00,-2.365777641534805298e-02,4.127098619937896729e-02,6.421054899692535400e-02,-2.399779856204986572e-02,6.186324357986450195e-02,-6.869029998779296875e-02,-6.694948673248291016e-02,-4.710943996906280518e-02,5.351183563470840454e-02,-6.864053755998611450e-02,-6.461950019001960754e-03,9.278260916471481323e-02,-3.295892104506492615e-02,-1.126956343650817871e+00,-1.034658670425415039e+00,-1.248917818069458008e+00,-1.664873838424682617e+00,-1.890994429588317871e+00,-1.063638687133789062e+00,-8.671656250953674316e-01,-1.105087280273437500e+00,-3.794413805007934570e-01,-6.607787311077117920e-02,-4.452965855598449707e-01,2.449701875448226929e-01,8.465108275413513184e-01,1.075024962425231934e+00,-1.544862985610961914e-03,-7.870373129844665527e-02,3.142644464969635010e-02,-6.572678685188293457e-02,2.353429794311523438e-03,-5.316249281167984009e-02,-6.748508661985397339e-02,6.228834390640258789e-03,5.487576127052307129e-02,-4.694414138793945312e-02,