9.506453573703765869e-02,-3.530818521976470947e-01,-9.703441858291625977e-01,1.002199202775955200e-01,-5.607931613922119141e-01,-1.066135525703430176e+00,-3.569071292877197266e-01,-5.121542811393737793e-01,6.959474831819534302e-02,-6.330033540725708008e-01,4.678541421890258789e-01,9.983772635459899902e-01,5.516428351402282715e-01,-4.503971636295318604e-01,-6.040105223655700684e-01,-7.180598378181457520e-01,2.144162207841873169e-01,9.918281435966491699e-02,-3.740653395652770996e-01,-4.250371158123016357e-01,1.569451689720153809e-01,-7.609627246856689453e-01,-7.695215344429016113e-01,1.675616651773452759e-01,4.284152388572692871e-01,4.522391855716705322e-01,-5.283973217010498047e-01,-1.316409826278686523e+00,2.059345319867134094e-02,-5.153225660324096680e-01,1.547742486000061035e-01,-6.360793113708496094e-01,8.658114075660705566e-01,1.646618843078613281e+00,6.921654939651489258e-01,-5.666365623474121094e-01,-1.967863082885742188e+00,2.954199016094207764e-01,-9.605011940002441406e-01,5.445812344551086426e-01,3.846956193447113037e-01,-3.524448275566101074e-01,1.178552389144897461e+00,-6.527503021061420441e-03,-1.098096277564764023e-02,8.830491304397583008e-01,-4.498874545097351074e-01,-1.046242833137512207e+00,-1.100808158516883850e-01,1.589534044265747070e+00,5.438434481620788574e-01,3.994272947311401367e-01,-3.300682008266448975e-01,-4.155328273773193359e-01,-3.199675977230072021e-01,-8.497537970542907715e-01,-1.581514179706573486e-01,-3.177745342254638672e-01,7.750632613897323608e-02,-7.090564370155334473e-01,1.154187619686126709e-01,1.105205059051513672e+00,5.479281544685363770e-01,-6.305166482925415039e-01,-4.723643362522125244e-01,-6.808266043663024902e-02,1.499294936656951904e-01,1.010622501373291016e+00,4.176564812660217285e-01,6.604819893836975098e-01,-4.953314363956451416e-01,-3.314154148101806641e-01,-2.786646187305450439e-01,-4.814663156867027283e-02,-7.926030457019805908e-02,-1.104517340660095215e+00,2.975021004676818848e-01,-1.342814326286315918e+00,-1.069128751754760742e+00,7.856384515762329102e-01,2.861009538173675537e-01,-9.652922153472900391e-01,-2.750265121459960938e+00,-3.530199229717254639e-01,6.426120996475219727e-01,-2.432013273239135742e+00,-1.167264103889465332e+00,-1.100524663925170898e+00,8.936876803636550903e-02,-4.610960483551025391e-01,-6.008842587471008301e-01,-1.506652593612670898e+00,-1.543839693069458008e+00,2.331138372421264648e+00,-1.473018646240234375e+00,7.275273799896240234e-01,4.224624019116163254e-03,-6.545946747064590454e-02,4.977839887142181396e-01,6.523223221302032471e-02,-1.079843267798423767e-01,-1.329943776130676270e+00,-1.162267804145812988e+00,-2.348973453044891357e-01,-3.343042731285095215e-01,3.759142160415649414e-01,7.481313943862915039e-01,1.268294572830200195e+00,-1.133138090372085571e-01,9.972988814115524292e-02,4.274113476276397705e-01,-1.348524212837219238e+00,-2.084186226129531860e-01,-1.069422960281372070e-01,4.928951263427734375e-01,9.609277844429016113e-01,-1.744676977396011353e-01,-1.130044460296630859e+00,-9.032747745513916016e-01,-1.528582572937011719e+00,2.577928900718688965e-01,5.706200003623962402e-01,-2.119188070297241211e+00,-1.482380330562591553e-01,6.008625030517578125e-01,-1.650479674339294434e+00,-1.007649421691894531e+00,-1.383892297744750977e+00,-1.352021191269159317e-02,-2.375409603118896484e+00,-4.212461113929748535e-01,-3.598282858729362488e-02,-6.501414179801940918e-01,-1.062786102294921875e+00,8.575240969657897949e-01,-1.394353985786437988e+00,-2.976912856101989746e-01,5.972588658332824707e-01,3.181120753288269043e-01,-7.293267846107482910e-01,-3.188155591487884521e-01,6.604508161544799805e-01,8.224386572837829590e-01,-1.077268838882446289e+00,-1.152309626340866089e-01,5.939141511917114258e-01,-1.536091566085815430e+00,-2.056257486343383789e+00,2.034865170717239380e-01,6.348080635070800781e-01,-9.584304690361022949e-01,-9.469478726387023926e-01,1.164898276329040527e+00,-1.575100779533386230e+00,-1.416025996208190918e+00,1.360787153244018555e-01,-4.150353670120239258e-01,1.546733528375625610e-01,2.998581826686859131e-01,2.747278511524200439e-01,3.509282469749450684e-01,1.548706144094467163e-01,-1.241069197654724121e+00,-3.099040091037750244e-01,6.446344256401062012e-01,-9.224430918693542480e-01,1.218793392181396484e-01,-4.976650774478912354e-01,-1.674821078777313232e-01,-1.881472915410995483e-01,-1.825016736984252930e+00,6.969956755638122559e-01,-1.127844572067260742e+00,-1.469533324241638184e+00,-1.418874859809875488e+00,1.151481270790100098e-01,-2.041414007544517517e-02,1.018395185470581055e+00,-2.048595428466796875e+00,-1.016465350985527039e-01,-9.615550190210342407e-02,7.234430313110351562e-01,-3.547595739364624023e+00,4.705704748630523682e-01,-1.223209738731384277e+00,-1.803831458091735840e+00,-1.403365433216094971e-01,-3.415817618370056152e-01,-3.362115100026130676e-02,-1.933602094650268555e+00,6.267235875129699707e-01,-3.898369967937469482e-01,-7.550112605094909668e-01,-2.447662353515625000e+00,-1.078724622726440430e+00,2.926571071147918701e-01,-2.618573606014251709e-01,-6.431879997253417969e-01,-6.685164570808410645e-01,1.770828515291213989e-01,