6.038154959678649902e-01,5.691978335380554199e-01,-4.471131265163421631e-01,6.217715740203857422e-01,-5.221239328384399414e-01,1.839995533227920532e-01,3.014549612998962402e-01,3.192532807588577271e-02,-2.366244941949844360e-01,-5.227684378623962402e-01,-9.346893429756164551e-01,7.653326988220214844e-01,-1.369467228651046753e-01,-4.148674607276916504e-01,4.238510727882385254e-01,-1.397896260023117065e-01,-7.747391462326049805e-01,-7.538012862205505371e-01,-4.982910752296447754e-01,-5.498704910278320312e-01,3.179119527339935303e-01,-3.074672818183898926e-01,-8.167522400617599487e-02,-5.708759427070617676e-01,-1.698458790779113770e-01,-2.121667144820094109e-03,-2.725791037082672119e-01,-1.857956767082214355e+00,4.607839286327362061e-01,2.285534143447875977e-02,-3.871796429157257080e-01,4.420314729213714600e-02,-1.235905513167381287e-01,-2.294024825096130371e-01,-3.140308856964111328e-01,-3.425655066967010498e-01,1.226479932665824890e-02,7.003153860569000244e-02,-1.028902754187583923e-01,-3.445372357964515686e-02,-2.498451471328735352e-01,-4.243538249284029007e-03,-4.764219522476196289e-01,-2.329394519329071045e-01,-7.784683704376220703e-01,-1.073485612869262695e+00,-6.553857028484344482e-02,3.001223504543304443e-01,9.966300800442695618e-03,1.129517197608947754e+00,-3.354294300079345703e-01,-6.719995737075805664e-01,1.195858642458915710e-01,-2.966131269931793213e-01,-7.395379245281219482e-03,-3.463666141033172607e-01,1.974981129169464111e-01,-1.821370363235473633e+00,7.297991514205932617e-01,-5.884020328521728516e-01,-2.525134682655334473e-01,-5.533409118652343750e-01,-7.146406769752502441e-01,-7.854936271905899048e-02,-2.209270186722278595e-02,3.591747283935546875e-01,6.953174620866775513e-02,6.038265675306320190e-02,4.793275594711303711e-01,-4.987443089485168457e-01,-4.715293347835540771e-01,-1.377152204513549805e-01,-1.962915807962417603e-01,-2.553472816944122314e-01,1.612710654735565186e-01,-4.572116434574127197e-01,-6.179764866828918457e-01,-6.458272784948348999e-02,5.780971646308898926e-01,6.212319806218147278e-02,-7.124840021133422852e-01,1.059474423527717590e-01,7.424831986427307129e-01,-1.804261356592178345e-01,8.415182232856750488e-01,-9.131701290607452393e-02,-2.888309061527252197e-01,-1.973587572574615479e-01,-3.165698945522308350e-01,-1.948251008987426758e+00,-2.917876243591308594e-01,-8.716388046741485596e-02,1.117600314319133759e-02,-1.211616303771734238e-02,-2.852419018745422363e-01,6.624366641044616699e-01,3.420477509498596191e-01,3.623208105564117432e-01,-5.817028880119323730e-01,-3.998743295669555664e-01,1.504484415054321289e-01,-3.748658895492553711e-01,-3.866955265402793884e-02,-1.786992140114307404e-02,2.541356682777404785e-01,4.207594394683837891e-01,-1.272220760583877563e-01,-1.848109811544418335e-01,1.641405671834945679e-01,-4.837474524974822998e-01,9.171968102455139160e-01,-2.834578789770603180e-02,1.456442259950563312e-04,-3.663699924945831299e-01,1.202674508094787598e-01,2.867554314434528351e-03,-9.480981826782226562e-01,-4.757521301507949829e-02,2.044095192104578018e-03,7.861854434013366699e-01,2.011258155107498169e-01,-5.075003206729888916e-02,-3.663431704044342041e-01,-2.560508251190185547e-01,-5.845063328742980957e-01,-3.814305365085601807e-01,7.723081111907958984e-01,8.158035576343536377e-02,-4.402570128440856934e-01,-1.173505187034606934e+00,6.200582385063171387e-01,-3.945838809013366699e-01,-1.143743693828582764e-01,3.895787000656127930e-01,1.384144872426986694e-01,-2.474233657121658325e-01,-5.104072093963623047e-01,-1.229280829429626465e+00,-1.089124083518981934e+00,5.377490520477294922e-01,-8.099360764026641846e-02,9.591927379369735718e-02,-1.236034929752349854e-01,1.079258546233177185e-01,3.140359818935394287e-01,2.034019678831100464e-01,-1.080677390098571777e+00,-2.087250649929046631e-01,1.102401912212371826e-01,4.783759713172912598e-01,-4.266898930072784424e-01,1.646393686532974243e-01,-2.347283065319061279e-01,2.738652229309082031e-01,-3.723205327987670898e-01,1.020471379160881042e-01,-3.229533904232084751e-04,3.136623501777648926e-01,-4.802182689309120178e-02,-2.898268587887287140e-02,1.534606814384460449e-01,-1.207056418061256409e-01,-2.464361041784286499e-01,-6.720983982086181641e-01,-1.568203121423721313e-01,3.132062554359436035e-01,-3.960376605391502380e-02,-6.912091970443725586e-01,6.539975106716156006e-02,-5.765696763992309570e-01,-2.526434659957885742e-01,-6.576722860336303711e-01,3.268294930458068848e-01,-4.727281630039215088e-01,-1.984350830316543579e-01,-1.891443282365798950e-01,-4.085259735584259033e-01,-1.635637879371643066e-01,7.300940155982971191e-02,1.297806017100811005e-02,-5.238930583000183105e-01,2.075424939393997192e-01,-7.112926244735717773e-01,-3.234351426362991333e-02,-8.470602631568908691e-01,3.588759899139404297e-01,-1.177972912788391113e+00,-1.146922260522842407e-01,-3.851030766963958740e-01,-8.714819550514221191e-01,-4.529819786548614502e-01,1.019599139690399170e-01,-8.304868638515472412e-02,-6.702349185943603516e-01,-3.402847051620483398e-01,-7.034010887145996094e-01,4.765703380107879639e-01,8.058772087097167969e-01,1.510546654462814331e-01,-3.363555669784545898e-01,